{"learner":{"attributes":{"scikit_learn":"{\"_estimator_type\": \"regressor\"}"},"feature_names":["housing_new_construction_lag8","housing_extensions_lag8","non_residential_icef_lag6","non_residential_services_lag8","economic_activity_indicator_lag6","economic_perception_index_lag8","currency_exchange_rate_lag8","interest_rate_lag6"],"feature_types":["float","float","float","float","float","float","float","float"],"gradient_booster":{"model":{"cats":{"enc":[],"feature_segments":[],"sorted_idx":[]},"gbtree_model_param":{"num_parallel_tree":"1","num_trees":"128"},"iteration_indptr":[0,1,2,3,4,5,6,7,8,9,10,11,12,13,14,15,16,17,18,19,20,21,22,23,24,25,26,27,28,29,30,31,32,33,34,35,36,37,38,39,40,41,42,43,44,45,46,47,48,49,50,51,52,53,54,55,56,57,58,59,60,61,62,63,64,65,66,67,68,69,70,71,72,73,74,75,76,77,78,79,80,81,82,83,84,85,86,87,88,89,90,91,92,93,94,95,96,97,98,99,100,101,102,103,104,105,106,107,108,109,110,111,112,113,114,115,116,117,118,119,120,121,122,123,124,125,126,127,128],"tree_info":[0,0,0,0,0,0,0,0,0,0,0,0,0,0,0,0,0,0,0,0,0,0,0,0,0,0,0,0,0,0,0,0,0,0,0,0,0,0,0,0,0,0,0,0,0,0,0,0,0,0,0,0,0,0,0,0,0,0,0,0,0,0,0,0,0,0,0,0,0,0,0,0,0,0,0,0,0,0,0,0,0,0,0,0,0,0,0,0,0,0,0,0,0,0,0,0,0,0,0,0,0,0,0,0,0,0,0,0,0,0,0,0,0,0,0,0,0,0,0,0,0,0,0,0,0,0,0,0],"trees":[{"base_weights":[-3.8249126E3,2.7351662E4,-2.9985812E4,3.5980176E4,-5.37239E4,8.40664E3,-3.3924E4,7.091894E2,2.4371404E3,6.5306433E2,-3.2565276E3,-5.3132544E3,-1.2454055E3],"categories":[],"categories_nodes":[],"categories_segments":[],"categories_sizes":[],"default_left":[0,0,0,0,0,0,0,0,0,0,0,0,0],"id":0,"left_children":[1,3,5,7,9,-1,11,-1,-1,-1,-1,-1,-1],"loss_changes":[1.4110461E11,5.7198354E10,7.904519E10,1.9337544E10,6.945057E9,0E0,5.8009526E10,0E0,0E0,0E0,0E0,0E0,0E0],"parents":[2147483647,0,0,1,1,2,2,3,3,4,4,6,6],"right_children":[2,4,6,8,10,-1,12,-1,-1,-1,-1,-1,-1],"split_conditions":[5.55402E2,4.89E1,4.05965E5,2.0619E5,6.29019E5,8.40664E3,1.07758E5,7.091894E2,2.4371404E3,6.5306433E2,-3.2565276E3,-5.3132544E3,-1.2454055E3],"split_indices":[6,5,0,3,0,0,3,0,0,0,0,0,0],"split_type":[0,0,0,0,0,0,0,0,0,0,0,0,0],"sum_hessian":[1.71E2,7.8E1,9.3E1,7.1E1,7E0,1E0,9.2E1,2.7E1,4.4E1,1E0,6E0,9E0,8.3E1],"tree_param":{"num_deleted":"0","num_feature":"8","num_nodes":"13","size_leaf_vector":"1"}},{"base_weights":[-2.7028137E3,3.1779094E4,-2.9146473E4,4.6257098E4,-1.7442076E4,-5.327562E3,-2.4765732E4,-1.9481807E3,2.4965437E3,-2.548779E3,4.2657803E2,-2.5779138E2,-1.7322239E3],"categories":[],"categories_nodes":[],"categories_segments":[],"categories_sizes":[],"default_left":[0,0,0,0,0,0,0,0,0,0,0,0,0],"id":1,"left_children":[1,3,5,7,9,-1,11,-1,-1,-1,-1,-1,-1],"loss_changes":[1.5958429E11,5.4966256E10,3.0931108E10,2.0417307E10,1.6112672E10,0E0,1.822489E10,0E0,0E0,0E0,0E0,0E0,0E0],"parents":[2147483647,0,0,1,1,2,2,3,3,4,4,6,6],"right_children":[2,4,6,8,10,-1,12,-1,-1,-1,-1,-1,-1],"split_conditions":[5.490709E2,4.56E1,9.1805E4,4.6293713E2,4.67E0,-5.327562E3,7.56878E5,-1.9481807E3,2.4965437E3,-2.548779E3,4.2657803E2,-2.5779138E2,-1.7322239E3],"split_indices":[6,5,3,6,7,0,0,0,0,0,0,0,0],"split_type":[0,0,0,0,0,0,0,0,0,0,0,0,0],"sum_hessian":[1.73E2,7.5E1,9.8E1,5.8E1,1.7E1,4E0,9.4E1,2E0,5.6E1,7E0,1E1,3.2E1,6.2E1],"tree_param":{"num_deleted":"0","num_feature":"8","num_nodes":"13","size_leaf_vector":"1"}},{"base_weights":[2.3357236E3,2.373426E4,-4.5656098E4,1.3604799E4,6.0222484E4,-6.2164316E4,-2.0703092E4,8.202918E3,5.147073E2,4.054493E3,1.2197577E3,-4.1984136E3,-2.2441763E3,-1.5501874E3,2.9151248E3],"categories":[],"categories_nodes":[],"categories_segments":[],"categories_sizes":[],"default_left":[0,0,0,0,0,0,0,0,0,0,0,0,0,0,0],"id":2,"left_children":[1,3,5,7,9,11,13,-1,-1,-1,-1,-1,-1,-1,-1],"loss_changes":[1.7977373E11,4.3903005E10,2.0957192E10,4.6128693E10,1.7459978E10,8.288461E9,2.052521E10,0E0,0E0,0E0,0E0,0E0,0E0,0E0,0E0],"parents":[2147483647,0,0,1,1,2,2,3,3,4,4,5,5,6,6],"right_children":[2,4,6,8,10,12,14,-1,-1,-1,-1,-1,-1,-1,-1],"split_conditions":[9.283873E1,4.38398E5,3.15E0,4.05965E5,8.01675E5,9.7557816E1,1.0219163E2,8.202918E3,5.147073E2,4.054493E3,1.2197577E3,-4.1984136E3,-2.2441763E3,-1.5501874E3,2.9151248E3],"split_indices":[4,2,7,0,0,4,4,0,0,0,0,0,0,0,0],"split_type":[0,0,0,0,0,0,0,0,0,0,0,0,0,0,0],"sum_hessian":[1.73E2,1.2E2,5.3E1,9.5E1,2.5E1,3.1E1,2.2E1,1E0,9.4E1,1.5E1,1E1,1.2E1,1.9E1,2E1,2E0],"tree_param":{"num_deleted":"0","num_feature":"8","num_nodes":"15","size_leaf_vector":"1"}},{"base_weights":[-1.4723586E3,1.4750513E4,-3.6032965E4,8.845994E4,9.790544E3,-7.313875E4,-1.8010494E4,4.246643E2,9.612551E3,-9.0610596E2,1.3702405E3,-1.7927356E3,-4.510799E3,-2.005111E3,3.6546116E1],"categories":[],"categories_nodes":[],"categories_segments":[],"categories_sizes":[],"default_left":[0,0,0,0,0,0,0,0,0,0,0,0,0,0,0],"id":3,"left_children":[1,3,5,7,9,11,13,-1,-1,-1,-1,-1,-1,-1,-1],"loss_changes":[9.304243E10,4.0446312E10,3.4125832E10,5.64659E10,5.3104366E10,7.5893555E9,1.5348433E10,0E0,0E0,0E0,0E0,0E0,0E0,0E0,0E0],"parents":[2147483647,0,0,1,1,2,2,3,3,4,4,5,5,6,6],"right_children":[2,4,6,8,10,12,14,-1,-1,-1,-1,-1,-1,-1,-1],"split_conditions":[9.231253E1,2.08083E5,2.67E0,2.01923E5,1.85634E5,6.3692E2,3.70246E5,4.246643E2,9.612551E3,-9.0610596E2,1.3702405E3,-1.7927356E3,-4.510799E3,-2.005111E3,3.6546116E1],"split_indices":[4,2,7,2,3,6,2,0,0,0,0,0,0,0,0],"split_type":[0,0,0,0,0,0,0,0,0,0,0,0,0,0,0],"sum_hessian":[1.64E2,1.12E2,5.2E1,6E0,1.06E2,1.6E1,3.6E1,4E0,2E0,4.1E1,6.5E1,6E0,1E1,1.6E1,2E1],"tree_param":{"num_deleted":"0","num_feature":"8","num_nodes":"15","size_leaf_vector":"1"}},{"base_weights":[2.281164E3,2.0355787E4,-3.6813664E4,-4.2785425E3,2.4708586E4,-6.1915586E4,-1.9983492E4,4.7808566E2,2.3532158E3,-2.0013004E3,-4.0083215E3,-1.3629244E3,9.8610284E2],"categories":[],"categories_nodes":[],"categories_segments":[],"categories_sizes":[],"default_left":[0,0,0,0,0,0,0,0,0,0,0,0,0],"id":4,"left_children":[1,3,5,-1,7,9,11,-1,-1,-1,-1,-1,-1],"loss_changes":[1.2511525E11,5.7904697E10,2.2420996E10,0E0,3.916845E10,5.5803167E9,1.0647617E10,0E0,0E0,0E0,0E0,0E0,0E0],"parents":[2147483647,0,0,1,1,2,2,4,4,5,5,6,6],"right_children":[2,4,6,-1,8,10,12,-1,-1,-1,-1,-1,-1],"split_conditions":[9.249762E1,1.09239E5,2.67E0,-4.2785425E3,4.65E0,6.563E2,6.8207E2,4.7808566E2,2.3532158E3,-2.0013004E3,-4.0083215E3,-1.3629244E3,9.8610284E2],"split_indices":[4,3,7,0,7,6,6,0,0,0,0,0,0],"split_type":[0,0,0,0,0,0,0,0,0,0,0,0,0],"sum_hessian":[1.75E2,1.2E2,5.5E1,4E0,1.16E2,2.1E1,3.4E1,7E1,4.6E1,1.1E1,1E1,2.9E1,5E0],"tree_param":{"num_deleted":"0","num_feature":"8","num_nodes":"13","size_leaf_vector":"1"}},{"base_weights":[-7.4688513E2,1.580471E4,-4.0455777E4,3.0045732E4,-1.2368129E4,-4.3985977E4,1.475632E3,-1.7584827E3,1.7904368E3,-2.356985E3,3.7037442E2,-4.5444966E3,-1.8828148E3],"categories":[],"categories_nodes":[],"categories_segments":[],"categories_sizes":[],"default_left":[0,0,0,0,0,0,0,0,0,0,0,0,0],"id":5,"left_children":[1,3,5,7,9,11,-1,-1,-1,-1,-1,-1,-1],"loss_changes":[1.1171388E11,4.8516817E10,1.3648265E10,3.1326282E10,2.8541993E10,1.0827981E10,0E0,0E0,0E0,0E0,0E0,0E0,0E0],"parents":[2147483647,0,0,1,1,2,2,3,3,4,4,5,5],"right_children":[2,4,6,8,10,12,-1,-1,-1,-1,-1,-1,-1],"split_conditions":[9.324056E1,7.1463E4,5.01E0,5.7833755E1,3.33E0,9.1645E4,1.475632E3,-1.7584827E3,1.7904368E3,-2.356985E3,3.7037442E2,-4.5444966E3,-1.8828148E3],"split_indices":[4,1,7,4,7,3,0,0,0,0,0,0,0],"split_type":[0,0,0,0,0,0,0,0,0,0,0,0,0],"sum_hessian":[1.68E2,1.19E2,4.9E1,7.9E1,4E1,4.7E1,2E0,6E0,7.3E1,1.4E1,2.6E1,4E0,4.3E1],"tree_param":{"num_deleted":"0","num_feature":"8","num_nodes":"13","size_leaf_vector":"1"}},{"base_weights":[3.7124302E3,-4.957194E3,3.539793E4,7.833646E4,-9.545277E3,5.0932153E3,7.296049E4,-1.9661672E3,8.820608E3,4.5143137E2,-1.1359609E3,1.0532788E3,-1.1747528E3,-1.5643378E3,4.099805E3],"categories":[],"categories_nodes":[],"categories_segments":[],"categories_sizes":[],"default_left":[0,0,0,0,0,0,0,0,0,0,0,0,0,0,0],"id":6,"left_children":[1,3,5,7,9,11,13,-1,-1,-1,-1,-1,-1,-1,-1],"loss_changes":[4.6050607E10,5.1192627E10,4.0608014E10,8.771412E10,3.103626E10,1.0084002E10,1.7636393E10,0E0,0E0,0E0,0E0,0E0,0E0,0E0,0E0],"parents":[2147483647,0,0,1,1,2,2,3,3,4,4,5,5,6,6],"right_children":[2,4,6,8,10,12,14,-1,-1,-1,-1,-1,-1,-1,-1],"split_conditions":[5.02E0,2.08083E5,2.4239E5,1.73204E5,6.0475E4,5.76E0,5.0789E4,-1.9661672E3,8.820608E3,4.5143137E2,-1.1359609E3,1.0532788E3,-1.1747528E3,-1.5643378E3,4.099805E3],"split_indices":[7,2,3,2,1,7,1,0,0,0,0,0,0,0,0],"split_type":[0,0,0,0,0,0,0,0,0,0,0,0,0,0,0],"sum_hessian":[1.66E2,1.31E2,3.5E1,6E0,1.25E2,2E1,1.5E1,3E0,3E0,5.2E1,7.3E1,1.3E1,7E0,1E0,1.4E1],"tree_param":{"num_deleted":"0","num_feature":"8","num_nodes":"15","size_leaf_vector":"1"}},{"base_weights":[2.269525E3,2.4947463E4,-1.9918795E4,1.3998119E4,7.584114E4,-3.4612047E4,1.4558998E4,5.1547456E3,4.3151074E2,6.598057E3,1.729251E3,-8.525207E2,-2.7663972E3,1.5574086E3,-1.1040121E3],"categories":[],"categories_nodes":[],"categories_segments":[],"categories_sizes":[],"default_left":[0,0,0,0,0,0,0,0,0,0,0,0,0,0,0],"id":7,"left_children":[1,3,5,7,9,11,13,-1,-1,-1,-1,-1,-1,-1,-1],"loss_changes":[8.754799E10,4.686206E10,4.508392E10,3.3545191E10,3.0165516E10,2.1612536E10,1.7098754E10,0E0,0E0,0E0,0E0,0E0,0E0,0E0,0E0],"parents":[2147483647,0,0,1,1,2,2,3,3,4,4,5,5,6,6],"right_children":[2,4,6,8,10,12,14,-1,-1,-1,-1,-1,-1,-1,-1],"split_conditions":[8.417877E1,7.860571E1,4.36104E5,1.1343E5,8.0371445E1,6.5625E2,9.510644E1,5.1547456E3,4.3151074E2,6.598057E3,1.729251E3,-8.525207E2,-2.7663972E3,1.5574086E3,-1.1040121E3],"split_indices":[4,4,2,3,4,6,4,0,0,0,0,0,0,0,0],"split_type":[0,0,0,0,0,0,0,0,0,0,0,0,0,0,0],"sum_hessian":[1.72E2,8.5E1,8.7E1,7.1E1,1.4E1,6.1E1,2.6E1,3E0,6.8E1,5E0,9E0,3.4E1,2.7E1,1.8E1,8E0],"tree_param":{"num_deleted":"0","num_feature":"8","num_nodes":"15","size_leaf_vector":"1"}},{"base_weights":[6.063076E1,1.4509118E4,-2.7889895E4,1.1652907E4,8.717145E3,7.351435E3,-3.3255684E4,-2.2305566E3,8.3773224E2,1.8057237E2,-2.0802842E3],"categories":[],"categories_nodes":[],"categories_segments":[],"categories_sizes":[],"default_left":[0,0,0,0,0,0,0,0,0,0,0],"id":8,"left_children":[1,3,5,7,-1,-1,9,-1,-1,-1,-1],"loss_changes":[7.228868E10,5.1837637E10,6.2142693E10,3.4331628E10,0E0,0E0,1.8620686E10,0E0,0E0,0E0,0E0],"parents":[2147483647,0,0,1,1,2,2,3,3,6,6],"right_children":[2,4,6,8,-1,-1,10,-1,-1,-1,-1],"split_conditions":[6.3615E2,6.359318E2,4.05965E5,1.12132E5,8.717145E3,7.351435E3,5.77853E5,-2.2305566E3,8.3773224E2,1.8057237E2,-2.0802842E3],"split_indices":[6,6,0,3,0,0,0,0,0,0,0],"split_type":[0,0,0,0,0,0,0,0,0,0,0],"sum_hessian":[1.77E2,1.17E2,6E1,1.16E2,1E0,1E0,5.9E1,9E0,1.07E2,1.1E1,4.8E1],"tree_param":{"num_deleted":"0","num_feature":"8","num_nodes":"11","size_leaf_vector":"1"}},{"base_weights":[-8.894904E2,1.4266515E4,-3.6618004E4,3.642949E4,1.7776194E3,-4.9484496E4,-8.850679E3,5.7436395E2,2.7961882E3,-3.8446194E2,1.4595973E3,4.473253E2,-3.073446E3,-1.7541172E3,1.4162092E3],"categories":[],"categories_nodes":[],"categories_segments":[],"categories_sizes":[],"default_left":[0,0,0,0,0,0,0,0,0,0,0,0,0,0,0],"id":9,"left_children":[1,3,5,7,9,11,13,-1,-1,-1,-1,-1,-1,-1,-1],"loss_changes":[9.636818E10,3.453412E10,1.8497233E10,2.1237944E10,2.1246196E10,2.575936E10,1.8546532E10,0E0,0E0,0E0,0E0,0E0,0E0,0E0,0E0],"parents":[2147483647,0,0,1,1,2,2,3,3,4,4,5,5,6,6],"right_children":[2,4,6,8,10,12,14,-1,-1,-1,-1,-1,-1,-1,-1],"split_conditions":[6.508209E2,3.9017048E1,3.15E0,3.66E1,5.02E0,5.42427E5,7.8804E4,5.7436395E2,2.7961882E3,-3.8446194E2,1.4595973E3,4.473253E2,-3.073446E3,-1.7541172E3,1.4162092E3],"split_indices":[6,5,7,5,7,0,1,0,0,0,0,0,0,0,0],"split_type":[0,0,0,0,0,0,0,0,0,0,0,0,0,0,0],"sum_hessian":[1.76E2,1.24E2,5.2E1,4.4E1,8E1,3.5E1,1.7E1,2E1,2.4E1,6E1,2E1,6E0,2.9E1,1E1,7E0],"tree_param":{"num_deleted":"0","num_feature":"8","num_nodes":"15","size_leaf_vector":"1"}},{"base_weights":[2.119964E3,1.7166178E4,-3.3800234E4,2.6575418E4,-1.9321547E4,-7.848842E4,-2.7376205E4,1.0974438E3,6.5484272E3,2.6350652E3,-1.7406064E3,-3.5258502E2,-4.5682705E3,-2.1494202E3,-2.9998718E2],"categories":[],"categories_nodes":[],"categories_segments":[],"categories_sizes":[],"default_left":[0,0,0,0,0,0,0,0,0,0,0,0,0,0,0],"id":10,"left_children":[1,3,5,7,9,11,13,-1,-1,-1,-1,-1,-1,-1,-1],"loss_changes":[9.5161246E10,4.3085373E10,1.2779344E10,4.4940313E10,3.0842212E10,4.875047E9,1.5427551E10,0E0,0E0,0E0,0E0,0E0,0E0,0E0,0E0],"parents":[2147483647,0,0,1,1,2,2,3,3,4,4,5,5,6,6],"right_children":[2,4,6,8,10,12,14,-1,-1,-1,-1,-1,-1,-1,-1],"split_conditions":[9.249762E1,6.3615E2,2.02E0,6.236175E2,1.1343E5,1.71E0,3.87597E5,1.0974438E3,6.5484272E3,2.6350652E3,-1.7406064E3,-3.5258502E2,-4.5682705E3,-2.1494202E3,-2.9998718E2],"split_indices":[4,6,7,6,3,7,2,0,0,0,0,0,0,0,0],"split_type":[0,0,0,0,0,0,0,0,0,0,0,0,0,0,0],"sum_hessian":[1.74E2,1.23E2,5.1E1,9.8E1,2.5E1,5E0,4.6E1,9.5E1,3E0,4E0,2.1E1,1E0,4E0,2.6E1,2E1],"tree_param":{"num_deleted":"0","num_feature":"8","num_nodes":"15","size_leaf_vector":"1"}},{"base_weights":[1.3329829E3,-5.718685E4,8.361742E3,3.3698184E3,-6.785239E4,7.0905894E3,6.6084814E3,-2.1549766E3,-4.39082E3,7.874333E2,-9.817832E2],"categories":[],"categories_nodes":[],"categories_segments":[],"categories_sizes":[],"default_left":[0,0,0,0,0,0,0,0,0,0,0],"id":11,"left_children":[1,3,5,-1,7,-1,9,-1,-1,-1,-1],"loss_changes":[7.287081E10,2.98192E10,3.6030505E10,0E0,5.110137E9,0E0,3.7969818E10,0E0,0E0,0E0,0E0],"parents":[2147483647,0,0,1,1,2,2,4,4,6,6],"right_children":[2,4,6,-1,8,-1,10,-1,-1,-1,-1],"split_conditions":[1.12132E5,1.93853E5,1.1343E5,3.3698184E3,6.5625E2,7.0905894E3,6.3615E2,-2.1549766E3,-4.39082E3,7.874333E2,-9.817832E2],"split_indices":[3,2,3,0,6,0,6,0,0,0,0],"split_type":[0,0,0,0,0,0,0,0,0,0,0],"sum_hessian":[1.75E2,1.8E1,1.57E2,1E0,1.7E1,1E0,1.56E2,9E0,8E0,1.16E2,4E1],"tree_param":{"num_deleted":"0","num_feature":"8","num_nodes":"11","size_leaf_vector":"1"}},{"base_weights":[1.7083191E2,1.5424488E4,-2.883892E4,2.342468E4,-1.1814093E4,-6.7843586E4,-2.1671354E4,9.231923E2,6.2733325E3,2.4678936E3,-1.3980178E3,-1.7861875E3,-4.319734E3,6.1232446E2,-1.4922015E3],"categories":[],"categories_nodes":[],"categories_segments":[],"categories_sizes":[],"default_left":[0,0,0,0,0,0,0,0,0,0,0,0,0,0,0],"id":12,"left_children":[1,3,5,7,9,11,13,-1,-1,-1,-1,-1,-1,-1,-1],"loss_changes":[7.832566E10,2.5554754E10,1.5583408E10,4.324259E10,2.8047927E10,2.2763684E9,1.505706E10,0E0,0E0,0E0,0E0,0E0,0E0,0E0,0E0],"parents":[2147483647,0,0,1,1,2,2,3,3,4,4,5,5,6,6],"right_children":[2,4,6,8,10,12,14,-1,-1,-1,-1,-1,-1,-1,-1],"split_conditions":[9.249762E1,6.3615E2,1.10086E5,6.2554E2,1.1343E5,7.0408E2,1.22865E5,9.231923E2,6.2733325E3,2.4678936E3,-1.3980178E3,-1.7861875E3,-4.319734E3,6.1232446E2,-1.4922015E3],"split_indices":[4,6,3,6,3,6,3,0,0,0,0,0,0,0,0],"split_type":[0,0,0,0,0,0,0,0,0,0,0,0,0,0,0],"sum_hessian":[1.75E2,1.15E2,6E1,8.9E1,2.6E1,8E0,5.2E1,8.6E1,3E0,5E0,2.1E1,4E0,4E0,1E1,4.2E1],"tree_param":{"num_deleted":"0","num_feature":"8","num_nodes":"15","size_leaf_vector":"1"}},{"base_weights":[-6.395207E2,1.1013442E4,-2.5876951E4,1.7647295E4,-1.2699192E4,-6.461915E4,-2.037561E4,6.6514014E2,6.038083E3,6.8516274E3,-1.147039E3,-2.8192096E2,-3.6754758E3,-1.2874681E3,9.691883E2],"categories":[],"categories_nodes":[],"categories_segments":[],"categories_sizes":[],"default_left":[0,0,0,0,0,0,0,0,0,0,0,0,0,0,0],"id":13,"left_children":[1,3,5,7,9,11,13,-1,-1,-1,-1,-1,-1,-1,-1],"loss_changes":[5.586816E10,2.0673905E10,1.147138E10,4.4087435E10,4.7614837E10,3.2560394E9,1.2036598E10,0E0,0E0,0E0,0E0,0E0,0E0,0E0,0E0],"parents":[2147483647,0,0,1,1,2,2,3,3,4,4,5,5,6,6],"right_children":[2,4,6,8,10,12,14,-1,-1,-1,-1,-1,-1,-1,-1],"split_conditions":[9.249762E1,6.3615E2,2.02E0,6.2554E2,4.05965E5,1.71E0,6.8207E2,6.6514014E2,6.038083E3,6.8516274E3,-1.147039E3,-2.8192096E2,-3.6754758E3,-1.2874681E3,9.691883E2],"split_indices":[4,6,7,6,0,7,6,0,0,0,0,0,0,0,0],"split_type":[0,0,0,0,0,0,0,0,0,0,0,0,0,0,0],"sum_hessian":[1.88E2,1.29E2,5.9E1,1.01E2,2.8E1,6E0,5.3E1,9.8E1,3E0,1E0,2.7E1,1E0,5E0,4.7E1,6E0],"tree_param":{"num_deleted":"0","num_feature":"8","num_nodes":"15","size_leaf_vector":"1"}},{"base_weights":[3.4717341E3,1.5929415E4,-2.3318773E4,-4.2888938E4,1.8911545E4,-3.645746E4,-9.34727E3,3.2525515E3,-3.874358E3,6.680336E3,8.347282E2,-2.0763508E3,2.1707982E2,2.8705437E3,-9.827343E2],"categories":[],"categories_nodes":[],"categories_segments":[],"categories_sizes":[],"default_left":[0,0,0,0,0,0,0,0,0,0,0,0,0,0,0],"id":14,"left_children":[1,3,5,7,9,11,13,-1,-1,-1,-1,-1,-1,-1,-1],"loss_changes":[5.777604E10,2.1508772E10,9.755415E9,2.74478E10,2.6502795E10,5.971624E9,2.0395299E10,0E0,0E0,0E0,0E0,0E0,0E0,0E0,0E0],"parents":[2147483647,0,0,1,1,2,2,3,3,4,4,5,5,6,6],"right_children":[2,4,6,8,10,12,14,-1,-1,-1,-1,-1,-1,-1,-1],"split_conditions":[9.231253E1,1.09239E5,3.74048E5,5.77853E5,1.1343E5,9.2581E4,3.28E1,3.2525515E3,-3.874358E3,6.680336E3,8.347282E2,-2.0763508E3,2.1707982E2,2.8705437E3,-9.827343E2],"split_indices":[4,3,2,0,3,1,5,0,0,0,0,0,0,0,0],"split_type":[0,0,0,0,0,0,0,0,0,0,0,0,0,0,0],"sum_hessian":[1.71E2,1.17E2,5.4E1,5E0,1.12E2,2.7E1,2.7E1,1E0,4E0,1E0,1.11E2,2.4E1,3E0,3E0,2.4E1],"tree_param":{"num_deleted":"0","num_feature":"8","num_nodes":"15","size_leaf_vector":"1"}},{"base_weights":[-6.007783E3,1.0626272E4,-2.0252994E4,2.3569622E3,3.9662418E4,-6.88748E4,-1.2196003E4,3.463936E3,-1.4540631E2,4.154252E2,4.611252E3,-1.9805804E3,-4.293536E3,-8.4214514E2,2.6672134E3],"categories":[],"categories_nodes":[],"categories_segments":[],"categories_sizes":[],"default_left":[0,0,0,0,0,0,0,0,0,0,0,0,0,0,0],"id":15,"left_children":[1,3,5,7,9,11,13,-1,-1,-1,-1,-1,-1,-1,-1],"loss_changes":[4.405201E10,2.0555876E10,3.833454E10,2.4161208E10,3.054657E10,3.5614802E9,2.73951E10,0E0,0E0,0E0,0E0,0E0,0E0,0E0,0E0],"parents":[2147483647,0,0,1,1,2,2,3,3,4,4,5,5,6,6],"right_children":[2,4,6,8,10,12,14,-1,-1,-1,-1,-1,-1,-1,-1],"split_conditions":[8.479645E1,3.83827E5,1.10086E5,1.1343E5,7.427907E1,6.5625E2,5.04E0,3.463936E3,-1.4540631E2,4.154252E2,4.611252E3,-1.9805804E3,-4.293536E3,-8.4214514E2,2.6672134E3],"split_indices":[4,2,3,3,4,6,7,0,0,0,0,0,0,0,0],"split_type":[0,0,0,0,0,0,0,0,0,0,0,0,0,0,0],"sum_hessian":[1.84E2,8.5E1,9.9E1,6.7E1,1.8E1,1.3E1,8.6E1,4E0,6.3E1,1.2E1,6E0,6E0,7E0,8.1E1,5E0],"tree_param":{"num_deleted":"0","num_feature":"8","num_nodes":"15","size_leaf_vector":"1"}},{"base_weights":[3.3492937E3,1.2257354E4,-3.1881088E4,2.6886701E4,-4.058209E3,-5.5203832E4,-2.0787574E4,1.9432684E3,-5.2321924E2,6.426729E3,-3.977817E2,1.5458969E2,-3.0671292E3,1.7836982E3,-1.6337429E3],"categories":[],"categories_nodes":[],"categories_segments":[],"categories_sizes":[],"default_left":[0,0,0,0,0,0,0,0,0,0,0,0,0,0,0],"id":16,"left_children":[1,3,5,7,9,11,13,-1,-1,-1,-1,-1,-1,-1,-1],"loss_changes":[5.5939457E10,3.4002528E10,8.1667604E9,3.3962922E10,3.616295E10,4.1261527E9,1.8616173E10,0E0,0E0,0E0,0E0,0E0,0E0,0E0,0E0],"parents":[2147483647,0,0,1,1,2,2,3,3,4,4,5,5,6,6],"right_children":[2,4,6,8,10,12,14,-1,-1,-1,-1,-1,-1,-1,-1],"split_conditions":[9.510644E1,5.4246E2,9.694887E1,4.55E1,4.05965E5,6.72499E5,3.4907196E1,1.9432684E3,-5.2321924E2,6.426729E3,-3.977817E2,1.5458969E2,-3.0671292E3,1.7836982E3,-1.6337429E3],"split_indices":[4,6,4,5,0,0,5,0,0,0,0,0,0,0,0],"split_type":[0,0,0,0,0,0,0,0,0,0,0,0,0,0,0],"sum_hessian":[1.76E2,1.41E2,3.5E1,7.4E1,6.7E1,1E1,2.5E1,5.6E1,1.8E1,1E0,6.6E1,1E0,9E0,4E0,2.1E1],"tree_param":{"num_deleted":"0","num_feature":"8","num_nodes":"15","size_leaf_vector":"1"}},{"base_weights":[1.7717435E3,1.2005568E4,-3.0190227E4,2.5861596E4,-3.3606426E3,-5.069878E4,-1.561962E4,-2.2626807E3,1.4329933E3,6.266061E3,-3.7287338E2,-4.4559985E2,-2.6376726E3,3.617445E3,-1.1016161E3],"categories":[],"categories_nodes":[],"categories_segments":[],"categories_sizes":[],"default_left":[0,0,0,0,0,0,0,0,0,0,0,0,0,0,0],"id":17,"left_children":[1,3,5,7,9,11,13,-1,-1,-1,-1,-1,-1,-1,-1],"loss_changes":[5.662248E10,2.7978732E10,1.1758621E10,1.5027929E10,3.4147357E10,9.8944205E8,1.6261018E10,0E0,0E0,0E0,0E0,0E0,0E0,0E0,0E0],"parents":[2147483647,0,0,1,1,2,2,3,3,4,4,5,5,6,6],"right_children":[2,4,6,8,10,12,14,-1,-1,-1,-1,-1,-1,-1,-1],"split_conditions":[9.510644E1,5.55402E2,9.831662E1,4.6293713E2,4.05965E5,4.75691E2,3.1E1,-2.2626807E3,1.4329933E3,6.266061E3,-3.7287338E2,-4.4559985E2,-2.6376726E3,3.617445E3,-1.1016161E3],"split_indices":[4,6,4,6,0,6,5,0,0,0,0,0,0,0,0],"split_type":[0,0,0,0,0,0,0,0,0,0,0,0,0,0,0],"sum_hessian":[1.71E2,1.3E2,4.1E1,6.8E1,6.2E1,1.6E1,2.5E1,2E0,6.6E1,1E0,6.1E1,1E0,1.5E1,1E0,2.4E1],"tree_param":{"num_deleted":"0","num_feature":"8","num_nodes":"15","size_leaf_vector":"1"}},{"base_weights":[-6.4919293E2,-4.364054E4,5.5389395E3,3.1039058E3,-5.2030383E4,5.2212847E3,3.4403335E3,-1.5879554E3,-3.663879E3,6.2579224E2,-9.8321924E2],"categories":[],"categories_nodes":[],"categories_segments":[],"categories_sizes":[],"default_left":[0,0,0,0,0,0,0,0,0,0,0],"id":18,"left_children":[1,3,5,-1,7,-1,9,-1,-1,-1,-1],"loss_changes":[4.4403724E10,2.1856174E10,2.9939282E10,0E0,6.2869094E9,0E0,3.0441064E10,0E0,0E0,0E0,0E0],"parents":[2147483647,0,0,1,1,2,2,4,4,6,6],"right_children":[2,4,6,-1,8,-1,10,-1,-1,-1,-1],"split_conditions":[1.12132E5,1.93853E5,1.1343E5,3.1039058E3,6.5625E2,5.2212847E3,6.3615E2,-1.5879554E3,-3.663879E3,6.2579224E2,-9.8321924E2],"split_indices":[3,2,3,0,6,0,6,0,0,0,0],"split_type":[0,0,0,0,0,0,0,0,0,0,0],"sum_hessian":[1.65E2,2E1,1.45E2,1E0,1.9E1,2E0,1.43E2,1.1E1,8E0,1.03E2,4E1],"tree_param":{"num_deleted":"0","num_feature":"8","num_nodes":"11","size_leaf_vector":"1"}},{"base_weights":[1.1952811E3,-3.8738406E4,5.653686E3,3.026308E3,-4.8725332E4,5.9788774E3,4.1073184E3,-2.8752883E3,-8.953608E2,-1.5207463E3,3.5185153E2],"categories":[],"categories_nodes":[],"categories_segments":[],"categories_sizes":[],"default_left":[0,0,0,0,0,0,0,0,0,0,0],"id":19,"left_children":[1,3,5,-1,7,-1,9,-1,-1,-1,-1],"loss_changes":[3.0129822E10,1.980207E10,2.6286406E10,0E0,3.2997663E9,0E0,1.5486207E10,0E0,0E0,0E0,0E0],"parents":[2147483647,0,0,1,1,2,2,4,4,6,6],"right_children":[2,4,6,-1,8,-1,10,-1,-1,-1,-1],"split_conditions":[1.12132E5,1.93853E5,4.05965E5,3.026308E3,4.24E1,5.9788774E3,2.9984735E1,-2.8752883E3,-8.953608E2,-1.5207463E3,3.5185153E2],"split_indices":[3,2,0,0,5,0,5,0,0,0,0],"split_type":[0,0,0,0,0,0,0,0,0,0,0],"sum_hessian":[1.67E2,1.6E1,1.51E2,1E0,1.5E1,1E0,1.5E2,1.1E1,4E0,1.1E1,1.39E2],"tree_param":{"num_deleted":"0","num_feature":"8","num_nodes":"11","size_leaf_vector":"1"}},{"base_weights":[-4.0112532E3,5.510119E3,-2.5540307E4,5.652484E3,3.6247402E3,2.9506501E3,-2.8355334E4,-1.9626718E3,3.999451E2,-1.7864642E3,8.535729E1],"categories":[],"categories_nodes":[],"categories_segments":[],"categories_sizes":[],"default_left":[0,0,0,0,0,0,0,0,0,0,0],"id":20,"left_children":[1,3,5,-1,7,-1,9,-1,-1,-1,-1],"loss_changes":[3.4783388E10,2.3515042E10,1.4050363E10,0E0,2.225804E10,0E0,1.1366646E10,0E0,0E0,0E0,0E0],"parents":[2147483647,0,0,1,1,2,2,4,4,6,6],"right_children":[2,4,6,-1,8,-1,10,-1,-1,-1,-1],"split_conditions":[6.508209E2,2.05569E5,5.418475E1,5.652484E3,6.8E-1,2.9506501E3,3.98775E5,-1.9626718E3,3.999451E2,-1.7864642E3,8.535729E1],"split_indices":[6,2,4,0,7,0,2,0,0,0,0],"split_type":[0,0,0,0,0,0,0,0,0,0,0],"sum_hessian":[1.68E2,1.17E2,5.1E1,1E0,1.16E2,1E0,5E1,1E1,1.06E2,4E1,1E1],"tree_param":{"num_deleted":"0","num_feature":"8","num_nodes":"11","size_leaf_vector":"1"}},{"base_weights":[1.2587574E3,1.1228613E4,-2.1298291E4,8.0481E3,5.8240926E4,-2.998224E4,-7.8784385E3,-1.1709936E2,1.3884161E3,4.3471157E3,7.489642E2,-2.2942256E3,-4.265372E2,3.5406594E3,-7.676842E2],"categories":[],"categories_nodes":[],"categories_segments":[],"categories_sizes":[],"default_left":[0,0,0,0,0,0,0,0,0,0,0,0,0,0,0],"id":21,"left_children":[1,3,5,7,9,11,13,-1,-1,-1,-1,-1,-1,-1,-1],"loss_changes":[3.6671414E10,1.6427394E10,5.590649E9,2.1988782E10,7.3893396E9,9.842391E9,1.344026E10,0E0,0E0,0E0,0E0,0E0,0E0,0E0,0E0],"parents":[2147483647,0,0,1,1,2,2,3,3,4,4,5,5,6,6],"right_children":[2,4,6,8,10,12,14,-1,-1,-1,-1,-1,-1,-1,-1],"split_conditions":[9.249762E1,1.12401E5,9.820319E1,3.83827E5,3.544489E1,1.69507E5,3.1E1,-1.1709936E2,1.3884161E3,4.3471157E3,7.489642E2,-2.2942256E3,-4.265372E2,3.5406594E3,-7.676842E2],"split_indices":[4,1,4,2,5,3,5,0,0,0,0,0,0,0,0],"split_type":[0,0,0,0,0,0,0,0,0,0,0,0,0,0,0],"sum_hessian":[1.61E2,1.12E2,4.9E1,1.06E2,6E0,2.9E1,2E1,7E1,3.6E1,3E0,3E0,1.6E1,1.3E1,1E0,1.9E1],"tree_param":{"num_deleted":"0","num_feature":"8","num_nodes":"15","size_leaf_vector":"1"}},{"base_weights":[3.0878188E3,-6.4820582E4,5.553445E3,-7.8708466E2,-3.5744001E3,1.5323651E4,-6.835765E3,5.7342914E2,4.005405E3,-8.1582855E2,1.1519916E3],"categories":[],"categories_nodes":[],"categories_segments":[],"categories_sizes":[],"default_left":[0,0,0,0,0,0,0,0,0,0,0],"id":22,"left_children":[1,3,5,-1,-1,7,9,-1,-1,-1,-1],"loss_changes":[2.8656777E10,8.380252E8,1.995615E10,0E0,0E0,2.205812E10,2.1052793E10,0E0,0E0,0E0,0E0],"parents":[2147483647,0,0,1,1,2,2,5,5,6,6],"right_children":[2,4,6,-1,-1,8,10,-1,-1,-1,-1],"split_conditions":[9.3312E4,5.24314E5,8.60102E5,-7.8708466E2,-3.5744001E3,8.47474E5,5.04E0,5.7342914E2,4.005405E3,-8.1582855E2,1.1519916E3],"split_indices":[3,0,0,0,0,0,7,0,0,0,0],"split_type":[0,0,0,0,0,0,0,0,0,0,0],"sum_hessian":[1.68E2,5E0,1.63E2,1E0,4E0,9.1E1,7.2E1,8.7E1,4E0,5.5E1,1.7E1],"tree_param":{"num_deleted":"0","num_feature":"8","num_nodes":"11","size_leaf_vector":"1"}},{"base_weights":[8.3148706E2,1.6139779E4,-1.6331194E4,6.780421E3,4.276541E4,-6.013615E4,-8.0805503E3,5.8626587E3,1.7400218E2,5.7469546E3,8.861455E2,-3.3543489E3,-7.3021735E2,-5.0068365E2,3.1809475E3],"categories":[],"categories_nodes":[],"categories_segments":[],"categories_sizes":[],"default_left":[0,0,0,0,0,0,0,0,0,0,0,0,0,0,0],"id":23,"left_children":[1,3,5,7,9,11,13,-1,-1,-1,-1,-1,-1,-1,-1],"loss_changes":[4.624156E10,2.2885521E10,2.9511848E10,2.5114063E10,4.134075E10,3.1345172E9,1.047793E10,0E0,0E0,0E0,0E0,0E0,0E0,0E0,0E0],"parents":[2147483647,0,0,1,1,2,2,3,3,4,4,5,5,6,6],"right_children":[2,4,6,8,10,12,14,-1,-1,-1,-1,-1,-1,-1,-1],"split_conditions":[8.6650826E1,7.860571E1,1.10086E5,4.05965E5,8.0371445E1,1.26421E6,4.57696E5,5.8626587E3,1.7400218E2,5.7469546E3,8.861455E2,-3.3543489E3,-7.3021735E2,-5.0068365E2,3.1809475E3],"split_indices":[4,4,3,0,4,0,3,0,0,0,0,0,0,0,0],"split_type":[0,0,0,0,0,0,0,0,0,0,0,0,0,0,0],"sum_hessian":[1.74E2,9.2E1,8.2E1,6.9E1,2.3E1,1.2E1,7E1,1E0,6.8E1,5E0,1.8E1,1E1,2E0,6.9E1,1E0],"tree_param":{"num_deleted":"0","num_feature":"8","num_nodes":"15","size_leaf_vector":"1"}},{"base_weights":[1.2465953E3,1.8189922E4,-1.306232E4,1.0836405E4,6.3999887E4,-5.530689E4,-6.944705E3,-4.3751254E2,1.051214E3,-1.2537825E2,4.462682E3,-2.948032E3,-3.778901E2,-7.2105566E2,5.787757E2],"categories":[],"categories_nodes":[],"categories_segments":[],"categories_sizes":[],"default_left":[0,0,0,0,0,0,0,0,0,0,0,0,0,0,0],"id":24,"left_children":[1,3,5,7,9,11,13,-1,-1,-1,-1,-1,-1,-1,-1],"loss_changes":[4.2907152E10,2.6592475E10,2.4425763E10,1.4351763E10,1.869901E10,1.6479396E9,1.1936432E10,0E0,0E0,0E0,0E0,0E0,0E0,0E0,0E0],"parents":[2147483647,0,0,1,1,2,2,3,3,4,4,5,5,6,6],"right_children":[2,4,6,8,10,12,14,-1,-1,-1,-1,-1,-1,-1,-1],"split_conditions":[8.297007E1,7.849206E1,1.10086E5,3.6517117E1,4.1179E4,4.24E1,4.47751E5,-4.3751254E2,1.051214E3,-1.2537825E2,4.462682E3,-2.948032E3,-3.778901E2,-7.2105566E2,5.787757E2],"split_indices":[4,4,3,5,1,5,2,0,0,0,0,0,0,0,0],"split_type":[0,0,0,0,0,0,0,0,0,0,0,0,0,0,0],"sum_hessian":[1.75E2,8E1,9.5E1,7E1,1E1,1.1E1,8.4E1,2.4E1,4.6E1,3E0,7E0,1E1,1E0,6E1,2.4E1],"tree_param":{"num_deleted":"0","num_feature":"8","num_nodes":"15","size_leaf_vector":"1"}},{"base_weights":[5.7042865E2,-4.28257E4,5.149086E3,-2.4027102E4,-2.8432937E3,7.890775E4,3.2491882E3,-8.631713E1,-2.076121E3,5.72703E3,1.4424952E3,-3.6491428E2,9.2262366E2],"categories":[],"categories_nodes":[],"categories_segments":[],"categories_sizes":[],"default_left":[0,0,0,0,0,0,0,0,0,0,0,0,0],"id":25,"left_children":[1,3,5,7,-1,9,11,-1,-1,-1,-1,-1,-1],"loss_changes":[3.5389702E10,3.1205745E9,2.2305163E10,3.439744E9,0E0,3.830315E9,2.5470962E10,0E0,0E0,0E0,0E0,0E0,0E0],"parents":[2147483647,0,0,1,1,2,2,3,3,5,5,6,6],"right_children":[2,4,6,8,-1,10,12,-1,-1,-1,-1,-1,-1],"split_conditions":[1.12132E5,3.50463E5,1.1343E5,2.6E0,-2.8432937E3,4.05965E5,3.76426E5,-8.631713E1,-2.076121E3,5.72703E3,1.4424952E3,-3.6491428E2,9.2262366E2],"split_indices":[3,2,3,7,0,0,2,0,0,0,0,0,0],"split_type":[0,0,0,0,0,0,0,0,0,0,0,0,0],"sum_hessian":[1.76E2,1.6E1,1.6E2,8E0,8E0,3E0,1.57E2,4E0,4E0,1E0,2E0,9.3E1,6.4E1],"tree_param":{"num_deleted":"0","num_feature":"8","num_nodes":"13","size_leaf_vector":"1"}},{"base_weights":[1.27805214E2,1.0067914E4,-2.1125664E4,2.7953553E4,-4.7394968E2,2.8867483E3,-2.352208E4,5.577075E2,4.7889204E3,3.6270615E2,-9.8027637E2,-2.5935088E3,-8.56309E2],"categories":[],"categories_nodes":[],"categories_segments":[],"categories_sizes":[],"default_left":[0,0,0,0,0,0,0,0,0,0,0,0,0],"id":26,"left_children":[1,3,5,7,9,-1,11,-1,-1,-1,-1,-1,-1],"loss_changes":[3.8451073E10,2.3393198E10,1.2319048E10,5.1344847E10,1.1822389E10,0E0,9.446414E9,0E0,0E0,0E0,0E0,0E0,0E0],"parents":[2147483647,0,0,1,1,2,2,3,3,4,4,6,6],"right_children":[2,4,6,8,10,-1,12,-1,-1,-1,-1,-1,-1],"split_conditions":[6.434965E2,3.94E1,5.418475E1,3.877274E1,9.283873E1,2.8867483E3,1.10086E5,5.577075E2,4.7889204E3,3.6270615E2,-9.8027637E2,-2.5935088E3,-8.56309E2],"split_indices":[6,5,4,5,4,0,3,0,0,0,0,0,0],"split_type":[0,0,0,0,0,0,0,0,0,0,0,0,0],"sum_hessian":[1.8E2,1.23E2,5.7E1,4.5E1,7.8E1,1E0,5.6E1,3.7E1,8E0,5.6E1,2.2E1,9E0,4.7E1],"tree_param":{"num_deleted":"0","num_feature":"8","num_nodes":"13","size_leaf_vector":"1"}},{"base_weights":[-1.7905721E3,2.0132035E4,-7.858226E3,8.200096E4,8.273074E3,-2.3391732E4,4.19137E3,-8.3186505E2,6.773972E3,-3.420388E2,3.8712773E3,-1.7404999E3,-1.0434995E2,-2.5256824E3,4.315129E2],"categories":[],"categories_nodes":[],"categories_segments":[],"categories_sizes":[],"default_left":[0,0,0,0,0,0,0,0,0,0,0,0,0,0,0],"id":27,"left_children":[1,3,5,7,9,11,13,-1,-1,-1,-1,-1,-1,-1,-1],"loss_changes":[2.3303471E10,2.720223E10,2.5740673E10,3.3904169E10,3.501994E10,1.4523134E10,1.937664E10,0E0,0E0,0E0,0E0,0E0,0E0,0E0,0E0],"parents":[2147483647,0,0,1,1,2,2,3,3,4,4,5,5,6,6],"right_children":[2,4,6,8,10,12,14,-1,-1,-1,-1,-1,-1,-1,-1],"split_conditions":[6.3308E5,2.08083E5,1.82465E5,1.73204E5,4.63851E5,3.98775E5,6.799E5,-8.3186505E2,6.773972E3,-3.420388E2,3.8712773E3,-1.7404999E3,-1.0434995E2,-2.5256824E3,4.315129E2],"split_indices":[0,2,3,2,2,2,0,0,0,0,0,0,0,0,0],"split_type":[0,0,0,0,0,0,0,0,0,0,0,0,0,0,0],"sum_hessian":[1.73E2,3.7E1,1.36E2,5E0,3.2E1,5.9E1,7.7E1,2E0,3E0,2.7E1,5E0,3.8E1,2.1E1,5E0,7.2E1],"tree_param":{"num_deleted":"0","num_feature":"8","num_nodes":"15","size_leaf_vector":"1"}},{"base_weights":[1.2411633E3,-4.6450586E3,2.7024555E4,9.380311E3,-2.0570168E4,-2.8409111E4,3.3978492E4,2.628491E2,7.6564976E3,-2.952529E3,-8.5103143E2,-1.1324359E2,-1.8184434E3,4.16535E2,3.3740657E3],"categories":[],"categories_nodes":[],"categories_segments":[],"categories_sizes":[],"default_left":[0,0,0,0,0,0,0,0,0,0,0,0,0,0,0],"id":28,"left_children":[1,3,5,7,9,11,13,-1,-1,-1,-1,-1,-1,-1,-1],"loss_changes":[2.5318814E10,3.056931E10,1.2915247E10,4.2464055E10,7.736531E9,7.500324E8,2.3497474E10,0E0,0E0,0E0,0E0,0E0,0E0,0E0,0E0],"parents":[2147483647,0,0,1,1,2,2,3,3,4,4,5,5,6,6],"right_children":[2,4,6,8,10,12,14,-1,-1,-1,-1,-1,-1,-1,-1],"split_conditions":[5.06E0,8.48947E5,5.2486E4,8.47474E5,9.1805E4,7.51674E5,3.73E1,2.628491E2,7.6564976E3,-2.952529E3,-8.5103143E2,-1.1324359E2,-1.8184434E3,4.16535E2,3.3740657E3],"split_indices":[7,0,1,0,3,0,5,0,0,0,0,0,0,0,0],"split_type":[0,0,0,0,0,0,0,0,0,0,0,0,0,0,0],"sum_hessian":[1.65E2,1.35E2,3E1,7.2E1,6.3E1,3E0,2.7E1,7.1E1,1E0,4E0,5.9E1,1E0,2E0,1.6E1,1.1E1],"tree_param":{"num_deleted":"0","num_feature":"8","num_nodes":"15","size_leaf_vector":"1"}},{"base_weights":[3.665507E3,1.936936E4,-8.379256E3,7.760577E3,4.5165754E4,5.4293413E3,-1.0612454E4,-9.366091E2,8.203361E2,4.5579727E3,1.413214E3,-2.721908E3,-3.8813998E2],"categories":[],"categories_nodes":[],"categories_segments":[],"categories_sizes":[],"default_left":[0,0,0,0,0,0,0,0,0,0,0,0,0],"id":29,"left_children":[1,3,5,7,9,-1,11,-1,-1,-1,-1,-1,-1],"loss_changes":[3.4020002E10,2.300773E10,2.7795622E10,1.2905649E10,1.6080105E10,0E0,1.21911E10,0E0,0E0,0E0,0E0,0E0,0E0],"parents":[2147483647,0,0,1,1,2,2,3,3,4,4,6,6],"right_children":[2,4,6,8,10,-1,12,-1,-1,-1,-1,-1,-1],"split_conditions":[5.7617E2,5.309548E2,4.05965E5,1.88059E5,5.366681E2,5.4293413E3,9.1805E4,-9.366091E2,8.203361E2,4.5579727E3,1.413214E3,-2.721908E3,-3.8813998E2],"split_indices":[6,6,0,3,6,0,3,0,0,0,0,0,0],"split_type":[0,0,0,0,0,0,0,0,0,0,0,0,0],"sum_hessian":[1.78E2,7.7E1,1.01E2,5.4E1,2.3E1,1E0,1E2,1.3E1,4.1E1,5E0,1.8E1,5E0,9.5E1],"tree_param":{"num_deleted":"0","num_feature":"8","num_nodes":"13","size_leaf_vector":"1"}},{"base_weights":[-5.4443223E3,6.950384E3,-1.805886E4,-2.2198088E3,4.133478E4,-3.0287805E4,-3.944113E3,5.293608E3,-2.6166946E2,5.398456E3,1.5817292E3,-9.493634E2,-2.3719685E3,-6.623101E2,7.803107E2],"categories":[],"categories_nodes":[],"categories_segments":[],"categories_sizes":[],"default_left":[0,0,0,0,0,0,0,0,0,0,0,0,0,0,0],"id":30,"left_children":[1,3,5,7,9,11,13,-1,-1,-1,-1,-1,-1,-1,-1],"loss_changes":[2.7800082E10,2.8469797E10,1.5070081E10,2.4007617E10,8.865389E9,8.2088837E9,7.8447964E9,0E0,0E0,0E0,0E0,0E0,0E0,0E0,0E0],"parents":[2147483647,0,0,1,1,2,2,3,3,4,4,5,5,6,6],"right_children":[2,4,6,8,10,12,14,-1,-1,-1,-1,-1,-1,-1,-1],"split_conditions":[8.13642E5,4.41434E5,1.90003E5,4.05965E5,2.37E0,6.563E2,5.06E0,5.293608E3,-2.6166946E2,5.398456E3,1.5817292E3,-9.493634E2,-2.3719685E3,-6.623101E2,7.803107E2],"split_indices":[0,2,3,0,7,6,7,0,0,0,0,0,0,0,0],"split_type":[0,0,0,0,0,0,0,0,0,0,0,0,0,0,0],"sum_hessian":[1.76E2,8.9E1,8.7E1,7.1E1,1.8E1,4.6E1,4.1E1,1E0,7E1,1E0,1.7E1,2.9E1,1.7E1,2.8E1,1.3E1],"tree_param":{"num_deleted":"0","num_feature":"8","num_nodes":"15","size_leaf_vector":"1"}},{"base_weights":[-1.2277709E3,1.945051E4,-6.676014E3,7.701805E4,8.394273E3,-1.3492571E4,1.4938193E4,-7.912374E2,6.3697827E3,-5.8607404E2,2.7916333E3,-2.2989146E3,-4.7093097E2,1.486726E3,-6.1945013E2],"categories":[],"categories_nodes":[],"categories_segments":[],"categories_sizes":[],"default_left":[0,0,0,0,0,0,0,0,0,0,0,0,0,0,0],"id":31,"left_children":[1,3,5,7,9,11,13,-1,-1,-1,-1,-1,-1,-1,-1],"loss_changes":[2.0521366E10,2.3539739E10,2.1417722E10,3.0079201E10,3.2144992E10,1.4124923E10,1.4520355E10,0E0,0E0,0E0,0E0,0E0,0E0,0E0,0E0],"parents":[2147483647,0,0,1,1,2,2,3,3,4,4,5,5,6,6],"right_children":[2,4,6,8,10,12,14,-1,-1,-1,-1,-1,-1,-1,-1],"split_conditions":[6.3308E5,2.08083E5,5.02E0,1.73204E5,3.63986E5,2.45811E5,5.72E0,-7.912374E2,6.3697827E3,-5.8607404E2,2.7916333E3,-2.2989146E3,-4.7093097E2,1.486726E3,-6.1945013E2],"split_indices":[0,2,7,2,2,2,7,0,0,0,0,0,0,0,0],"split_type":[0,0,0,0,0,0,0,0,0,0,0,0,0,0,0],"sum_hessian":[1.8E2,3.7E1,1.43E2,5E0,3.2E1,1.09E2,3.4E1,2E0,3E0,2.3E1,9E0,1.1E1,9.8E1,2.2E1,1.2E1],"tree_param":{"num_deleted":"0","num_feature":"8","num_nodes":"15","size_leaf_vector":"1"}},{"base_weights":[-6.372013E2,5.0020234E3,-1.8391069E3,-1.3359161E4,7.6974487E3,-9.605182E2,9.724052E2,-2.2692534E3,5.964308E2],"categories":[],"categories_nodes":[],"categories_segments":[],"categories_sizes":[],"default_left":[0,0,0,0,0,0,0,0,0],"id":32,"left_children":[1,-1,3,5,7,-1,-1,-1,-1],"loss_changes":[2.0512823E10,0E0,1.8449727E10,1.4962711E10,2.1204664E10,0E0,0E0,0E0,0E0],"parents":[2147483647,0,0,2,2,3,3,4,4],"right_children":[2,-1,4,6,8,-1,-1,-1,-1],"split_conditions":[4.05965E5,5.0020234E3,1.7749E5,1.113217E6,2.29477E5,-9.605182E2,9.724052E2,-2.2692534E3,5.964308E2],"split_indices":[0,0,3,0,2,0,0,0,0],"split_type":[0,0,0,0,0,0,0,0,0],"sum_hessian":[1.67E2,1E0,1.66E2,7.5E1,9.1E1,6.4E1,1.1E1,6E0,8.5E1],"tree_param":{"num_deleted":"0","num_feature":"8","num_nodes":"9","size_leaf_vector":"1"}},{"base_weights":[1.0210464E1,1.257834E4,-1.1354694E4,5.9391743E3,4.8892234E4,-2.2580197E4,1.9147432E3,-1.7196617E2,1.102237E3,6.335108E3,6.439517E2,2.9508823E3,-1.2696255E3,-3.4081705E2,2.1028337E3],"categories":[],"categories_nodes":[],"categories_segments":[],"categories_sizes":[],"default_left":[0,0,0,0,0,0,0,0,0,0,0,0,0,0,0],"id":33,"left_children":[1,3,5,7,9,11,13,-1,-1,-1,-1,-1,-1,-1,-1],"loss_changes":[2.5567558E10,2.0202602E10,1.4045113E10,1.1102179E10,3.4796585E10,1.320201E10,1.5707909E10,0E0,0E0,0E0,0E0,0E0,0E0,0E0,0E0],"parents":[2147483647,0,0,1,1,2,2,3,3,4,4,5,5,6,6],"right_children":[2,4,6,8,10,12,14,-1,-1,-1,-1,-1,-1,-1,-1],"split_conditions":[6.3491E4,5.992E4,3.25E0,3.86973E5,3.01E0,6.1862995E1,1.004906E6,-1.7196617E2,1.102237E3,6.335108E3,6.439517E2,2.9508823E3,-1.2696255E3,-3.4081705E2,2.1028337E3],"split_indices":[1,1,7,2,7,4,0,0,0,0,0,0,0,0,0],"split_type":[0,0,0,0,0,0,0,0,0,0,0,0,0,0,0],"sum_hessian":[1.77E2,8.4E1,9.3E1,7.2E1,1.2E1,5E1,4.3E1,4.6E1,2.6E1,3E0,9E0,1E0,4.9E1,3.6E1,7E0],"tree_param":{"num_deleted":"0","num_feature":"8","num_nodes":"15","size_leaf_vector":"1"}},{"base_weights":[2.381359E3,4.5002295E3,-4.2147723E4,-7.145223E3,1.3401471E4,4.520025E2,-3.0358503E3,-7.482795E2,4.2342502E2,2.696445E3,3.15936E2],"categories":[],"categories_nodes":[],"categories_segments":[],"categories_sizes":[],"default_left":[0,0,0,0,0,0,0,0,0,0,0],"id":34,"left_children":[1,3,5,7,9,-1,-1,-1,-1,-1,-1],"loss_changes":[1.6606807E10,1.7406808E10,8.153052E9,9.040403E9,2.692857E10,0E0,0E0,0E0,0E0,0E0,0E0],"parents":[2147483647,0,0,1,1,2,2,3,3,4,4],"right_children":[2,4,6,8,10,-1,-1,-1,-1,-1,-1],"split_conditions":[4.89E1,1.74862E5,2.12499E5,4.124551E1,2.37E0,4.520025E2,-3.0358503E3,-7.482795E2,4.2342502E2,2.696445E3,3.15936E2],"split_indices":[5,3,3,5,7,0,0,0,0,0,0],"split_type":[0,0,0,0,0,0,0,0,0,0,0],"sum_hessian":[1.73E2,1.66E2,7E0,7.2E1,9.4E1,2E0,5E0,4.8E1,2.4E1,1.3E1,8.1E1],"tree_param":{"num_deleted":"0","num_feature":"8","num_nodes":"11","size_leaf_vector":"1"}},{"base_weights":[-2.8439114E2,-1.0664186E4,1.3120967E4,-8.584085E2,-3.5318086E4,3.7183535E4,1.2923022E3,4.899979E3,-1.7775444E2,2.3463744E2,-2.005761E3,-5.852917E2,2.3302302E3,8.2840424E2,-6.223893E2],"categories":[],"categories_nodes":[],"categories_segments":[],"categories_sizes":[],"default_left":[0,0,0,0,0,0,0,0,0,0,0,0,0,0,0],"id":35,"left_children":[1,3,5,7,9,11,13,-1,-1,-1,-1,-1,-1,-1,-1],"loss_changes":[2.5185997E10,2.4628249E10,2.243756E10,2.0075928E10,5.7544335E9,1.252089E10,1.1540327E10,0E0,0E0,0E0,0E0,0E0,0E0,0E0,0E0],"parents":[2147483647,0,0,1,1,2,2,3,3,4,4,5,5,6,6],"right_children":[2,4,6,8,10,12,14,-1,-1,-1,-1,-1,-1,-1,-1],"split_conditions":[3.76426E5,3.44203E5,7.70115E5,4.05965E5,3.16E1,5.3931E5,4.0062893E1,4.899979E3,-1.7775444E2,2.3463744E2,-2.005761E3,-5.852917E2,2.3302302E3,8.2840424E2,-6.223893E2],"split_indices":[2,2,0,0,5,0,5,0,0,0,0,0,0,0,0],"split_type":[0,0,0,0,0,0,0,0,0,0,0,0,0,0,0],"sum_hessian":[1.79E2,1.01E2,7.8E1,7.3E1,2.8E1,2.5E1,5.3E1,1E0,7.2E1,3E0,2.5E1,4E0,2.1E1,2.5E1,2.8E1],"tree_param":{"num_deleted":"0","num_feature":"8","num_nodes":"15","size_leaf_vector":"1"}},{"base_weights":[-5.924132E1,-2.7659922E4,3.198349E3,2.384446E3,-3.449536E4,4.2222593E3,1.6452739E3,-1.0070083E3,-2.3306372E3,6.456506E2,-3.1418094E2],"categories":[],"categories_nodes":[],"categories_segments":[],"categories_sizes":[],"default_left":[0,0,0,0,0,0,0,0,0,0,0],"id":36,"left_children":[1,3,5,-1,7,-1,9,-1,-1,-1,-1],"loss_changes":[1.6182665E10,1.1430849E10,2.017643E10,0E0,2.192257E9,0E0,1.4286309E10,0E0,0E0,0E0,0E0],"parents":[2147483647,0,0,1,1,2,2,4,4,6,6],"right_children":[2,4,6,-1,8,-1,10,-1,-1,-1,-1],"split_conditions":[1.12132E5,1.93853E5,1.1343E5,2.384446E3,6.5625E2,4.2222593E3,6.0475E4,-1.0070083E3,-2.3306372E3,6.456506E2,-3.1418094E2],"split_indices":[3,2,3,0,6,0,1,0,0,0,0],"split_type":[0,0,0,0,0,0,0,0,0,0,0],"sum_hessian":[1.78E2,1.8E1,1.6E2,1E0,1.7E1,2E0,1.58E2,9E0,8E0,6.5E1,9.3E1],"tree_param":{"num_deleted":"0","num_feature":"8","num_nodes":"11","size_leaf_vector":"1"}},{"base_weights":[-5.2554517E3,-7.3202417E3,3.9020164E4,-2.1047648E4,4.225459E1,-7.69352E2,5.972042E4,-2.2394888E3,-7.9391345E2,2.8663838E3,-1.8885875E2,5.09357E3,6.58853E2],"categories":[],"categories_nodes":[],"categories_segments":[],"categories_sizes":[],"default_left":[0,0,0,0,0,0,0,0,0,0,0,0,0],"id":37,"left_children":[1,3,5,7,9,-1,11,-1,-1,-1,-1,-1,-1],"loss_changes":[1.6375529E10,1.7081379E10,9.928871E9,6.530003E9,2.4503079E10,0E0,1.0428711E10,0E0,0E0,0E0,0E0,0E0,0E0],"parents":[2147483647,0,0,1,1,2,2,3,3,4,4,6,6],"right_children":[2,4,6,8,10,-1,12,-1,-1,-1,-1,-1,-1],"split_conditions":[1.12401E5,2.76E0,2.82E1,5.3E-1,3E0,-7.69352E2,3.544489E1,-2.2394888E3,-7.9391345E2,2.8663838E3,-1.8885875E2,5.09357E3,6.58853E2],"split_indices":[1,7,5,7,7,0,5,0,0,0,0,0,0],"split_type":[0,0,0,0,0,0,0,0,0,0,0,0,0],"sum_hessian":[1.75E2,1.68E2,7E0,5.8E1,1.1E2,2E0,5E0,9E0,4.9E1,6E0,1.04E2,2E0,3E0],"tree_param":{"num_deleted":"0","num_feature":"8","num_nodes":"13","size_leaf_vector":"1"}},{"base_weights":[1.367468E3,1.7113674E4,-8.291175E3,2.268831E4,-2.7532137E4,-1.5264793E4,4.468615E3,6.518677E2,2.570771E3,-2.2222544E3,7.7355536E2,-1.5503204E3,-4.3070236E2,-6.478083E2,1.4402726E3],"categories":[],"categories_nodes":[],"categories_segments":[],"categories_sizes":[],"default_left":[0,0,0,0,0,0,0,0,0,0,0,0,0,0,0],"id":38,"left_children":[1,3,5,7,9,11,13,-1,-1,-1,-1,-1,-1,-1,-1],"loss_changes":[2.7213371E10,1.7548784E10,9.945205E9,1.6241562E10,6.5061115E9,7.270836E9,1.7335771E10,0E0,0E0,0E0,0E0,0E0,0E0,0E0,0E0],"parents":[2147483647,0,0,1,1,2,2,3,3,4,4,5,5,6,6],"right_children":[2,4,6,8,10,12,14,-1,-1,-1,-1,-1,-1,-1,-1],"split_conditions":[7.70115E5,4.6191055E1,9.77926E5,3.8863E5,4.67E0,3.6517117E1,3.27E0,6.518677E2,2.570771E3,-2.2222544E3,7.7355536E2,-1.5503204E3,-4.3070236E2,-6.478083E2,1.4402726E3],"split_indices":[0,5,0,2,7,5,7,0,0,0,0,0,0,0,0],"split_type":[0,0,0,0,0,0,0,0,0,0,0,0,0,0,0],"sum_hessian":[1.77E2,6.7E1,1.1E2,6E1,7E0,7.1E1,3.9E1,4.6E1,1.4E1,5E0,2E0,2E1,5.1E1,2.3E1,1.6E1],"tree_param":{"num_deleted":"0","num_feature":"8","num_nodes":"15","size_leaf_vector":"1"}},{"base_weights":[5.334006E3,1.7717006E4,-4.2260127E3,1.0879343E4,5.7132336E4,-8.419841E3,3.394103E4,1.2243973E3,-3.663883E2,6.0061553E3,9.2477E2,-1.02258496E3,3.2292587E2,-6.662819E2,2.8050928E3],"categories":[],"categories_nodes":[],"categories_segments":[],"categories_sizes":[],"default_left":[0,0,0,0,0,0,0,0,0,0,0,0,0,0,0],"id":39,"left_children":[1,3,5,7,9,11,13,-1,-1,-1,-1,-1,-1,-1,-1],"loss_changes":[2.067329E10,1.9861098E10,1.6132313E10,1.653248E10,2.4549732E10,1.6243378E10,1.122228E10,0E0,0E0,0E0,0E0,0E0,0E0,0E0,0E0],"parents":[2147483647,0,0,1,1,2,2,3,3,4,4,5,5,6,6],"right_children":[2,4,6,8,10,12,14,-1,-1,-1,-1,-1,-1,-1,-1],"split_conditions":[6.2245E4,5.992E4,1.12401E5,5.7617E2,3.01E0,3.33E0,3.21E1,1.2243973E3,-3.663883E2,6.0061553E3,9.2477E2,-1.02258496E3,3.2292587E2,-6.662819E2,2.8050928E3],"split_indices":[1,1,1,6,7,7,5,0,0,0,0,0,0,0,0],"split_type":[0,0,0,0,0,0,0,0,0,0,0,0,0,0,0],"sum_hessian":[1.73E2,7.5E1,9.8E1,6.5E1,1E1,8.9E1,9E0,3.7E1,2.8E1,3E0,7E0,4.9E1,4E1,3E0,6E0],"tree_param":{"num_deleted":"0","num_feature":"8","num_nodes":"15","size_leaf_vector":"1"}},{"base_weights":[-2.3019277E3,-9.337122E3,1.2045955E4,1.9284531E4,-1.3925882E4,2.0899373E4,-1.53173545E4,4.194788E3,-2.7663874E1,-9.078421E2,4.397358E2,1.3809503E3,-6.815647E2,-1.1547933E3,2.3395432E3],"categories":[],"categories_nodes":[],"categories_segments":[],"categories_sizes":[],"default_left":[0,0,0,0,0,0,0,0,0,0,0,0,0,0,0],"id":40,"left_children":[1,3,5,7,9,11,13,-1,-1,-1,-1,-1,-1,-1,-1],"loss_changes":[1.807982E10,1.6029104E10,1.4613393E10,2.1836093E10,1.0157195E10,1.0817987E10,8.3273175E9,0E0,0E0,0E0,0E0,0E0,0E0,0E0,0E0],"parents":[2147483647,0,0,1,1,2,2,3,3,4,4,5,5,6,6],"right_children":[2,4,6,8,10,12,14,-1,-1,-1,-1,-1,-1,-1,-1],"split_conditions":[4.67E0,5.24041E5,5.72E0,2.08083E5,4.44543E5,9.283873E1,7.860571E1,4.194788E3,-2.7663874E1,-9.078421E2,4.397358E2,1.3809503E3,-6.815647E2,-1.1547933E3,2.3395432E3],"split_indices":[7,0,7,2,2,4,4,0,0,0,0,0,0,0,0],"split_type":[0,0,0,0,0,0,0,0,0,0,0,0,0,0,0],"sum_hessian":[1.77E2,1.19E2,5.8E1,1.6E1,1.03E2,4.4E1,1.4E1,3E0,1.3E1,8.7E1,1.6E1,3.7E1,7E0,1.3E1,1E0],"tree_param":{"num_deleted":"0","num_feature":"8","num_nodes":"15","size_leaf_vector":"1"}},{"base_weights":[6.726622E2,1.851366E4,-4.80175E3,1.0632021E4,7.471136E4,-2.064146E4,1.9428875E3,3.28867E3,1.4206573E1,1.5573344E2,4.591592E3,-1.5293267E3,4.6310226E2,1.0524559E3,-3.2574515E2],"categories":[],"categories_nodes":[],"categories_segments":[],"categories_sizes":[],"default_left":[0,0,0,0,0,0,0,0,0,0,0,0,0,0,0],"id":41,"left_children":[1,3,5,7,9,11,13,-1,-1,-1,-1,-1,-1,-1,-1],"loss_changes":[1.7473976E10,1.7808718E10,1.467624E10,2.1663986E10,5.842813E9,1.2476391E10,1.5811996E10,0E0,0E0,0E0,0E0,0E0,0E0,0E0,0E0],"parents":[2147483647,0,0,1,1,2,2,3,3,4,4,5,5,6,6],"right_children":[2,4,6,8,10,12,14,-1,-1,-1,-1,-1,-1,-1,-1],"split_conditions":[6.3308E5,4.63851E5,3.655E1,2.08083E5,6.20192E5,1.08059E6,3.96E1,3.28867E3,1.4206573E1,1.5573344E2,4.591592E3,-1.5293267E3,4.6310226E2,1.0524559E3,-3.2574515E2],"split_indices":[0,2,5,2,0,0,5,0,0,0,0,0,0,0,0],"split_type":[0,0,0,0,0,0,0,0,0,0,0,0,0,0,0],"sum_hessian":[1.77E2,4.1E1,1.36E2,3.7E1,4E0,4E1,9.6E1,5E0,3.2E1,1E0,3E0,3E1,1E1,2.9E1,6.7E1],"tree_param":{"num_deleted":"0","num_feature":"8","num_nodes":"15","size_leaf_vector":"1"}},{"base_weights":[1.019675E3,-3.5640105E4,3.6636375E3,-9.117124E3,-4.776194E4,6.311143E3,-2.5531498E4,3.6642075E2,-1.1261827E3,-2.6451052E3,-2.9451743E2,4.4060405E3,2.5965894E2,-4.209099E2,-2.7325889E3],"categories":[],"categories_nodes":[],"categories_segments":[],"categories_sizes":[],"default_left":[0,0,0,0,0,0,0,0,0,0,0,0,0,0,0],"id":42,"left_children":[1,3,5,7,9,11,13,-1,-1,-1,-1,-1,-1,-1,-1],"loss_changes":[1.7286662E10,3.4226278E9,1.2991982E10,1.2674522E9,1.4101975E9,1.3535788E10,6.516741E9,0E0,0E0,0E0,0E0,0E0,0E0,0E0,0E0],"parents":[2147483647,0,0,1,1,2,2,3,3,4,4,5,5,6,6],"right_children":[2,4,6,8,10,12,14,-1,-1,-1,-1,-1,-1,-1,-1],"split_conditions":[1.10086E5,6.5625E2,4.74E1,3.50463E5,1.26421E6,4.05965E5,2.34242E5,3.6642075E2,-1.1261827E3,-2.6451052E3,-2.9451743E2,4.4060405E3,2.5965894E2,-4.209099E2,-2.7325889E3],"split_indices":[3,6,5,2,0,0,3,0,0,0,0,0,0,0,0],"split_type":[0,0,0,0,0,0,0,0,0,0,0,0,0,0,0],"sum_hessian":[1.76E2,1.1E1,1.65E2,4E0,7E0,1.52E2,1.3E1,2E0,2E0,6E0,1E0,1E0,1.51E2,9E0,4E0],"tree_param":{"num_deleted":"0","num_feature":"8","num_nodes":"15","size_leaf_vector":"1"}},{"base_weights":[1.6964379E3,7.543769E3,-9.931272E3,4.0281357E3,7.542725E4,7.356006E3,-1.6625492E4,3.4909384E2,-1.626035E3,6.6413906E3,6.7599915E2,4.3104033E3,-3.9442493E2,-1.0102407E3,1.255687E3],"categories":[],"categories_nodes":[],"categories_segments":[],"categories_sizes":[],"default_left":[0,0,0,0,0,0,0,0,0,0,0,0,0,0,0],"id":43,"left_children":[1,3,5,7,9,11,13,-1,-1,-1,-1,-1,-1,-1,-1],"loss_changes":[1.2585276E10,2.9050528E10,7.297237E9,1.2965836E10,1.9525233E10,2.2317148E10,7.230337E9,0E0,0E0,0E0,0E0,0E0,0E0,0E0,0E0],"parents":[2147483647,0,0,1,1,2,2,3,3,4,4,5,5,6,6],"right_children":[2,4,6,8,10,12,14,-1,-1,-1,-1,-1,-1,-1,-1],"split_conditions":[6.434965E2,6.2999E2,1.22865E5,4.89E1,7.1463E4,2.08083E5,4.36104E5,3.4909384E2,-1.626035E3,6.6413906E3,6.7599915E2,4.3104033E3,-3.9442493E2,-1.0102407E3,1.255687E3],"split_indices":[6,6,3,5,1,2,2,0,0,0,0,0,0,0,0],"split_type":[0,0,0,0,0,0,0,0,0,0,0,0,0,0,0],"sum_hessian":[1.83E2,1.22E2,6.1E1,1.17E2,5E0,1.7E1,4.4E1,1.09E2,8E0,2E0,3E0,2E0,1.5E1,4.1E1,3E0],"tree_param":{"num_deleted":"0","num_feature":"8","num_nodes":"15","size_leaf_vector":"1"}},{"base_weights":[2.4368936E3,1.2487533E4,-7.9883286E3,5.274591E3,4.8200598E4,-4.4114113E4,-3.7716135E3,7.959538E2,-5.7887933E2,4.6232944E3,8.4106757E2,-2.641611E3,-4.533563E2,-5.035189E2,8.324619E2],"categories":[],"categories_nodes":[],"categories_segments":[],"categories_sizes":[],"default_left":[0,0,0,0,0,0,0,0,0,0,0,0,0,0,0],"id":44,"left_children":[1,3,5,7,9,11,13,-1,-1,-1,-1,-1,-1,-1,-1],"loss_changes":[1.854106E10,2.2929422E10,1.3086511E10,1.3817395E10,1.9279761E10,2.270847E9,1.0329128E10,0E0,0E0,0E0,0E0,0E0,0E0,0E0,0E0],"parents":[2147483647,0,0,1,1,2,2,3,3,4,4,5,5,6,6],"right_children":[2,4,6,8,10,12,14,-1,-1,-1,-1,-1,-1,-1,-1],"split_conditions":[8.479645E1,7.860571E1,2.02E0,2.11152E5,8.0371445E1,1.0201647E2,1.113217E6,7.959538E2,-5.7887933E2,4.6232944E3,8.4106757E2,-2.641611E3,-4.533563E2,-5.035189E2,8.324619E2],"split_indices":[4,4,7,3,4,4,0,0,0,0,0,0,0,0,0],"split_type":[0,0,0,0,0,0,0,0,0,0,0,0,0,0,0],"sum_hessian":[1.75E2,8.9E1,8.6E1,7.5E1,1.4E1,8E0,7.8E1,4.6E1,2.9E1,5E0,9E0,6E0,2E0,6E1,1.8E1],"tree_param":{"num_deleted":"0","num_feature":"8","num_nodes":"15","size_leaf_vector":"1"}},{"base_weights":[5.2570044E2,7.7724785E3,-8.384992E3,-1.494846E3,4.286542E4,-4.43131E3,-3.1663945E4,4.1682305E3,-1.9843654E2,-4.1327246E2,3.1583477E3,-1.6896688E1,-1.2636864E3,-2.3261455E3,9.257285E2],"categories":[],"categories_nodes":[],"categories_segments":[],"categories_sizes":[],"default_left":[0,0,0,0,0,0,0,0,0,0,0,0,0,0,0],"id":45,"left_children":[1,3,5,7,9,11,13,-1,-1,-1,-1,-1,-1,-1,-1],"loss_changes":[1.0074113E10,2.80328E10,6.302315E9,1.4816186E10,1.920674E10,5.1957233E9,8.317361E9,0E0,0E0,0E0,0E0,0E0,0E0,0E0,0E0],"parents":[2147483647,0,0,1,1,2,2,3,3,4,4,5,5,6,6],"right_children":[2,4,6,8,10,12,14,-1,-1,-1,-1,-1,-1,-1,-1],"split_conditions":[4.0062893E1,3.83E1,6.4321E2,4.05965E5,2.85747E5,5.29119E5,3.87597E5,4.1682305E3,-1.9843654E2,-4.1327246E2,3.1583477E3,-1.6896688E1,-1.2636864E3,-2.3261455E3,9.257285E2],"split_indices":[5,5,6,0,2,2,2,0,0,0,0,0,0,0,0],"split_type":[0,0,0,0,0,0,0,0,0,0,0,0,0,0,0],"sum_hessian":[1.54E2,8.5E1,6.9E1,6.8E1,1.7E1,6E1,9E0,1E0,6.7E1,5E0,1.2E1,5.1E1,9E0,7E0,2E0],"tree_param":{"num_deleted":"0","num_feature":"8","num_nodes":"15","size_leaf_vector":"1"}},{"base_weights":[-7.6455304E2,-2.7622312E3,4.3293574E4,5.3394644E3,-1.393747E4,6.1284938E4,-1.1231907E3,7.9784296E2,-7.691285E2,-1.00995624E3,1.1260768E3,3.9223E3,-1.839807E2,4.4070572E2,-5.249475E2],"categories":[],"categories_nodes":[],"categories_segments":[],"categories_sizes":[],"default_left":[0,0,0,0,0,0,0,0,0,0,0,0,0,0,0],"id":46,"left_children":[1,3,5,7,9,11,13,-1,-1,-1,-1,-1,-1,-1,-1],"loss_changes":[1.4201815E10,1.4017329E10,5.662667E9,2.0046717E10,1.5294005E10,5.862963E9,3.7204845E8,0E0,0E0,0E0,0E0,0E0,0E0,0E0,0E0],"parents":[2147483647,0,0,1,1,2,2,3,3,4,4,5,5,6,6],"right_children":[2,4,6,8,10,12,14,-1,-1,-1,-1,-1,-1,-1,-1],"split_conditions":[1.12401E5,7.1463E4,2.46836E5,6.4321E2,6.8207E2,1.34483E5,9.69738E5,7.9784296E2,-7.691285E2,-1.00995624E3,1.1260768E3,3.9223E3,-1.839807E2,4.4070572E2,-5.249475E2],"split_indices":[1,1,3,6,6,1,0,0,0,0,0,0,0,0,0],"split_type":[0,0,0,0,0,0,0,0,0,0,0,0,0,0,0],"sum_hessian":[1.59E2,1.53E2,6E0,8.9E1,6.4E1,4E0,2E0,5.9E1,3E1,5.5E1,9E0,3E0,1E0,1E0,1E0],"tree_param":{"num_deleted":"0","num_feature":"8","num_nodes":"15","size_leaf_vector":"1"}},{"base_weights":[2.3756812E3,1.8143473E4,-2.0515022E3,1.0479071E4,6.9698445E4,-3.4753996E4,1.4860851E3,1.8138889E3,-3.7936362E2,9.607094E1,4.308116E3,-4.9073248E2,-1.904633E3,1.6902916E3,-4.551694E1],"categories":[],"categories_nodes":[],"categories_segments":[],"categories_sizes":[],"default_left":[0,0,0,0,0,0,0,0,0,0,0,0,0,0,0],"id":47,"left_children":[1,3,5,7,9,11,13,-1,-1,-1,-1,-1,-1,-1,-1],"loss_changes":[1.2742079E10,1.5075135E10,1.6595025E10,1.7054429E10,5.4138E9,7.918244E8,1.0099515E10,0E0,0E0,0E0,0E0,0E0,0E0,0E0,0E0],"parents":[2147483647,0,0,1,1,2,2,3,3,4,4,5,5,6,6],"right_children":[2,4,6,8,10,12,14,-1,-1,-1,-1,-1,-1,-1,-1],"split_conditions":[6.3308E5,4.63851E5,2.45811E5,2.56892E5,6.20192E5,5.79564E1,6.594827E1,1.8138889E3,-3.7936362E2,9.607094E1,4.308116E3,-4.9073248E2,-1.904633E3,1.6902916E3,-4.551694E1],"split_indices":[0,2,2,2,0,4,4,0,0,0,0,0,0,0,0],"split_type":[0,0,0,0,0,0,0,0,0,0,0,0,0,0,0],"sum_hessian":[1.81E2,3.9E1,1.42E2,3.5E1,4E0,1.3E1,1.29E2,1.4E1,2.1E1,1E0,3E0,2E0,1.1E1,8E0,1.21E2],"tree_param":{"num_deleted":"0","num_feature":"8","num_nodes":"15","size_leaf_vector":"1"}},{"base_weights":[-3.286126E3,-8.25354E3,1.2907827E4,4.3315205E3,-1.6133658E4,-1.2053457E3,4.021219E4,-1.9847487E2,3.431713E3,-8.7842914E2,2.5023752E3,1.4947025E3,-1.0071787E3,4.3198004E2,2.8396277E3],"categories":[],"categories_nodes":[],"categories_segments":[],"categories_sizes":[],"default_left":[0,0,0,0,0,0,0,0,0,0,0,0,0,0,0],"id":48,"left_children":[1,3,5,7,9,11,13,-1,-1,-1,-1,-1,-1,-1,-1],"loss_changes":[1.4023013E10,1.325973E10,1.5847873E10,2.8028914E10,8.66638E9,1.709326E10,6.8381204E9,0E0,0E0,0E0,0E0,0E0,0E0,0E0,0E0],"parents":[2147483647,0,0,1,1,2,2,3,3,4,4,5,5,6,6],"right_children":[2,4,6,8,10,12,14,-1,-1,-1,-1,-1,-1,-1,-1],"split_conditions":[5.02E0,8.241746E1,7.860571E1,7.849206E1,4.57696E5,3.07606E5,5.04E0,-1.9847487E2,3.431713E3,-8.7842914E2,2.5023752E3,1.4947025E3,-1.0071787E3,4.3198004E2,2.8396277E3],"split_indices":[7,4,4,4,3,2,7,0,0,0,0,0,0,0,0],"split_type":[0,0,0,0,0,0,0,0,0,0,0,0,0,0,0],"sum_hessian":[1.72E2,1.32E2,4E1,5.1E1,8.1E1,2.7E1,1.3E1,4.6E1,5E0,8E1,1E0,1E1,1.7E1,5E0,8E0],"tree_param":{"num_deleted":"0","num_feature":"8","num_nodes":"15","size_leaf_vector":"1"}},{"base_weights":[-3.2699932E3,1.2948495E4,-6.9537197E3,-6.90299E3,5.7312074E4,-1.1446132E4,9.899992E3,4.939597E2,-1.7053154E3,3.5460032E3,9.6001976E1,-8.3936444E2,2.4930643E2,1.5974105E3,-1.069492E3],"categories":[],"categories_nodes":[],"categories_segments":[],"categories_sizes":[],"default_left":[0,0,0,0,0,0,0,0,0,0,0,0,0,0,0],"id":49,"left_children":[1,3,5,7,9,11,13,-1,-1,-1,-1,-1,-1,-1,-1],"loss_changes":[1.0306346E10,2.8577483E10,1.0713252E10,1.083716E10,7.401566E9,9.825876E9,2.1379918E10,0E0,0E0,0E0,0E0,0E0,0E0,0E0,0E0],"parents":[2147483647,0,0,1,1,2,2,3,3,4,4,5,5,6,6],"right_children":[2,4,6,8,10,12,14,-1,-1,-1,-1,-1,-1,-1,-1],"split_conditions":[6.3308E5,5.70518E5,5.04E0,4.0062893E1,4.55E1,1.105002E6,5.72E0,4.939597E2,-1.7053154E3,3.5460032E3,9.6001976E1,-8.3936444E2,2.4930643E2,1.5974105E3,-1.069492E3],"split_indices":[0,0,7,5,5,0,7,0,0,0,0,0,0,0,0],"split_type":[0,0,0,0,0,0,0,0,0,0,0,0,0,0,0],"sum_hessian":[1.7E2,3.1E1,1.39E2,2.2E1,9E0,1.1E2,2.9E1,1.4E1,8E0,7E0,2E0,8.3E1,2.7E1,1.7E1,1.2E1],"tree_param":{"num_deleted":"0","num_feature":"8","num_nodes":"15","size_leaf_vector":"1"}},{"base_weights":[2.1736682E2,2.8725173E3,-3.222892E4,1.2424573E4,-4.7194478E3,-4.1482543E4,7.7642596E2,-1.9159148E2,1.1268325E3,4.0305188E3,-3.233094E2,-2.322704E3,3.301069E2],"categories":[],"categories_nodes":[],"categories_segments":[],"categories_sizes":[],"default_left":[0,0,0,0,0,0,0,0,0,0,0,0,0],"id":50,"left_children":[1,3,5,7,9,11,-1,-1,-1,-1,-1,-1,-1],"loss_changes":[1.5944134E10,1.2459364E10,6.8311767E9,1.2579694E10,1.4829939E10,3.1753585E9,0E0,0E0,0E0,0E0,0E0,0E0,0E0],"parents":[2147483647,0,0,1,1,2,2,3,3,4,4,5,5],"right_children":[2,4,6,8,10,12,-1,-1,-1,-1,-1,-1,-1],"split_conditions":[4.74E1,5.7617E2,8.2025E4,5.0562808E2,4.05965E5,5.02E0,7.7642596E2,-1.9159148E2,1.1268325E3,4.0305188E3,-3.233094E2,-2.322704E3,3.301069E2],"split_indices":[5,6,1,6,0,7,0,0,0,0,0,0,0],"split_type":[0,0,0,0,0,0,0,0,0,0,0,0,0],"sum_hessian":[1.83E2,1.7E2,1.3E1,7.5E1,9.5E1,1.1E1,2E0,2.9E1,4.6E1,1E0,9.4E1,1E1,1E0],"tree_param":{"num_deleted":"0","num_feature":"8","num_nodes":"13","size_leaf_vector":"1"}},{"base_weights":[9.4487164E2,8.823178E3,-7.9057256E3,6.6803423E3,3.5083582E3,-1.1864993E4,2.5526654E4,2.6417637E3,2.240745E2,-9.5499994E2,2.5041373E2,1.727638E3,2.8029056E2],"categories":[],"categories_nodes":[],"categories_segments":[],"categories_sizes":[],"default_left":[0,0,0,0,0,0,0,0,0,0,0,0,0],"id":51,"left_children":[1,3,5,7,-1,9,11,-1,-1,-1,-1,-1,-1],"loss_changes":[1.213265E10,1.1624662E10,1.1157027E10,8.897123E9,0E0,9.129445E9,1.4245678E9,0E0,0E0,0E0,0E0,0E0,0E0],"parents":[2147483647,0,0,1,1,2,2,3,3,5,5,6,6],"right_children":[2,4,6,8,-1,10,12,-1,-1,-1,-1,-1,-1],"split_conditions":[8.6650826E1,8.64463E1,5.01E0,1.1343E5,3.5083582E3,9.831662E1,7.8594E5,2.6417637E3,2.240745E2,-9.5499994E2,2.5041373E2,1.727638E3,2.8029056E2],"split_indices":[4,4,7,3,0,4,0,0,0,0,0,0,0],"split_type":[0,0,0,0,0,0,0,0,0,0,0,0,0],"sum_hessian":[1.72E2,9.1E1,8.1E1,8.9E1,2E0,7.3E1,8E0,3E0,8.6E1,5.1E1,2.2E1,5E0,3E0],"tree_param":{"num_deleted":"0","num_feature":"8","num_nodes":"13","size_leaf_vector":"1"}},{"base_weights":[-6.4734753E2,8.656192E3,-9.539351E3,2.7680144E3,3.9581695E4,-3.313631E4,-5.5856016E3,3.8637117E3,3.5846302E1,4.1179375E3,3.33284E2,-5.8394947E1,-1.9421282E3,-5.812917E2,9.650966E2],"categories":[],"categories_nodes":[],"categories_segments":[],"categories_sizes":[],"default_left":[0,0,0,0,0,0,0,0,0,0,0,0,0,0,0],"id":52,"left_children":[1,3,5,7,9,11,13,-1,-1,-1,-1,-1,-1,-1,-1],"loss_changes":[1.4890726E10,1.5914781E10,8.3981824E9,1.1406005E10,1.9163718E10,2.3260908E9,1.2250515E10,0E0,0E0,0E0,0E0,0E0,0E0,0E0,0E0],"parents":[2147483647,0,0,1,1,2,2,3,3,4,4,5,5,6,6],"right_children":[2,4,6,8,10,12,14,-1,-1,-1,-1,-1,-1,-1,-1],"split_conditions":[8.479645E1,7.860571E1,1.10086E5,4.05965E5,8.0371445E1,7.92049E5,6.7706E2,3.8637117E3,3.5846302E1,4.1179375E3,3.33284E2,-5.8394947E1,-1.9421282E3,-5.812917E2,9.650966E2],"split_indices":[4,4,3,0,4,0,6,0,0,0,0,0,0,0,0],"split_type":[0,0,0,0,0,0,0,0,0,0,0,0,0,0,0],"sum_hessian":[1.78E2,8.7E1,9.1E1,7.4E1,1.3E1,1.2E1,7.9E1,1E0,7.3E1,5E0,8E0,2E0,1E1,6.4E1,1.5E1],"tree_param":{"num_deleted":"0","num_feature":"8","num_nodes":"15","size_leaf_vector":"1"}},{"base_weights":[2.0854262E2,-6.234813E3,1.3769845E4,3.8598281E3,-7.5846284E3,4.3106277E4,5.8175156E3,1.8560236E2,-7.772666E2,-2.9963245E2,2.676267E3,-5.484433E2,9.5760004E2],"categories":[],"categories_nodes":[],"categories_segments":[],"categories_sizes":[],"default_left":[0,0,0,0,0,0,0,0,0,0,0,0,0],"id":53,"left_children":[1,3,5,-1,7,9,11,-1,-1,-1,-1,-1,-1],"loss_changes":[1.5464784E10,1.4099535E10,1.3046923E10,0E0,1.0759315E10,6.4595395E9,1.0506614E10,0E0,0E0,0E0,0E0,0E0,0E0],"parents":[2147483647,0,0,1,1,2,2,4,4,5,5,6,6],"right_children":[2,4,6,-1,8,10,12,-1,-1,-1,-1,-1,-1],"split_conditions":[4.65E0,4.2E-1,7.21244E5,3.8598281E3,6.0475E4,2.58897E5,8.53385E5,1.8560236E2,-7.772666E2,-2.9963245E2,2.676267E3,-5.484433E2,9.5760004E2],"split_indices":[7,7,0,0,1,2,0,0,0,0,0,0,0],"split_type":[0,0,0,0,0,0,0,0,0,0,0,0,0],"sum_hessian":[1.75E2,1.19E2,5.6E1,1E0,1.18E2,1.1E1,4.5E1,4.9E1,6.9E1,2E0,9E0,2E1,2.5E1],"tree_param":{"num_deleted":"0","num_feature":"8","num_nodes":"13","size_leaf_vector":"1"}},{"base_weights":[1.2101166E3,1.203071E4,-5.234651E3,2.8973848E4,-4.4207074E2,2.048875E4,-9.158532E3,2.2014724E3,-7.084413E2,3.762479E3,-2.2071056E2,-5.1030356E2,4.1959814E3,-1.608546E3,-3.071824E2],"categories":[],"categories_nodes":[],"categories_segments":[],"categories_sizes":[],"default_left":[0,0,0,0,0,0,0,0,0,0,0,0,0,0,0],"id":54,"left_children":[1,3,5,7,9,11,13,-1,-1,-1,-1,-1,-1,-1,-1],"loss_changes":[1.2336551E10,1.3960464E10,1.1391494E10,1.881094E10,1.2057815E10,3.0061486E10,6.532178E9,0E0,0E0,0E0,0E0,0E0,0E0,0E0,0E0],"parents":[2147483647,0,0,1,1,2,2,3,3,4,4,5,5,6,6],"right_children":[2,4,6,8,10,12,14,-1,-1,-1,-1,-1,-1,-1,-1],"split_conditions":[7.70115E5,5.490709E2,2.49E0,4.55E1,4.05965E5,1.81E0,6.9784256E1,2.2014724E3,-7.084413E2,3.762479E3,-2.2071056E2,-5.1030356E2,4.1959814E3,-1.608546E3,-3.071824E2],"split_indices":[0,6,7,5,0,7,4,0,0,0,0,0,0,0,0],"split_type":[0,0,0,0,0,0,0,0,0,0,0,0,0,0,0],"sum_hessian":[1.75E2,6.5E1,1.1E2,2.7E1,3.8E1,1.4E1,9.6E1,2E1,7E0,1E0,3.7E1,1E1,4E0,1E1,8.6E1],"tree_param":{"num_deleted":"0","num_feature":"8","num_nodes":"15","size_leaf_vector":"1"}},{"base_weights":[2.352813E3,-1.7547596E3,3.8809502E3,1.3217386E4,-1.8808344E3,3.7082954E3,5.553111E2,-1.0730355E3,3.8316406E2],"categories":[],"categories_nodes":[],"categories_segments":[],"categories_sizes":[],"default_left":[0,0,0,0,0,0,0,0,0],"id":55,"left_children":[1,-1,3,5,7,-1,-1,-1,-1],"loss_changes":[1.020792E10,0E0,9.16993E9,7.5399905E9,1.9972956E10,0E0,0E0,0E0,0E0],"parents":[2147483647,0,0,2,2,3,3,4,4],"right_children":[2,-1,4,6,8,-1,-1,-1,-1],"split_conditions":[9.3312E4,-1.7547596E3,3.38433E5,4.2E-1,3.76426E5,3.7082954E3,5.553111E2,-1.0730355E3,3.8316406E2],"split_indices":[3,0,2,7,2,0,0,0,0],"split_type":[0,0,0,0,0,0,0,0,0],"sum_hessian":[1.75E2,6E0,1.69E2,6.4E1,1.05E2,1E0,6.3E1,3.4E1,7.1E1],"tree_param":{"num_deleted":"0","num_feature":"8","num_nodes":"9","size_leaf_vector":"1"}},{"base_weights":[1.603353E3,3.6437947E3,-3.3040434E4,1.3319681E4,-3.0025403E3,-5.873683E3,-5.0172637E4,2.9586874E2,2.820077E3,-2.7813422E2,1.6085594E3,-8.7836835E2,3.8889313E2,-7.606706E2,-2.706089E3],"categories":[],"categories_nodes":[],"categories_segments":[],"categories_sizes":[],"default_left":[0,0,0,0,0,0,0,0,0,0,0,0,0,0,0],"id":56,"left_children":[1,3,5,7,9,11,13,-1,-1,-1,-1,-1,-1,-1,-1],"loss_changes":[1.2702964E10,1.0908245E10,4.35956E9,2.1670695E10,9.273986E9,9.348219E8,4.969472E6,0E0,0E0,0E0,0E0,0E0,0E0,0E0,0E0],"parents":[2147483647,0,0,1,1,2,2,3,3,4,4,5,5,6,6],"right_children":[2,4,6,8,10,12,14,-1,-1,-1,-1,-1,-1,-1,-1],"split_conditions":[4.89E1,6.2245E4,2.12499E5,5.992E4,1.12401E5,4.99E1,3.60566E5,2.9586874E2,2.820077E3,-2.7813422E2,1.6085594E3,-8.7836835E2,3.8889313E2,-7.606706E2,-2.706089E3],"split_indices":[5,1,3,1,1,5,2,0,0,0,0,0,0,0,0],"split_type":[0,0,0,0,0,0,0,0,0,0,0,0,0,0,0],"sum_hessian":[1.77E2,1.68E2,9E0,6.8E1,1E2,4E0,5E0,5.9E1,9E0,9.4E1,6E0,2E0,2E0,1E0,4E0],"tree_param":{"num_deleted":"0","num_feature":"8","num_nodes":"15","size_leaf_vector":"1"}},{"base_weights":[-1.8729633E2,-1.7528085E3,3.010007E4,4.297842E3,-1.0591046E4,-8.709293E2,4.6165215E4,4.0381393E2,-7.7569684E2,-8.4634503E2,5.2651526E2,4.0508079E3,8.0107916E2],"categories":[],"categories_nodes":[],"categories_segments":[],"categories_sizes":[],"default_left":[0,0,0,0,0,0,0,0,0,0,0,0,0],"id":57,"left_children":[1,3,5,7,9,-1,11,-1,-1,-1,-1,-1,-1],"loss_changes":[8.68233E9,9.350532E9,7.6746813E9,7.91048E9,9.679596E9,0E0,6.055721E9,0E0,0E0,0E0,0E0,0E0,0E0],"parents":[2147483647,0,0,1,1,2,2,3,3,4,4,6,6],"right_children":[2,4,6,8,10,-1,12,-1,-1,-1,-1,-1,-1],"split_conditions":[1.11987E5,7.1463E4,2.82E1,9.473169E1,9.820319E1,-8.709293E2,3.544489E1,4.0381393E2,-7.7569684E2,-8.4634503E2,5.2651526E2,4.0508079E3,8.0107916E2],"split_indices":[1,1,5,4,4,0,5,0,0,0,0,0,0],"split_type":[0,0,0,0,0,0,0,0,0,0,0,0,0],"sum_hessian":[1.81E2,1.73E2,8E0,1.03E2,7E1,2E0,6E0,8.7E1,1.6E1,5.4E1,1.6E1,2E0,4E0],"tree_param":{"num_deleted":"0","num_feature":"8","num_nodes":"13","size_leaf_vector":"1"}},{"base_weights":[-6.8099144E1,3.6370422E3,-9.094279E2,-6.3423833E3,1.1511269E4,-2.1658328E2,-2.2079592E3,-1.1573112E2,1.554921E3],"categories":[],"categories_nodes":[],"categories_segments":[],"categories_sizes":[],"default_left":[0,0,0,0,0,0,0,0,0],"id":58,"left_children":[1,-1,3,5,7,-1,-1,-1,-1],"loss_changes":[1.0724734E10,0E0,1.1747237E10,9.009421E9,1.4424906E10,0E0,0E0,0E0,0E0],"parents":[2147483647,0,0,2,2,3,3,4,4],"right_children":[2,-1,4,6,8,-1,-1,-1,-1],"split_conditions":[4.05965E5,3.6370422E3,4.65E0,4.4E0,2.4239E5,-2.1658328E2,-2.2079592E3,-1.1573112E2,1.554921E3],"split_indices":[0,0,7,7,3,0,0,0,0],"split_type":[0,0,0,0,0,0,0,0,0],"sum_hessian":[1.73E2,1E0,1.72E2,1.2E2,5.2E1,1.15E2,5E0,3.1E1,2.1E1],"tree_param":{"num_deleted":"0","num_feature":"8","num_nodes":"9","size_leaf_vector":"1"}},{"base_weights":[3.1306808E2,-4.5460264E3,2.3257307E4,-3.7498445E4,-1.9361018E3,3.0513701E4,-1.7676102E4,-2.9884088E2,-2.0168373E3,3.3672787E2,-6.258403E2,7.7790674E2,2.768634E3,5.2178973E2,-1.3656525E3],"categories":[],"categories_nodes":[],"categories_segments":[],"categories_sizes":[],"default_left":[0,0,0,0,0,0,0,0,0,0,0,0,0,0,0],"id":59,"left_children":[1,3,5,7,9,11,13,-1,-1,-1,-1,-1,-1,-1,-1],"loss_changes":[1.8501288E10,1.170985E10,9.153204E9,6.535885E8,1.1827232E10,8.4329984E9,1.6395994E9,0E0,0E0,0E0,0E0,0E0,0E0,0E0,0E0],"parents":[2147483647,0,0,1,1,2,2,3,3,4,4,5,5,6,6],"right_children":[2,4,6,8,10,12,14,-1,-1,-1,-1,-1,-1,-1,-1],"split_conditions":[5.06E0,5.3E-1,5.04138E5,4.0577E4,6.8597E4,2.387E5,3.73E1,-2.9884088E2,-2.0168373E3,3.3672787E2,-6.258403E2,7.7790674E2,2.768634E3,5.2178973E2,-1.3656525E3],"split_indices":[7,7,2,1,1,3,5,0,0,0,0,0,0,0,0],"split_type":[0,0,0,0,0,0,0,0,0,0,0,0,0,0,0],"sum_hessian":[1.64E2,1.36E2,2.8E1,9E0,1.27E2,2.4E1,4E0,1E0,8E0,7E1,5.7E1,1.6E1,8E0,1E0,3E0],"tree_param":{"num_deleted":"0","num_feature":"8","num_nodes":"15","size_leaf_vector":"1"}},{"base_weights":[-1.5725816E2,7.568468E3,-8.224604E3,-4.2432025E2,6.2221223E4,6.6820654E3,-1.6170178E4,-3.443881E2,1.0854891E3,1.5880794E2,4.0774998E3,-1.2187318E3,1.2055282E3,2.5994394E2,-1.212118E3],"categories":[],"categories_nodes":[],"categories_segments":[],"categories_sizes":[],"default_left":[0,0,0,0,0,0,0,0,0,0,0,0,0,0,0],"id":60,"left_children":[1,3,5,7,9,11,13,-1,-1,-1,-1,-1,-1,-1,-1],"loss_changes":[1.1467923E10,4.108823E10,1.0767835E10,1.2023715E10,1.3436199E10,1.7908382E10,1.0303236E10,0E0,0E0,0E0,0E0,0E0,0E0,0E0,0E0],"parents":[2147483647,0,0,1,1,2,2,3,3,4,4,5,5,6,6],"right_children":[2,4,6,8,10,12,14,-1,-1,-1,-1,-1,-1,-1,-1],"split_conditions":[3.96E1,3.877274E1,7.7003E5,3.98775E5,6.53341E5,2.6E0,2.81E0,-3.443881E2,1.0854891E3,1.5880794E2,4.0774998E3,-1.2187318E3,1.2055282E3,2.5994394E2,-1.212118E3],"split_indices":[5,5,0,2,0,7,7,0,0,0,0,0,0,0,0],"split_type":[0,0,0,0,0,0,0,0,0,0,0,0,0,0,0],"sum_hessian":[1.82E2,9.3E1,8.9E1,8.2E1,1.1E1,3.1E1,5.8E1,6.4E1,1.8E1,3E0,8E0,1.1E1,2E1,1.6E1,4.2E1],"tree_param":{"num_deleted":"0","num_feature":"8","num_nodes":"15","size_leaf_vector":"1"}},{"base_weights":[5.774216E2,-2.7885346E4,2.900935E3,-3.271882E4,-8.6745624E2,1.1563768E4,-4.7768677E3,-1.7596807E3,-1.9926976E2,-1.7884906E2,1.13787346E2,1.5420345E2,3.3186697E3,-4.134435E2,1.2814952E3],"categories":[],"categories_nodes":[],"categories_segments":[],"categories_sizes":[],"default_left":[0,0,0,0,0,0,0,0,0,0,0,0,0,0,0],"id":61,"left_children":[1,3,5,7,9,11,13,-1,-1,-1,-1,-1,-1,-1,-1],"loss_changes":[1.1389741E10,1.669289E9,1.0630571E10,6.419374E8,3.36902E7,3.465297E10,9.237272E9,0E0,0E0,0E0,0E0,0E0,0E0,0E0,0E0],"parents":[2147483647,0,0,1,1,2,2,3,3,4,4,5,5,6,6],"right_children":[2,4,6,8,10,12,14,-1,-1,-1,-1,-1,-1,-1,-1],"split_conditions":[1.10086E5,4.24E1,3.94E1,1.105225E6,5.15587E5,3.877274E1,5.06E0,-1.7596807E3,-1.9926976E2,-1.7884906E2,1.13787346E2,1.5420345E2,3.3186697E3,-4.134435E2,1.2814952E3],"split_indices":[3,5,5,0,0,5,7,0,0,0,0,0,0,0,0],"split_type":[0,0,0,0,0,0,0,0,0,0,0,0,0,0,0],"sum_hessian":[1.7E2,1.2E1,1.58E2,1E1,2E0,7.4E1,8.4E1,9E0,1E0,1E0,1E0,6.5E1,9E0,7.6E1,8E0],"tree_param":{"num_deleted":"0","num_feature":"8","num_nodes":"15","size_leaf_vector":"1"}},{"base_weights":[2.082232E3,1.3148769E4,-4.6999307E3,1.6642387E4,-2.456113E4,7.313998E3,-1.1596413E4,1.5323301E3,1.9156673E2,1.6643763E3,-2.1394197E3,2.6514841E3,-1.9951129E2,-1.802885E3,-1.7657687E2],"categories":[],"categories_nodes":[],"categories_segments":[],"categories_sizes":[],"default_left":[0,0,0,0,0,0,0,0,0,0,0,0,0,0,0],"id":62,"left_children":[1,3,5,7,9,11,13,-1,-1,-1,-1,-1,-1,-1,-1],"loss_changes":[1.3046323E10,9.10386E9,9.033032E9,1.0826512E10,7.7508557E9,2.088282E10,1.3484787E10,0E0,0E0,0E0,0E0,0E0,0E0,0E0,0E0],"parents":[2147483647,0,0,1,1,2,2,3,3,4,4,5,5,6,6],"right_children":[2,4,6,8,10,12,14,-1,-1,-1,-1,-1,-1,-1,-1],"split_conditions":[7.70115E5,4.6191055E1,3.44203E5,5.7617E2,4.723445E2,8.60102E5,3.72657E5,1.5323301E3,1.9156673E2,1.6643763E3,-2.1394197E3,2.6514841E3,-1.9951129E2,-1.802885E3,-1.7657687E2],"split_indices":[0,5,2,6,6,0,2,0,0,0,0,0,0,0,0],"split_type":[0,0,0,0,0,0,0,0,0,0,0,0,0,0,0],"sum_hessian":[1.72E2,6.5E1,1.07E2,6E1,5E0,3.9E1,6.8E1,2.8E1,3.2E1,1E0,4E0,7E0,3.2E1,1.6E1,5.2E1],"tree_param":{"num_deleted":"0","num_feature":"8","num_nodes":"15","size_leaf_vector":"1"}},{"base_weights":[-1.5738125E3,-4.35084E4,3.9724243E2,-2.5037117E3,-7.936947E2,3.5376633E3,-4.3281158E2,-1.0885419E3,9.6274734E1],"categories":[],"categories_nodes":[],"categories_segments":[],"categories_sizes":[],"default_left":[0,0,0,0,0,0,0,0,0],"id":63,"left_children":[1,3,5,-1,-1,-1,7,-1,-1],"loss_changes":[1.4729944E10,6.566687E8,1.0016909E10,0E0,0E0,0E0,8.596594E9,0E0,0E0],"parents":[2147483647,0,0,1,1,2,2,6,6],"right_children":[2,4,6,-1,-1,-1,8,-1,-1],"split_conditions":[5.3E-1,5.99414E5,4.05965E5,-2.5037117E3,-7.936947E2,3.5376633E3,2.29477E5,-1.0885419E3,9.6274734E1],"split_indices":[7,0,0,0,0,0,2,0,0],"split_type":[0,0,0,0,0,0,0,0,0],"sum_hessian":[1.77E2,7E0,1.7E2,5E0,2E0,1E0,1.69E2,1.6E1,1.53E2],"tree_param":{"num_deleted":"0","num_feature":"8","num_nodes":"9","size_leaf_vector":"1"}},{"base_weights":[1.4602811E3,4.551007E3,-2.0685863E4,2.867572E3,3.8531508E4,-2.3938227E4,1.1090331E3,4.925424E2,-3.0077203E2,3.7264263E3,-3.54918E2,-1.7705873E3,-6.669114E2],"categories":[],"categories_nodes":[],"categories_segments":[],"categories_sizes":[],"default_left":[0,0,0,0,0,0,0,0,0,0,0,0,0],"id":64,"left_children":[1,3,5,7,9,11,-1,-1,-1,-1,-1,-1,-1],"loss_changes":[1.1730242E10,8.470097E9,3.458734E9,8.991941E9,1.2026811E10,1.9600517E9,0E0,0E0,0E0,0E0,0E0,0E0,0E0],"parents":[2147483647,0,0,1,1,2,2,3,3,4,4,5,5],"right_children":[2,4,6,8,10,12,-1,-1,-1,-1,-1,-1,-1],"split_conditions":[7.0114044E2,6.8207E2,1.498112E6,7.0046E4,3.71E1,2.29137E5,1.1090331E3,4.925424E2,-3.0077203E2,3.7264263E3,-3.54918E2,-1.7705873E3,-6.669114E2],"split_indices":[6,6,0,1,5,2,0,0,0,0,0,0,0],"split_type":[0,0,0,0,0,0,0,0,0,0,0,0,0],"sum_hessian":[1.69E2,1.49E2,2E1,1.43E2,6E0,1.9E1,1E0,8E1,6.3E1,3E0,3E0,8E0,1.1E1],"tree_param":{"num_deleted":"0","num_feature":"8","num_nodes":"13","size_leaf_vector":"1"}},{"base_weights":[1.5508007E3,-3.4477906E4,4.3664463E3,-7.435612E2,-3.9361094E4,1.0163193E4,-6.7625693E3,-2.4371125E3,-7.7245325E2,3.148511E2,2.716015E3,3.4934868E3,-4.789959E2],"categories":[],"categories_nodes":[],"categories_segments":[],"categories_sizes":[],"default_left":[0,0,0,0,0,0,0,0,0,0,0,0,0],"id":65,"left_children":[1,3,5,-1,7,9,11,-1,-1,-1,-1,-1,-1],"loss_changes":[1.6787369E10,5.635656E8,9.939079E9,0E0,1.2658729E9,1.6900551E10,1.2112036E10,0E0,0E0,0E0,0E0,0E0,0E0],"parents":[2147483647,0,0,1,1,2,2,4,4,5,5,6,6],"right_children":[2,4,6,-1,8,10,12,-1,-1,-1,-1,-1,-1],"split_conditions":[6.8E-1,4.5053E4,6.434965E2,-7.435612E2,6.52397E5,6.323936E2,4.05965E5,-2.4371125E3,-7.7245325E2,3.148511E2,2.716015E3,3.4934868E3,-4.789959E2],"split_indices":[7,1,6,0,0,6,0,0,0,0,0,0,0],"split_type":[0,0,0,0,0,0,0,0,0,0,0,0,0],"sum_hessian":[1.63E2,1.1E1,1.52E2,3E0,8E0,1E2,5.2E1,5E0,3E0,9.3E1,7E0,1E0,5.1E1],"tree_param":{"num_deleted":"0","num_feature":"8","num_nodes":"13","size_leaf_vector":"1"}},{"base_weights":[3.3716565E2,3.6274258E3,-4.9959598E2,-3.8397414E4,1.0919263E3,-2.5605493E2,-2.1544968E3,6.624313E2,-2.924366E2],"categories":[],"categories_nodes":[],"categories_segments":[],"categories_sizes":[],"default_left":[0,0,0,0,0,0,0,0,0],"id":66,"left_children":[1,-1,3,5,7,-1,-1,-1,-1],"loss_changes":[1.0549973E10,0E0,1.0476464E10,8.723763E8,1.4168195E10,0E0,0E0,0E0,0E0],"parents":[2147483647,0,0,2,2,3,3,4,4],"right_children":[2,-1,4,6,8,-1,-1,-1,-1],"split_conditions":[4.2E-1,3.6274258E3,5E-1,4.0577E4,7.70115E5,-2.5605493E2,-2.1544968E3,6.624313E2,-2.924366E2],"split_indices":[7,0,7,1,0,0,0,0,0],"split_type":[0,0,0,0,0,0,0,0,0],"sum_hessian":[1.73E2,1E0,1.72E2,6E0,1.66E2,1E0,5E0,6E1,1.06E2],"tree_param":{"num_deleted":"0","num_feature":"8","num_nodes":"9","size_leaf_vector":"1"}},{"base_weights":[-3.8472437E3,-5.3508623E3,3.0855979E4,-2.6535215E4,-1.5731022E3,5.0315035E4,-5.9305383E2,1.2022806E3,-1.4889923E3,5.976646E3,-2.6017807E2,3.8950085E3,2.9790952E2],"categories":[],"categories_nodes":[],"categories_segments":[],"categories_sizes":[],"default_left":[0,0,0,0,0,0,0,0,0,0,0,0,0],"id":67,"left_children":[1,3,5,7,9,11,-1,-1,-1,-1,-1,-1,-1],"loss_changes":[8.774873E9,1.2682929E10,6.415429E9,4.6548644E9,6.0417167E10,5.653795E9,0E0,0E0,0E0,0E0,0E0,0E0,0E0],"parents":[2147483647,0,0,1,1,2,2,3,3,4,4,5,5],"right_children":[2,4,6,8,10,12,-1,-1,-1,-1,-1,-1,-1],"split_conditions":[1.12401E5,2.02E0,3.27614E5,2.71E1,2.37E0,3.544489E1,-5.9305383E2,1.2022806E3,-1.4889923E3,5.976646E3,-2.6017807E2,3.8950085E3,2.9790952E2],"split_indices":[1,7,2,5,7,5,0,0,0,0,0,0,0],"split_type":[0,0,0,0,0,0,0,0,0,0,0,0,0],"sum_hessian":[1.64E2,1.58E2,6E0,2.3E1,1.35E2,4E0,2E0,1E0,2.2E1,3E0,1.32E2,2E0,2E0],"tree_param":{"num_deleted":"0","num_feature":"8","num_nodes":"13","size_leaf_vector":"1"}},{"base_weights":[-1.8909581E3,-3.1668895E4,1.4267247E2,-1.8270795E4,-2.2046218E3,-2.887476E4,1.8375707E3,-2.7830148E2,-1.1119738E3,-9.123586E2,-2.2023757E3,5.1794E2,-3.298985E2],"categories":[],"categories_nodes":[],"categories_segments":[],"categories_sizes":[],"default_left":[0,0,0,0,0,0,0,0,0,0,0,0,0],"id":68,"left_children":[1,3,5,7,-1,9,11,-1,-1,-1,-1,-1,-1],"loss_changes":[1.0420381E10,1.0253609E9,8.020475E9,2.2915968E8,0E0,6.4749926E8,1.1138049E10,0E0,0E0,0E0,0E0,0E0,0E0],"parents":[2147483647,0,0,1,1,2,2,3,3,5,5,6,6],"right_children":[2,4,6,8,-1,10,12,-1,-1,-1,-1,-1,-1],"split_conditions":[6.8E-1,3.14456E5,3.5873E4,4.5053E4,-2.2046218E3,4E0,8.60931E5,-2.7830148E2,-1.1119738E3,-9.123586E2,-2.2023757E3,5.1794E2,-3.298985E2],"split_indices":[7,2,1,1,0,7,0,0,0,0,0,0,0],"split_type":[0,0,0,0,0,0,0,0,0,0,0,0,0],"sum_hessian":[1.71E2,1E1,1.61E2,6E0,4E0,8E0,1.53E2,2E0,4E0,6E0,2E0,7.6E1,7.7E1],"tree_param":{"num_deleted":"0","num_feature":"8","num_nodes":"13","size_leaf_vector":"1"}},{"base_weights":[1.1928514E2,1.9408306E3,-2.6552352E4,4.3109937E3,-1.8389424E4,1.5771702E3,-3.5516277E4,7.719224E1,1.6144716E3,5.0147095E2,-1.0396224E3,-2.0169414E3,1.9716469E2],"categories":[],"categories_nodes":[],"categories_segments":[],"categories_sizes":[],"default_left":[0,0,0,0,0,0,0,0,0,0,0,0,0],"id":69,"left_children":[1,3,5,7,9,-1,11,-1,-1,-1,-1,-1,-1],"loss_changes":[8.3593267E9,7.837224E9,6.848732E9,1.1176118E10,1.3694863E9,0E0,2.0620288E9,0E0,0E0,0E0,0E0,0E0,0E0],"parents":[2147483647,0,0,1,1,2,2,3,3,4,4,6,6],"right_children":[2,4,6,8,10,-1,12,-1,-1,-1,-1,-1,-1],"split_conditions":[4.74E1,5.29119E5,4.723445E2,4.65595E5,4.6772864E2,1.5771702E3,5.02E0,7.719224E1,1.6144716E3,5.0147095E2,-1.0396224E3,-2.0169414E3,1.9716469E2],"split_indices":[5,2,6,2,6,0,7,0,0,0,0,0,0],"split_type":[0,0,0,0,0,0,0,0,0,0,0,0,0],"sum_hessian":[1.7E2,1.6E2,1E1,1.44E2,1.6E1,1E0,9E0,1.32E2,1.2E1,1E0,1.5E1,8E0,1E0],"tree_param":{"num_deleted":"0","num_feature":"8","num_nodes":"13","size_leaf_vector":"1"}},{"base_weights":[2.2579458E3,-1.7315574E4,4.8185547E3,-3.055216E3,-2.4759205E4,6.727969E4,1.7908381E3,9.871572E2,-4.5662946E2,-1.3988417E3,3.4630533E2,6.6444854E3,7.2288617E2,6.0379987E2,-1.382144E2],"categories":[],"categories_nodes":[],"categories_segments":[],"categories_sizes":[],"default_left":[0,0,0,0,0,0,0,0,0,0,0,0,0,0,0],"id":70,"left_children":[1,3,5,7,9,11,13,-1,-1,-1,-1,-1,-1,-1,-1],"loss_changes":[8.653978E9,2.0473293E9,2.8624927E10,1.2887379E9,1.5191419E9,2.2338253E10,6.8735114E9,0E0,0E0,0E0,0E0,0E0,0E0,0E0,0E0],"parents":[2147483647,0,0,1,1,2,2,3,3,4,4,5,5,6,6],"right_children":[2,4,6,8,10,12,14,-1,-1,-1,-1,-1,-1,-1,-1],"split_conditions":[1.89E0,4.5053E4,2.37E0,1.33036E5,1.05956E5,6.0475E4,1.58209E5,9.871572E2,-4.5662946E2,-1.3988417E3,3.4630533E2,6.6444854E3,7.2288617E2,6.0379987E2,-1.382144E2],"split_indices":[7,1,7,3,1,1,3,0,0,0,0,0,0,0,0],"split_type":[0,0,0,0,0,0,0,0,0,0,0,0,0,0,0],"sum_hessian":[1.7E2,1.9E1,1.51E2,7E0,1.2E1,6E0,1.45E2,1E0,6E0,1.1E1,1E0,2E0,4E0,4.4E1,1.01E2],"tree_param":{"num_deleted":"0","num_feature":"8","num_nodes":"15","size_leaf_vector":"1"}},{"base_weights":[8.585697E1,9.765321E3,-5.8446777E3,6.224245E3,5.3138016E4,-1.5358021E4,2.8002678E3,9.6000275E2,-1.8817538E2,1.1929281E2,3.2614785E3,-1.2386044E3,3.0174115E2,5.9575845E3,-6.3006435E1],"categories":[],"categories_nodes":[],"categories_segments":[],"categories_sizes":[],"default_left":[0,0,0,0,0,0,0,0,0,0,0,0,0,0,0],"id":71,"left_children":[1,3,5,7,9,11,13,-1,-1,-1,-1,-1,-1,-1,-1],"loss_changes":[1.0275059E10,1.0113102E10,9.171908E9,8.366609E9,2.912726E9,1.0823358E10,2.80237E10,0E0,0E0,0E0,0E0,0E0,0E0,0E0,0E0],"parents":[2147483647,0,0,1,1,2,2,3,3,4,4,5,5,6,6],"right_children":[2,4,6,8,10,12,14,-1,-1,-1,-1,-1,-1,-1,-1],"split_conditions":[7.70115E5,8.7289E4,1.90003E5,5.4246E2,6.879838E1,9.7557816E1,1.90217E5,9.6000275E2,-1.8817538E2,1.1929281E2,3.2614785E3,-1.2386044E3,3.0174115E2,5.9575845E3,-6.3006435E1],"split_indices":[0,1,3,6,4,4,3,0,0,0,0,0,0,0,0],"split_type":[0,0,0,0,0,0,0,0,0,0,0,0,0,0,0],"sum_hessian":[1.77E2,6.7E1,1.1E2,6.3E1,4E0,5.2E1,5.8E1,2.7E1,3.6E1,1E0,3E0,3.6E1,1.6E1,1E0,5.7E1],"tree_param":{"num_deleted":"0","num_feature":"8","num_nodes":"15","size_leaf_vector":"1"}},{"base_weights":[-8.6571014E2,-2.179386E4,1.7074714E3,-3.618817E4,-1.3039993E4,2.1611625E4,-9.12434E2,-6.6059625E2,-2.1368132E3,-3.448337E2,-1.6633285E3,4.9520834E2,5.8086445E3,-1.3849341E2,1.8050618E3],"categories":[],"categories_nodes":[],"categories_segments":[],"categories_sizes":[],"default_left":[0,0,0,0,0,0,0,0,0,0,0,0,0,0,0],"id":72,"left_children":[1,3,5,7,9,11,13,-1,-1,-1,-1,-1,-1,-1,-1],"loss_changes":[9.838265E9,2.0482202E9,8.519682E9,4.8851866E8,1.510184E9,1.988376E10,1.0068809E10,0E0,0E0,0E0,0E0,0E0,0E0,0E0,0E0],"parents":[2147483647,0,0,1,1,2,2,3,3,4,4,5,5,6,6],"right_children":[2,4,6,8,10,12,14,-1,-1,-1,-1,-1,-1,-1,-1],"split_conditions":[4.4706E4,6.0085064E1,6.594827E1,5.689867E1,8.417877E1,6.5160416E1,1.11987E5,-6.6059625E2,-2.1368132E3,-3.448337E2,-1.6633285E3,4.9520834E2,5.8086445E3,-1.3849341E2,1.8050618E3],"split_indices":[1,4,4,4,4,4,1,0,0,0,0,0,0,0,0],"split_type":[0,0,0,0,0,0,0,0,0,0,0,0,0,0,0],"sum_hessian":[1.81E2,1.9E1,1.62E2,6E0,1.3E1,1.8E1,1.44E2,2E0,4E0,1.1E1,2E0,1.7E1,1E0,1.38E2,6E0],"tree_param":{"num_deleted":"0","num_feature":"8","num_nodes":"15","size_leaf_vector":"1"}},{"base_weights":[4.5084875E2,9.554561E3,-6.2421924E3,2.425769E3,2.6751824E4,-2.5743215E4,2.3269785E3,3.4600017E3,-1.2019571E1,4.5620703E3,4.48118E1,3.1969934E1,-1.6182758E3,-2.610438E1,3.259025E3],"categories":[],"categories_nodes":[],"categories_segments":[],"categories_sizes":[],"default_left":[0,0,0,0,0,0,0,0,0,0,0,0,0,0,0],"id":73,"left_children":[1,3,5,7,9,11,13,-1,-1,-1,-1,-1,-1,-1,-1],"loss_changes":[1.0357068E10,8.761994E9,1.643645E10,9.274248E9,3.4933957E10,5.2621025E9,1.2390132E10,0E0,0E0,0E0,0E0,0E0,0E0,0E0,0E0],"parents":[2147483647,0,0,1,1,2,2,3,3,4,4,5,5,6,6],"right_children":[2,4,6,8,10,12,14,-1,-1,-1,-1,-1,-1,-1,-1],"split_conditions":[3.38433E5,2.99156E5,3.72657E5,4.05965E5,7.14881E1,5.33872E5,3.41463E5,3.4600017E3,-1.2019571E1,4.5620703E3,4.48118E1,3.1969934E1,-1.6182758E3,-2.610438E1,3.259025E3],"split_indices":[2,2,2,0,4,0,3,0,0,0,0,0,0,0,0],"split_type":[0,0,0,0,0,0,0,0,0,0,0,0,0,0,0],"sum_hessian":[1.68E2,7.1E1,9.7E1,5.1E1,2E1,2.9E1,6.8E1,1E0,5E1,5E0,1.5E1,6E0,2.3E1,6.6E1,2E0],"tree_param":{"num_deleted":"0","num_feature":"8","num_nodes":"15","size_leaf_vector":"1"}},{"base_weights":[-2.2301854E2,3.330214E3,-9.811531E2,-3.112871E4,8.2996454E2,-8.852314E2,-2.0505925E3,8.909393E2,-1.5867535E2],"categories":[],"categories_nodes":[],"categories_segments":[],"categories_sizes":[],"default_left":[0,0,0,0,0,0,0,0,0],"id":74,"left_children":[1,-1,3,5,7,-1,-1,-1,-1],"loss_changes":[9.032884E9,0E0,9.635575E9,6.0061594E8,1.1414931E10,0E0,0E0,0E0,0E0],"parents":[2147483647,0,0,2,2,3,3,4,4],"right_children":[2,-1,4,6,8,-1,-1,-1,-1],"split_conditions":[4.2E-1,3.330214E3,5.3E-1,2.99156E5,6.3308E5,-8.852314E2,-2.0505925E3,8.909393E2,-1.5867535E2],"split_indices":[7,0,7,2,0,0,0,0,0],"split_type":[0,0,0,0,0,0,0,0,0],"sum_hessian":[1.76E2,1E0,1.75E2,9E0,1.66E2,5E0,4E0,3.1E1,1.35E2],"tree_param":{"num_deleted":"0","num_feature":"8","num_nodes":"9","size_leaf_vector":"1"}},{"base_weights":[3.8043066E3,1.0430362E4,-1.9458497E3,4.740523E3,3.9827934E4,-6.2785366E3,1.0263504E4,7.6780304E2,-5.215557E2,3.4617246E3,6.3972565E2,-5.4664105E2,5.7580096E2,1.3839384E3,-3.970626E2],"categories":[],"categories_nodes":[],"categories_segments":[],"categories_sizes":[],"default_left":[0,0,0,0,0,0,0,0,0,0,0,0,0,0,0],"id":75,"left_children":[1,3,5,7,9,11,13,-1,-1,-1,-1,-1,-1,-1,-1],"loss_changes":[6.649845E9,1.3359855E10,5.0369736E9,1.1272983E10,9.448647E9,5.923367E9,8.1458217E9,0E0,0E0,0E0,0E0,0E0,0E0,0E0,0E0],"parents":[2147483647,0,0,1,1,2,2,3,3,4,4,5,5,6,6],"right_children":[2,4,6,8,10,12,14,-1,-1,-1,-1,-1,-1,-1,-1],"split_conditions":[8.297007E1,7.849206E1,4.47751E5,3.38433E5,8.0371445E1,6.8207E2,8.73936E5,7.6780304E2,-5.215557E2,3.4617246E3,6.3972565E2,-5.4664105E2,5.7580096E2,1.3839384E3,-3.970626E2],"split_indices":[4,4,2,2,4,6,0,0,0,0,0,0,0,0,0],"split_type":[0,0,0,0,0,0,0,0,0,0,0,0,0,0,0],"sum_hessian":[1.73E2,8E1,9.3E1,6.8E1,1.2E1,6.9E1,2.4E1,4E1,2.8E1,5E0,7E0,5.5E1,1.4E1,1.2E1,1.2E1],"tree_param":{"num_deleted":"0","num_feature":"8","num_nodes":"15","size_leaf_vector":"1"}},{"base_weights":[-3.1170654E2,-1.0061524E4,2.940766E3,3.5733055E4,-1.3326199E4,2.889502E4,-2.9987239E3,-6.52051E2,3.332033E3,-9.9767296E1,-1.0995579E3,2.6610427E3,6.186589E2,-6.9476514E2,3.768211E2],"categories":[],"categories_nodes":[],"categories_segments":[],"categories_sizes":[],"default_left":[0,0,0,0,0,0,0,0,0,0,0,0,0,0,0],"id":76,"left_children":[1,3,5,7,9,11,13,-1,-1,-1,-1,-1,-1,-1,-1],"loss_changes":[5.1984855E9,6.605863E9,1.9047719E10,5.391536E9,3.785191E9,8.5853594E9,1.1699225E10,0E0,0E0,0E0,0E0,0E0,0E0,0E0,0E0],"parents":[2147483647,0,0,1,1,2,2,3,3,4,4,5,5,6,6],"right_children":[2,4,6,8,10,12,14,-1,-1,-1,-1,-1,-1,-1,-1],"split_conditions":[5.2486E4,4.05965E5,7.14881E1,3.71228E5,5.3865265E2,6.1621E4,3.25E0,-6.52051E2,3.332033E3,-9.9767296E1,-1.0995579E3,2.6610427E3,6.186589E2,-6.9476514E2,3.768211E2],"split_indices":[1,0,4,0,6,1,7,0,0,0,0,0,0,0,0],"split_type":[0,0,0,0,0,0,0,0,0,0,0,0,0,0,0],"sum_hessian":[1.62E2,4E1,1.22E2,2E0,3.8E1,2.2E1,1E2,1E0,1E0,1.7E1,2.1E1,8E0,1.4E1,4.9E1,5.1E1],"tree_param":{"num_deleted":"0","num_feature":"8","num_nodes":"15","size_leaf_vector":"1"}},{"base_weights":[2.428137E3,-1.4196652E3,3.6132595E3,-5.65268E3,6.301048E3,2.9218848E2,-9.635965E2,1.1029382E3,9.014768E1],"categories":[],"categories_nodes":[],"categories_segments":[],"categories_sizes":[],"default_left":[0,0,0,0,0,0,0,0,0],"id":77,"left_children":[1,-1,3,5,7,-1,-1,-1,-1],"loss_changes":[6.896645E9,0E0,4.518497E9,6.5321165E9,9.883384E9,0E0,0E0,0E0,0E0],"parents":[2147483647,0,0,2,2,3,3,4,4],"right_children":[2,-1,4,6,8,-1,-1,-1,-1],"split_conditions":[9.3312E4,-1.4196652E3,5.2486E4,6.26743E5,6.0475E4,2.9218848E2,-9.635965E2,1.1029382E3,9.014768E1],"split_indices":[3,0,1,0,1,0,0,0,0],"split_type":[0,0,0,0,0,0,0,0,0],"sum_hessian":[1.85E2,6E0,1.79E2,4E1,1.39E2,2.2E1,1.8E1,3E1,1.09E2],"tree_param":{"num_deleted":"0","num_feature":"8","num_nodes":"9","size_leaf_vector":"1"}},{"base_weights":[-9.875623E2,-2.615461E3,3.372872E4,-2.8722568E4,-1.1489208E3,-9.9470624E2,4.5468992E4,-7.444243E2,-2.1146514E3,-1.5112836E3,8.158477E0,-3.6880026E2,2.941948E2,2.8735056E3,-3.6341235E2],"categories":[],"categories_nodes":[],"categories_segments":[],"categories_sizes":[],"default_left":[0,0,0,0,0,0,0,0,0,0,0,0,0,0,0],"id":78,"left_children":[1,3,5,7,9,11,13,-1,-1,-1,-1,-1,-1,-1,-1],"loss_changes":[1.0091294E10,6.475809E9,3.306534E9,1.05992806E9,6.185449E9,1.75083E8,4.2151465E9,0E0,0E0,0E0,0E0,0E0,0E0,0E0,0E0],"parents":[2147483647,0,0,1,1,2,2,3,3,4,4,5,5,6,6],"right_children":[2,4,6,8,10,12,14,-1,-1,-1,-1,-1,-1,-1,-1],"split_conditions":[1.11987E5,5.3E-1,6.437545E1,5.8124E4,2.01923E5,1.29241E5,3.27614E5,-7.444243E2,-2.1146514E3,-1.5112836E3,8.158477E0,-3.6880026E2,2.941948E2,2.8735056E3,-3.6341235E2],"split_indices":[1,7,4,1,2,1,2,0,0,0,0,0,0,0,0],"split_type":[0,0,0,0,0,0,0,0,0,0,0,0,0,0,0],"sum_hessian":[1.76E2,1.69E2,7E0,8E0,1.61E2,2E0,5E0,5E0,3E0,6E0,1.55E2,1E0,1E0,4E0,1E0],"tree_param":{"num_deleted":"0","num_feature":"8","num_nodes":"15","size_leaf_vector":"1"}},{"base_weights":[2.4683389E3,-2.0369186E4,4.2526997E3,-3.2293207E4,-1.0756096E3,2.7195477E4,2.1115706E3,-6.682091E2,-2.0488884E3,6.773698E2,-5.8869934E2,1.9965664E3,-1.6406527E3,-1.2115487E3,2.0686604E2],"categories":[],"categories_nodes":[],"categories_segments":[],"categories_sizes":[],"default_left":[0,0,0,0,0,0,0,0,0,0,0,0,0,0,0],"id":79,"left_children":[1,3,5,7,9,11,13,-1,-1,-1,-1,-1,-1,-1,-1],"loss_changes":[7.2994417E9,2.9560033E9,8.047943E9,7.674824E8,1.0981613E9,1.2009905E10,8.211488E9,0E0,0E0,0E0,0E0,0E0,0E0,0E0,0E0],"parents":[2147483647,0,0,1,1,2,2,3,3,4,4,5,5,6,6],"right_children":[2,4,6,8,10,12,14,-1,-1,-1,-1,-1,-1,-1,-1],"split_conditions":[1.10086E5,9.629214E1,1.22865E5,5.7857E4,9.87E1,3.54E0,6.0624443E1,-6.682091E2,-2.0488884E3,6.773698E2,-5.8869934E2,1.9965664E3,-1.6406527E3,-1.2115487E3,2.0686604E2],"split_indices":[3,4,3,1,4,7,4,0,0,0,0,0,0,0,0],"split_type":[0,0,0,0,0,0,0,0,0,0,0,0,0,0,0],"sum_hessian":[1.76E2,1.2E1,1.64E2,7E0,5E0,1.3E1,1.51E2,3E0,4E0,2E0,3E0,1.1E1,2E0,1E1,1.41E2],"tree_param":{"num_deleted":"0","num_feature":"8","num_nodes":"15","size_leaf_vector":"1"}},{"base_weights":[-2.518681E3,-6.985432E2,-3.4394582E4,-2.9991404E4,1.0520143E3,1.2482914E2,-3.9318062E4,-6.1107764E2,-1.8419694E3,-8.9067834E2,1.7099442E2,-2.1809204E3,-2.3038892E2],"categories":[],"categories_nodes":[],"categories_segments":[],"categories_sizes":[],"default_left":[0,0,0,0,0,0,0,0,0,0,0,0,0],"id":80,"left_children":[1,3,5,7,9,-1,11,-1,-1,-1,-1,-1,-1],"loss_changes":[9.665064E9,8.18489E9,1.732862E9,6.44949E8,6.8062874E9,0E0,9.931397E8,0E0,0E0,0E0,0E0,0E0,0E0],"parents":[2147483647,0,0,1,1,2,2,3,3,4,4,6,6],"right_children":[2,4,6,8,10,-1,12,-1,-1,-1,-1,-1,-1],"split_conditions":[4.86E1,5.3E-1,6.29019E5,5.8124E4,4.4256E4,1.2482914E2,8.61153E5,-6.1107764E2,-1.8419694E3,-8.9067834E2,1.7099442E2,-2.1809204E3,-2.3038892E2],"split_indices":[5,7,0,1,1,0,0,0,0,0,0,0,0],"split_type":[0,0,0,0,0,0,0,0,0,0,0,0,0],"sum_hessian":[1.66E2,1.58E2,8E0,8E0,1.5E2,1E0,7E0,3E0,5E0,1.6E1,1.34E2,6E0,1E0],"tree_param":{"num_deleted":"0","num_feature":"8","num_nodes":"13","size_leaf_vector":"1"}},{"base_weights":[5.693638E2,9.578089E3,-6.928094E3,2.9938699E3,3.1724941E4,3.511676E3,-1.2541388E4,1.7111265E1,2.7514387E3,-8.172194E2,1.9377568E3,-1.4805062E3,3.83609E2,-1.3363168E3,-1.7453062E2],"categories":[],"categories_nodes":[],"categories_segments":[],"categories_sizes":[],"default_left":[0,0,0,0,0,0,0,0,0,0,0,0,0,0,0],"id":81,"left_children":[1,3,5,7,9,11,13,-1,-1,-1,-1,-1,-1,-1,-1],"loss_changes":[1.1751216E10,1.1424776E10,5.611184E9,8.535803E9,6.716293E9,4.912487E9,7.8665626E9,0E0,0E0,0E0,0E0,0E0,0E0,0E0,0E0],"parents":[2147483647,0,0,1,1,2,2,3,3,4,4,5,5,6,6],"right_children":[2,4,6,8,10,12,14,-1,-1,-1,-1,-1,-1,-1,-1],"split_conditions":[8.15286E5,4.38398E5,3.28319E5,9.0454E4,5.3931E5,2.45281E5,3.76426E5,1.7111265E1,2.7514387E3,-8.172194E2,1.9377568E3,-1.4805062E3,3.83609E2,-1.3363168E3,-1.7453062E2],"split_indices":[0,2,2,1,0,2,2,0,0,0,0,0,0,0,0],"split_type":[0,0,0,0,0,0,0,0,0,0,0,0,0,0,0],"sum_hessian":[1.72E2,7.8E1,9.4E1,6.1E1,1.7E1,3.3E1,6.1E1,5.9E1,2E0,2E0,1.5E1,3E0,3E1,2.3E1,3.8E1],"tree_param":{"num_deleted":"0","num_feature":"8","num_nodes":"15","size_leaf_vector":"1"}},{"base_weights":[2.2902246E3,3.4691383E4,9.101134E2,-1.7435222E3,4.1926235E3,-2.7326588E4,2.5127737E3,1.7263037E3,-9.721232E2,-5.167836E2,-1.9426084E3,1.1846749E3,-2.7644468E1],"categories":[],"categories_nodes":[],"categories_segments":[],"categories_sizes":[],"default_left":[0,0,0,0,0,0,0,0,0,0,0,0,0],"id":82,"left_children":[1,3,5,7,-1,9,11,-1,-1,-1,-1,-1,-1],"loss_changes":[7.6597816E9,1.2684465E10,7.5808E9,3.880938E9,0E0,1.3609032E9,1.0272511E10,0E0,0E0,0E0,0E0,0E0,0E0],"parents":[2147483647,0,0,1,1,2,2,3,3,5,5,6,6],"right_children":[2,4,6,8,-1,10,12,-1,-1,-1,-1,-1,-1],"split_conditions":[2.08083E5,1.95201E5,5.3E-1,5.418475E1,4.1926235E3,5.8124E4,2.37E0,1.7263037E3,-9.721232E2,-5.167836E2,-1.9426084E3,1.1846749E3,-2.7644468E1],"split_indices":[2,2,7,4,0,1,7,0,0,0,0,0,0],"split_type":[0,0,0,0,0,0,0,0,0,0,0,0,0],"sum_hessian":[1.71E2,6E0,1.65E2,4E0,2E0,8E0,1.57E2,1E0,3E0,4E0,4E0,1.9E1,1.38E2],"tree_param":{"num_deleted":"0","num_feature":"8","num_nodes":"13","size_leaf_vector":"1"}},{"base_weights":[-7.3319275E2,-1.5767484E4,1.374632E3,-1.648604E3,-2.170067E4,4.2116375E4,-1.0320481E3,9.1910175E2,-4.0253668E2,-1.2051421E3,2.3818657E2,-3.4219095E2,4.6393774E3,6.439311E2,-1.9886972E2],"categories":[],"categories_nodes":[],"categories_segments":[],"categories_sizes":[],"default_left":[0,0,0,0,0,0,0,0,0,0,0,0,0,0,0],"id":83,"left_children":[1,3,5,7,9,11,13,-1,-1,-1,-1,-1,-1,-1,-1],"loss_changes":[5.1553997E9,1.6396206E9,1.4064955E10,1.045659E9,1.0048297E9,2.048199E10,5.6233795E9,0E0,0E0,0E0,0E0,0E0,0E0,0E0,0E0],"parents":[2147483647,0,0,1,1,2,2,3,3,4,4,5,5,6,6],"right_children":[2,4,6,8,10,12,14,-1,-1,-1,-1,-1,-1,-1,-1],"split_conditions":[1.81E0,4.5053E4,2.17E0,1.33036E5,1.20842E5,1.48748E5,1.34714E5,9.1910175E2,-4.0253668E2,-1.2051421E3,2.3818657E2,-3.4219095E2,4.6393774E3,6.439311E2,-1.9886972E2],"split_indices":[7,1,7,3,1,3,3,0,0,0,0,0,0,0,0],"split_type":[0,0,0,0,0,0,0,0,0,0,0,0,0,0,0],"sum_hessian":[1.61E2,1.9E1,1.42E2,6E0,1.3E1,7E0,1.35E2,1E0,5E0,1.2E1,1E0,4E0,3E0,2.3E1,1.12E2],"tree_param":{"num_deleted":"0","num_feature":"8","num_nodes":"15","size_leaf_vector":"1"}},{"base_weights":[-1.3552649E3,4.629815E3,-6.9396387E3,3.84422E2,5.309366E4,-9.110276E3,4.3634586E4,-9.1538704E1,1.721079E3,-1.9093735E2,3.1607769E3,-6.238866E2,4.2794214E2,2.7400232E3,2.5342094E2],"categories":[],"categories_nodes":[],"categories_segments":[],"categories_sizes":[],"default_left":[0,0,0,0,0,0,0,0,0,0,0,0,0,0,0],"id":84,"left_children":[1,3,5,7,9,11,13,-1,-1,-1,-1,-1,-1,-1,-1],"loss_changes":[6.0148326E9,1.7879667E10,1.0606901E10,6.170338E9,4.27383E9,5.4617933E9,1.4447442E9,0E0,0E0,0E0,0E0,0E0,0E0,0E0,0E0],"parents":[2147483647,0,0,1,1,2,2,3,3,4,4,5,5,6,6],"right_children":[2,4,6,8,10,12,14,-1,-1,-1,-1,-1,-1,-1,-1],"split_conditions":[3.96E1,3.9E1,5.29E0,1.0219163E2,6.330028E1,2.765E5,2.38112E5,-9.1538704E1,1.721079E3,-1.9093735E2,3.1607769E3,-6.238866E2,4.2794214E2,2.7400232E3,2.5342094E2],"split_indices":[5,5,7,4,4,3,3,0,0,0,0,0,0,0,0],"split_type":[0,0,0,0,0,0,0,0,0,0,0,0,0,0,0],"sum_hessian":[1.78E2,8.6E1,9.2E1,8E1,6E0,8.9E1,3E0,7.6E1,4E0,1E0,5E0,7.5E1,1.4E1,2E0,1E0],"tree_param":{"num_deleted":"0","num_feature":"8","num_nodes":"15","size_leaf_vector":"1"}},{"base_weights":[4.1184515E2,8.746434E3,-5.1484688E3,1.6173019E4,-4.443667E3,-2.1776096E4,5.418932E3,3.8516245E2,2.0826003E3,-7.92311E2,5.0899106E2,5.4174664E1,-1.3675326E3,1.26884575E2,2.4361707E3],"categories":[],"categories_nodes":[],"categories_segments":[],"categories_sizes":[],"default_left":[0,0,0,0,0,0,0,0,0,0,0,0,0,0,0],"id":85,"left_children":[1,3,5,7,9,11,13,-1,-1,-1,-1,-1,-1,-1,-1],"loss_changes":[8.108701E9,6.9288873E9,1.8567637E10,9.39019E9,4.496685E9,5.254351E9,7.98644E9,0E0,0E0,0E0,0E0,0E0,0E0,0E0,0E0],"parents":[2147483647,0,0,1,1,2,2,3,3,4,4,5,5,6,6],"right_children":[2,4,6,8,10,12,14,-1,-1,-1,-1,-1,-1,-1,-1],"split_conditions":[3.38433E5,8.0371445E1,3.8863E5,2.96039E5,9.820319E1,2.5E0,3.41463E5,3.8516245E2,2.0826003E3,-7.92311E2,5.0899106E2,5.4174664E1,-1.3675326E3,1.26884575E2,2.4361707E3],"split_indices":[2,4,2,2,4,7,3,0,0,0,0,0,0,0,0],"split_type":[0,0,0,0,0,0,0,0,0,0,0,0,0,0,0],"sum_hessian":[1.73E2,6.9E1,1.04E2,4.4E1,2.5E1,4E1,6.4E1,3.4E1,1E1,1.4E1,1.1E1,8E0,3.2E1,6.1E1,3E0],"tree_param":{"num_deleted":"0","num_feature":"8","num_nodes":"15","size_leaf_vector":"1"}},{"base_weights":[-2.1439976E3,-2.79667E2,-1.9345182E4,-4.3073994E3,2.2387977E4,-2.5956125E4,-2.8990823E3,-4.1565933E2,5.648664E2,-1.1243872E3,1.4934822E3,-1.6807421E3,-6.3474603E2,-7.9287177E2,7.672525E2],"categories":[],"categories_nodes":[],"categories_segments":[],"categories_sizes":[],"default_left":[0,0,0,0,0,0,0,0,0,0,0,0,0,0,0],"id":86,"left_children":[1,3,5,7,9,11,13,-1,-1,-1,-1,-1,-1,-1,-1],"loss_changes":[5.5745403E9,1.4521704E10,1.7730601E9,8.532661E9,8.729587E9,7.920225E8,1.6618167E9,0E0,0E0,0E0,0E0,0E0,0E0,0E0,0E0],"parents":[2147483647,0,0,1,1,2,2,3,3,4,4,5,5,6,6],"right_children":[2,4,6,8,10,12,14,-1,-1,-1,-1,-1,-1,-1,-1],"split_conditions":[5.29119E5,4.36104E5,4.3120724E1,5.04E0,1.54039E5,5.77671E5,6.7586E4,-4.1565933E2,5.648664E2,-1.1243872E3,1.4934822E3,-1.6807421E3,-6.3474603E2,-7.9287177E2,7.672525E2],"split_indices":[2,2,5,7,3,2,1,0,0,0,0,0,0,0,0],"split_type":[0,0,0,0,0,0,0,0,0,0,0,0,0,0,0],"sum_hessian":[1.73E2,1.57E2,1.6E1,1.34E2,2.3E1,1.1E1,5E0,1.07E2,2.7E1,3E0,2E1,6E0,5E0,3E0,2E0],"tree_param":{"num_deleted":"0","num_feature":"8","num_nodes":"15","size_leaf_vector":"1"}},{"base_weights":[-9.455025E2,-2.1054855E4,8.769255E2,-2.7633693E4,-3.6861877E3,-1.814697E4,3.197281E3,-5.5246625E2,-1.6581395E3,-5.870084E2,7.132409E2,-6.4772125E2,-1.903034E3,2.762563E2,-8.990844E2],"categories":[],"categories_nodes":[],"categories_segments":[],"categories_sizes":[],"default_left":[0,0,0,0,0,0,0,0,0,0,0,0,0,0,0],"id":87,"left_children":[1,3,5,7,9,11,13,-1,-1,-1,-1,-1,-1,-1,-1],"loss_changes":[6.175303E9,1.4978529E9,6.900061E9,5.505352E8,8.903563E8,1.2647895E9,6.952236E9,0E0,0E0,0E0,0E0,0E0,0E0,0E0,0E0],"parents":[2147483647,0,0,1,1,2,2,3,3,4,4,5,5,6,6],"right_children":[2,4,6,8,10,12,14,-1,-1,-1,-1,-1,-1,-1,-1],"split_conditions":[1.10086E5,9.690253E1,4.135E4,6.285E2,7.4544E4,4E0,5.72E0,-5.5246625E2,-1.6581395E3,-5.870084E2,7.132409E2,-6.4772125E2,-1.903034E3,2.762563E2,-8.990844E2],"split_indices":[3,4,1,6,1,7,7,0,0,0,0,0,0,0,0],"split_type":[0,0,0,0,0,0,0,0,0,0,0,0,0,0,0],"sum_hessian":[1.67E2,1.3E1,1.54E2,9E0,4E0,1.6E1,1.38E2,3E0,6E0,3E0,1E0,1.4E1,2E0,1.25E2,1.3E1],"tree_param":{"num_deleted":"0","num_feature":"8","num_nodes":"15","size_leaf_vector":"1"}},{"base_weights":[2.6121885E3,5.2315894E3,-1.1794234E4,1.5280114E4,7.1273303E2,-2.050024E4,1.4764941E4,2.9878967E2,2.5399797E3,4.6405392E2,-4.2922437E2,1.5722432E3,-1.2444596E3,-5.148765E2,2.5807058E3],"categories":[],"categories_nodes":[],"categories_segments":[],"categories_sizes":[],"default_left":[0,0,0,0,0,0,0,0,0,0,0,0,0,0,0],"id":88,"left_children":[1,3,5,7,9,11,13,-1,-1,-1,-1,-1,-1,-1,-1],"loss_changes":[6.3636475E9,6.4370207E9,6.3145175E9,1.423775E10,7.9661906E9,5.342327E9,6.996221E9,0E0,0E0,0E0,0E0,0E0,0E0,0E0,0E0],"parents":[2147483647,0,0,1,1,2,2,3,3,4,4,5,5,6,6],"right_children":[2,4,6,8,10,12,14,-1,-1,-1,-1,-1,-1,-1,-1],"split_conditions":[4.55E1,5.3865265E2,5.332065E2,5.309548E2,3.38433E5,4.723445E2,4.21578E5,2.9878967E2,2.5399797E3,4.6405392E2,-4.2922437E2,1.5722432E3,-1.2444596E3,-5.148765E2,2.5807058E3],"split_indices":[5,6,6,6,2,6,2,0,0,0,0,0,0,0,0],"split_type":[0,0,0,0,0,0,0,0,0,0,0,0,0,0,0],"sum_hessian":[1.66E2,1.41E2,2.5E1,4.3E1,9.8E1,1.9E1,6E0,3.5E1,8E0,5.1E1,4.7E1,1E0,1.8E1,4E0,2E0],"tree_param":{"num_deleted":"0","num_feature":"8","num_nodes":"15","size_leaf_vector":"1"}},{"base_weights":[4.244532E3,1.1533357E4,-1.873702E3,4.3887676E3,6.7408586E4,-1.02148955E4,6.6802993E3,8.3874506E2,-2.69275E2,3.77552E3,6.484906E1,-2.1361485E2,-9.686541E2,1.6178177E3,-1.388585E2],"categories":[],"categories_nodes":[],"categories_segments":[],"categories_sizes":[],"default_left":[0,0,0,0,0,0,0,0,0,0,0,0,0,0,0],"id":89,"left_children":[1,3,5,7,9,11,13,-1,-1,-1,-1,-1,-1,-1,-1],"loss_changes":[7.8256916E9,3.1640599E10,6.9178947E9,8.807049E9,4.7226675E9,2.583978E9,1.1745724E10,0E0,0E0,0E0,0E0,0E0,0E0,0E0,0E0],"parents":[2147483647,0,0,1,1,2,2,3,3,4,4,5,5,6,6],"right_children":[2,4,6,8,10,12,14,-1,-1,-1,-1,-1,-1,-1,-1],"split_conditions":[3.94E1,3.877274E1,3.98E0,7.92049E5,1.045075E6,2.87E0,7.21244E5,8.3874506E2,-2.69275E2,3.77552E3,6.484906E1,-2.1361485E2,-9.686541E2,1.6178177E3,-1.388585E2],"split_indices":[5,5,7,0,0,7,0,0,0,0,0,0,0,0,0],"split_type":[0,0,0,0,0,0,0,0,0,0,0,0,0,0,0],"sum_hessian":[1.74E2,7.9E1,9.5E1,7.1E1,8E0,4.8E1,4.7E1,3.1E1,4E1,7E0,1E0,3E1,1.8E1,1.2E1,3.5E1],"tree_param":{"num_deleted":"0","num_feature":"8","num_nodes":"15","size_leaf_vector":"1"}},{"base_weights":[-3.6216788E2,3.0789077E3,-1.0560924E3,-2.5627718E1,-3.0591793E4,-1.6238739E2,9.589614E2,-1.9123799E3,1.9217836E2],"categories":[],"categories_nodes":[],"categories_segments":[],"categories_sizes":[],"default_left":[0,0,0,0,0,0,0,0,0],"id":90,"left_children":[1,-1,3,5,7,-1,-1,-1,-1],"loss_changes":[7.758788E9,0E0,5.4167316E9,1.0767589E10,1.7287931E9,0E0,0E0,0E0,0E0],"parents":[2147483647,0,0,2,2,3,3,4,4],"right_children":[2,-1,4,6,8,-1,-1,-1,-1],"split_conditions":[4.05965E5,3.0789077E3,6.3E0,5.05E0,8.87215E5,-1.6238739E2,9.589614E2,-1.9123799E3,1.9217836E2],"split_indices":[0,0,7,7,0,0,0,0,0],"split_type":[0,0,0,0,0,0,0,0,0],"sum_hessian":[1.78E2,1E0,1.77E2,1.72E2,5E0,1.48E2,2.4E1,4E0,1E0],"tree_param":{"num_deleted":"0","num_feature":"8","num_nodes":"9","size_leaf_vector":"1"}},{"base_weights":[-1.3780508E3,6.4896343E3,-6.0589688E3,2.9828943E3,3.662223E4,-1.1900901E4,4.239126E3,5.992663E2,-3.8372684E2,2.2298176E3,-2.805604E2,1.0366713E3,-7.566417E2,-1.4145155E3,4.203881E2],"categories":[],"categories_nodes":[],"categories_segments":[],"categories_sizes":[],"default_left":[0,0,0,0,0,0,0,0,0,0,0,0,0,0,0],"id":91,"left_children":[1,3,5,7,9,11,13,-1,-1,-1,-1,-1,-1,-1,-1],"loss_changes":[6.7051863E9,7.0761236E9,6.9087785E9,6.040435E9,2.6076652E9,8.0132086E9,5.9331973E9,0E0,0E0,0E0,0E0,0E0,0E0,0E0,0E0],"parents":[2147483647,0,0,1,1,2,2,3,3,4,4,5,5,6,6],"right_children":[2,4,6,8,10,12,14,-1,-1,-1,-1,-1,-1,-1,-1],"split_conditions":[7.70115E5,7.5367E5,1.010789E6,5.7617E2,6.7154E2,6.594827E1,3E1,5.992663E2,-3.8372684E2,2.2298176E3,-2.805604E2,1.0366713E3,-7.566417E2,-1.4145155E3,4.203881E2],"split_indices":[0,0,0,6,6,4,5,0,0,0,0,0,0,0,0],"split_type":[0,0,0,0,0,0,0,0,0,0,0,0,0,0,0],"sum_hessian":[1.8E2,6.7E1,1.13E2,6.1E1,6E0,7.2E1,4.1E1,3.3E1,2.8E1,5E0,1E0,6E0,6.6E1,4E0,3.7E1],"tree_param":{"num_deleted":"0","num_feature":"8","num_nodes":"15","size_leaf_vector":"1"}},{"base_weights":[-4.178796E3,4.2669463E3,-7.959303E3,-1.711177E3,2.8878477E4,1.7487715E4,-9.175462E3,2.953749E3,-2.1873802E2,2.9405478E2,2.7649548E3,-5.2864624E2,1.7080647E3,-1.5053165E3,-3.6978513E2],"categories":[],"categories_nodes":[],"categories_segments":[],"categories_sizes":[],"default_left":[0,0,0,0,0,0,0,0,0,0,0,0,0,0,0],"id":92,"left_children":[1,3,5,7,9,11,13,-1,-1,-1,-1,-1,-1,-1,-1],"loss_changes":[5.749287E9,8.2887414E9,3.9979622E9,7.7062467E9,6.3584307E9,3.1684142E9,4.2103173E9,0E0,0E0,0E0,0E0,0E0,0E0,0E0,0E0],"parents":[2147483647,0,0,1,1,2,2,3,3,4,4,5,5,6,6],"right_children":[2,4,6,8,10,12,14,-1,-1,-1,-1,-1,-1,-1,-1],"split_conditions":[7.1284E5,3.98619E5,4.694119E2,4.2E-1,4.8539545E2,3.67E1,7.5367E5,2.953749E3,-2.1873802E2,2.9405478E2,2.7649548E3,-5.2864624E2,1.7080647E3,-1.5053165E3,-3.6978513E2],"split_indices":[0,2,6,7,6,5,0,0,0,0,0,0,0,0,0],"split_type":[0,0,0,0,0,0,0,0,0,0,0,0,0,0,0],"sum_hessian":[1.78E2,5.5E1,1.23E2,4.5E1,1E1,5E0,1.18E2,1E0,4.4E1,6E0,4E0,2E0,3E0,8E0,1.1E2],"tree_param":{"num_deleted":"0","num_feature":"8","num_nodes":"15","size_leaf_vector":"1"}},{"base_weights":[2.0347972E3,3.2589543E4,8.2855084E2,-1.5498566E3,3.9312695E3,-2.0397967E4,2.6137483E3,1.6981022E3,-9.459184E2,-3.2327435E2,-1.5019564E3,-1.0443597E3,1.9679338E2],"categories":[],"categories_nodes":[],"categories_segments":[],"categories_sizes":[],"default_left":[0,0,0,0,0,0,0,0,0,0,0,0,0],"id":93,"left_children":[1,3,5,7,-1,9,11,-1,-1,-1,-1,-1,-1],"loss_changes":[6.791457E9,1.1123321E10,6.836254E9,3.7264492E9,0E0,1.6863329E9,5.240001E9,0E0,0E0,0E0,0E0,0E0,0E0],"parents":[2147483647,0,0,1,1,2,2,3,3,5,5,6,6],"right_children":[2,4,6,8,-1,10,12,-1,-1,-1,-1,-1,-1],"split_conditions":[2.08083E5,1.95201E5,1.10086E5,1.02752E5,3.9312695E3,3.50463E5,6.8E-1,1.6981022E3,-9.459184E2,-3.2327435E2,-1.5019564E3,-1.0443597E3,1.9679338E2],"split_indices":[2,2,3,3,0,2,7,0,0,0,0,0,0],"split_type":[0,0,0,0,0,0,0,0,0,0,0,0,0],"sum_hessian":[1.84E2,6E0,1.78E2,4E0,2E0,1.3E1,1.65E2,1E0,3E0,6E0,7E0,8E0,1.57E2],"tree_param":{"num_deleted":"0","num_feature":"8","num_nodes":"13","size_leaf_vector":"1"}},{"base_weights":[3.500528E3,5.4410938E3,-1.519783E4,3.409242E3,3.302294E4,4.660624E3,-2.386058E4,3.3157753E1,1.0750126E3,-2.5841574E2,2.779243E3,-1.8042099E2,4.8486377E2,2.0991585E2,-1.6840018E3],"categories":[],"categories_nodes":[],"categories_segments":[],"categories_sizes":[],"default_left":[0,0,0,0,0,0,0,0,0,0,0,0,0,0,0],"id":94,"left_children":[1,3,5,7,9,11,13,-1,-1,-1,-1,-1,-1,-1,-1],"loss_changes":[6.541492E9,8.966255E9,3.0356972E9,7.5370214E9,9.765632E9,2.8488224E8,3.44768E9,0E0,0E0,0E0,0E0,0E0,0E0,0E0,0E0],"parents":[2147483647,0,0,1,1,