{"learner":{"attributes":{"scikit_learn":"{\"_estimator_type\": \"regressor\"}"},"feature_names":["housing_new_construction_lag6","housing_extensions_lag3","non_residential_icef_lag1","non_residential_services_lag8","economic_activity_indicator","economic_perception_index_lag3","currency_exchange_rate","interest_rate_lag1"],"feature_types":["float","float","float","float","float","float","float","float"],"gradient_booster":{"model":{"cats":{"enc":[],"feature_segments":[],"sorted_idx":[]},"gbtree_model_param":{"num_parallel_tree":"1","num_trees":"128"},"iteration_indptr":[0,1,2,3,4,5,6,7,8,9,10,11,12,13,14,15,16,17,18,19,20,21,22,23,24,25,26,27,28,29,30,31,32,33,34,35,36,37,38,39,40,41,42,43,44,45,46,47,48,49,50,51,52,53,54,55,56,57,58,59,60,61,62,63,64,65,66,67,68,69,70,71,72,73,74,75,76,77,78,79,80,81,82,83,84,85,86,87,88,89,90,91,92,93,94,95,96,97,98,99,100,101,102,103,104,105,106,107,108,109,110,111,112,113,114,115,116,117,118,119,120,121,122,123,124,125,126,127,128],"tree_info":[0,0,0,0,0,0,0,0,0,0,0,0,0,0,0,0,0,0,0,0,0,0,0,0,0,0,0,0,0,0,0,0,0,0,0,0,0,0,0,0,0,0,0,0,0,0,0,0,0,0,0,0,0,0,0,0,0,0,0,0,0,0,0,0,0,0,0,0,0,0,0,0,0,0,0,0,0,0,0,0,0,0,0,0,0,0,0,0,0,0,0,0,0,0,0,0,0,0,0,0,0,0,0,0,0,0,0,0,0,0,0,0,0,0,0,0,0,0,0,0,0,0,0,0,0,0,0,0],"trees":[{"base_weights":[-9.59349E3,-1.1940551E5,3.5123535E4,-1.3599295E5,1.0534835E5,-4.881566E4,9.525846E4,-8.9325625E3,-1.1340228E3,1.0243915E4,-4.831035E3,-6.2713237E3,1.4928343E2,1.8902305E4,3.8742212E3],"categories":[],"categories_nodes":[],"categories_segments":[],"categories_sizes":[],"default_left":[0,0,0,0,0,0,0,0,0,0,0,0,0,0,0],"id":0,"left_children":[1,3,5,7,9,11,13,-1,-1,-1,-1,-1,-1,-1,-1],"loss_changes":[8.487943E11,2.0073126E11,6.2551445E11,2.2313284E11,1.00203364E11,2.0673865E11,3.3259946E11,0E0,0E0,0E0,0E0,0E0,0E0,0E0,0E0],"parents":[2147483647,0,0,1,1,2,2,3,3,4,4,5,5,6,6],"right_children":[2,4,6,8,10,12,14,-1,-1,-1,-1,-1,-1,-1,-1],"split_conditions":[5.7612E4,1.160055E6,5.5306335E2,3.86973E5,1.205419E6,3.47154E5,5.55402E2,-8.9325625E3,-1.1340228E3,1.0243915E4,-4.831035E3,-6.2713237E3,1.4928343E2,1.8902305E4,3.8742212E3],"split_indices":[1,0,6,2,0,2,6,0,0,0,0,0,0,0,0],"split_type":[0,0,0,0,0,0,0,0,0,0,0,0,0,0,0],"sum_hessian":[1.71E2,4.9E1,1.22E2,4.6E1,3E0,5.1E1,7.1E1,3.3E1,1.3E1,2E0,1E0,2E1,3.1E1,3E0,6.8E1],"tree_param":{"num_deleted":"0","num_feature":"8","num_nodes":"15","size_leaf_vector":"1"}},{"base_weights":[-1.1202871E4,-3.1605647E5,9.312935E3,-1.6441053E4,-4.710259E3,-7.8614805E4,4.9692844E4,-4.630345E3,9.039593E3,1.1040636E3,8.480316E3],"categories":[],"categories_nodes":[],"categories_segments":[],"categories_sizes":[],"default_left":[0,0,0,0,0,0,0,0,0,0,0],"id":1,"left_children":[1,3,5,-1,-1,7,9,-1,-1,-1,-1],"loss_changes":[1.0911946E12,1.7360486E8,5.861909E11,0E0,0E0,2.054841E11,3.7039784E11,0E0,0E0,0E0,0E0],"parents":[2147483647,0,0,1,1,2,2,5,5,6,6],"right_children":[2,4,6,-1,-1,8,10,-1,-1,-1,-1],"split_conditions":[5E-1,7.8826715E2,5.6647E4,-1.6441053E4,-4.710259E3,5.25E0,6.7154E2,-4.630345E3,9.039593E3,1.1040636E3,8.480316E3],"split_indices":[7,6,1,0,0,7,6,0,0,0,0],"split_type":[0,0,0,0,0,0,0,0,0,0,0],"sum_hessian":[1.73E2,1E1,1.63E2,9E0,1E0,5.1E1,1.12E2,4.9E1,2E0,9.2E1,2E1],"tree_param":{"num_deleted":"0","num_feature":"8","num_nodes":"11","size_leaf_vector":"1"}},{"base_weights":[-1.7766436E4,-8.5841086E4,7.114352E4,-1.6099346E4,-5.2663914E4,1.0317955E5,-3.781585E4,-8.408122E3,6.075714E1,-1.0413448E4,5.8880703E3,-4.684343E3,2.186687E3],"categories":[],"categories_nodes":[],"categories_segments":[],"categories_sizes":[],"default_left":[0,0,0,0,0,0,0,0,0,0,0,0,0],"id":2,"left_children":[1,3,5,-1,7,9,11,-1,-1,-1,-1,-1,-1],"loss_changes":[1.0592445E12,7.586732E11,2.6918935E11,0E0,5.47824E11,2.924744E11,8.61099E10,0E0,0E0,0E0,0E0,0E0,0E0],"parents":[2147483647,0,0,1,1,2,2,4,4,5,5,6,6],"right_children":[2,4,6,-1,8,10,12,-1,-1,-1,-1,-1,-1],"split_conditions":[8.916038E1,1.31E0,4.17E0,-1.6099346E4,6.735317E1,1.57616E5,5.02E0,-8.408122E3,6.075714E1,-1.0413448E4,5.8880703E3,-4.684343E3,2.186687E3],"split_indices":[4,7,7,0,4,2,7,0,0,0,0,0,0],"split_type":[0,0,0,0,0,0,0,0,0,0,0,0,0],"sum_hessian":[1.73E2,9.8E1,7.5E1,1.1E1,8.7E1,5.8E1,1.7E1,2.7E1,6E1,2E0,5.6E1,1E1,7E0],"tree_param":{"num_deleted":"0","num_feature":"8","num_nodes":"13","size_leaf_vector":"1"}},{"base_weights":[-2.097442E3,-2.2734136E5,2.531126E4,-1.5300179E4,3.8381094E4,4.3694395E3,3.9124694E5,-5.7181167E3,5.257878E3,-5.411818E3,1.4196581E3,7.184069E3,5.3105145E4],"categories":[],"categories_nodes":[],"categories_segments":[],"categories_sizes":[],"default_left":[0,0,0,0,0,0,0,0,0,0,0,0,0],"id":3,"left_children":[1,3,5,-1,7,9,11,-1,-1,-1,-1,-1,-1],"loss_changes":[1.0244055E12,3.8798662E11,1.1324676E12,0E0,6.302438E10,3.8450784E11,1.1760418E12,0E0,0E0,0E0,0E0,0E0,0E0],"parents":[2147483647,0,0,1,1,2,2,4,4,5,5,6,6],"right_children":[2,4,6,-1,8,10,12,-1,-1,-1,-1,-1,-1],"split_conditions":[1.31E0,1.03025665E2,1.0272709E2,-1.5300179E4,5.25481E5,6.735317E1,3.70246E5,-5.7181167E3,5.257878E3,-5.411818E3,1.4196581E3,7.184069E3,5.3105145E4],"split_indices":[7,4,4,0,0,4,2,0,0,0,0,0,0],"split_type":[0,0,0,0,0,0,0,0,0,0,0,0,0],"sum_hessian":[1.64E2,1.7E1,1.47E2,1.3E1,4E0,1.4E2,7E0,1E0,3E0,2.4E1,1.16E2,6E0,1E0],"tree_param":{"num_deleted":"0","num_feature":"8","num_nodes":"13","size_leaf_vector":"1"}},{"base_weights":[1.0662698E4,-2.7211209E4,1.9588942E5,-1.3065765E4,-6.3548853E3,2.731458E5,-1.5866042E5,-6.4902827E3,1.2002219E3,8.921843E3,2.7165904E4,-1.0235881E4,-2.2181995E3],"categories":[],"categories_nodes":[],"categories_segments":[],"categories_sizes":[],"default_left":[0,0,0,0,0,0,0,0,0,0,0,0,0],"id":4,"left_children":[1,3,5,-1,7,9,11,-1,-1,-1,-1,-1,-1],"loss_changes":[1.2400161E12,7.1607425E11,8.650747E11,0E0,5.1282782E11,5.427453E11,2.2502916E10,0E0,0E0,0E0,0E0,0E0,0E0],"parents":[2147483647,0,0,1,1,2,2,4,4,5,5,6,6],"right_children":[2,4,6,-1,8,10,12,-1,-1,-1,-1,-1,-1],"split_conditions":[9.831662E1,1.31E0,7.8472906E2,-1.3065765E4,6.735317E1,6.8531E2,1.109462E6,-6.4902827E3,1.2002219E3,8.921843E3,2.7165904E4,-1.0235881E4,-2.2181995E3],"split_indices":[4,7,6,0,4,6,0,0,0,0,0,0,0],"split_type":[0,0,0,0,0,0,0,0,0,0,0,0,0],"sum_hessian":[1.75E2,1.46E2,2.9E1,1.1E1,1.35E2,2.4E1,5E0,2.6E1,1.09E2,1.9E1,5E0,3E0,2E0],"tree_param":{"num_deleted":"0","num_feature":"8","num_nodes":"13","size_leaf_vector":"1"}},{"base_weights":[1.1297615E4,-2.6990432E4,2.0506922E5,-1.4161966E4,-7.5206616E3,1.2897373E5,7.9620706E5,-3.773279E3,1.9218082E3,-8.165111E3,8.709839E3,5.1098367E4,8.617163E3],"categories":[],"categories_nodes":[],"categories_segments":[],"categories_sizes":[],"default_left":[0,0,0,0,0,0,0,0,0,0,0,0,0],"id":5,"left_children":[1,3,5,-1,7,9,11,-1,-1,-1,-1,-1,-1],"loss_changes":[1.259369E12,7.06323E11,1.1568322E12,0E0,4.181975E11,3.7210456E11,2.464016E11,0E0,0E0,0E0,0E0,0E0,0E0],"parents":[2147483647,0,0,1,1,2,2,4,4,5,5,6,6],"right_children":[2,4,6,-1,8,10,12,-1,-1,-1,-1,-1,-1],"split_conditions":[9.7557816E1,1.31E0,4.1885E5,-1.4161966E4,7.8594E5,8.8786E4,9.30414E5,-3.773279E3,1.9218082E3,-8.165111E3,8.709839E3,5.1098367E4,8.617163E3],"split_indices":[4,7,2,0,0,3,0,0,0,0,0,0,0],"split_type":[0,0,0,0,0,0,0,0,0,0,0,0,0],"sum_hessian":[1.68E2,1.41E2,2.7E1,9E0,1.32E2,2.5E1,2E0,5.3E1,7.9E1,3E0,2.2E1,1E0,1E0],"tree_param":{"num_deleted":"0","num_feature":"8","num_nodes":"13","size_leaf_vector":"1"}},{"base_weights":[2.1315107E4,-2.0055728E5,4.6152957E4,4.865154E3,-2.4675888E5,3.7458397E5,3.69646E4,-1.3343169E4,8.676069E2,2.1199646E4,5.658926E3,2.3979336E3,-8.0713237E3],"categories":[],"categories_nodes":[],"categories_segments":[],"categories_sizes":[],"default_left":[0,0,0,0,0,0,0,0,0,0,0,0,0],"id":6,"left_children":[1,3,5,-1,7,9,11,-1,-1,-1,-1,-1,-1],"loss_changes":[9.295654E11,2.5795795E11,4.4183267E11,0E0,8.427805E10,3.6761108E9,3.305483E11,0E0,0E0,0E0,0E0,0E0,0E0],"parents":[2147483647,0,0,1,1,2,2,4,4,5,5,6,6],"right_children":[2,4,6,-1,8,10,12,-1,-1,-1,-1,-1,-1],"split_conditions":[1.31E0,2.2001476E1,1.72E0,4.865154E3,7.8826715E2,2.86934E5,7.091845E2,-1.3343169E4,8.676069E2,2.1199646E4,5.658926E3,2.3979336E3,-8.0713237E3],"split_indices":[7,5,7,0,6,2,6,0,0,0,0,0,0],"split_type":[0,0,0,0,0,0,0,0,0,0,0,0,0],"sum_hessian":[1.66E2,1.6E1,1.5E2,2E0,1.4E1,3E0,1.47E2,1.3E1,1E0,2E0,1E0,1.4E2,7E0],"tree_param":{"num_deleted":"0","num_feature":"8","num_nodes":"13","size_leaf_vector":"1"}},{"base_weights":[8.007714E3,-2.8657293E4,1.7688153E5,-2.417448E5,-9.068599E3,1.048219E5,5.306272E5,-1.2635507E4,-3.0281553E3,-7.7436353E3,9.9556055E2,7.7398867E3,-7.3015625E3,8.283718E3,4.976096E4],"categories":[],"categories_nodes":[],"categories_segments":[],"categories_sizes":[],"default_left":[0,0,0,0,0,0,0,0,0,0,0,0,0,0,0],"id":7,"left_children":[1,3,5,7,9,11,13,-1,-1,-1,-1,-1,-1,-1,-1],"loss_changes":[1.07624333E12,5.9470486E11,7.345928E11,8.535605E9,5.608333E11,3.610933E11,6.8288827E11,0E0,0E0,0E0,0E0,0E0,0E0,0E0,0E0],"parents":[2147483647,0,0,1,1,2,2,3,3,4,4,5,5,6,6],"right_children":[2,4,6,8,10,12,14,-1,-1,-1,-1,-1,-1,-1,-1],"split_conditions":[9.7557816E1,1.31E0,3.24E0,3.69617E5,6.437545E1,7.846619E2,3.62779E5,-1.2635507E4,-3.0281553E3,-7.7436353E3,9.9556055E2,7.7398867E3,-7.3015625E3,8.283718E3,4.976096E4],"split_indices":[4,7,7,2,4,6,2,0,0,0,0,0,0,0,0],"split_type":[0,0,0,0,0,0,0,0,0,0,0,0,0,0,0],"sum_hessian":[1.72E2,1.42E2,3E1,1.1E1,1.31E2,2.6E1,4E0,1E1,1E0,2.1E1,1.1E2,2.2E1,4E0,3E0,1E0],"tree_param":{"num_deleted":"0","num_feature":"8","num_nodes":"15","size_leaf_vector":"1"}},{"base_weights":[-1.8202614E3,-6.5602555E4,5.334381E4,-8.839382E4,7.66119E4,-4.0746094E4,1.0799779E5,-6.9010386E3,-2.3752322E3,1.4209476E4,-5.612815E3,-1.58012E2,-7.657625E3,1.1456989E4,1.4322499E3],"categories":[],"categories_nodes":[],"categories_segments":[],"categories_sizes":[],"default_left":[0,0,0,0,0,0,0,0,0,0,0,0,0,0,0],"id":8,"left_children":[1,3,5,7,9,11,13,-1,-1,-1,-1,-1,-1,-1,-1],"loss_changes":[6.297909E11,2.7579554E11,4.9806967E11,1.3954607E11,5.0235972E11,1.5161206E11,5.798265E11,0E0,0E0,0E0,0E0,0E0,0E0,0E0,0E0],"parents":[2147483647,0,0,1,1,2,2,3,3,4,4,5,5,6,6],"right_children":[2,4,6,8,10,12,14,-1,-1,-1,-1,-1,-1,-1,-1],"split_conditions":[8.10077E5,9.0076E4,5.741195E2,3.9017048E1,1.05405E5,5.385273E2,9.66432E5,-6.9010386E3,-2.3752322E3,1.4209476E4,-5.612815E3,-1.58012E2,-7.657625E3,1.1456989E4,1.4322499E3],"split_indices":[0,1,6,5,1,6,0,0,0,0,0,0,0,0,0],"split_type":[0,0,0,0,0,0,0,0,0,0,0,0,0,0,0],"sum_hessian":[1.77E2,8.2E1,9.5E1,7.1E1,1.1E1,3.5E1,6E1,3.1E1,4E1,5E0,6E0,2.7E1,8E0,2.3E1,3.7E1],"tree_param":{"num_deleted":"0","num_feature":"8","num_nodes":"15","size_leaf_vector":"1"}},{"base_weights":[-8.22856E3,-8.925188E4,2.9029922E4,6.839745E4,-1.0604883E5,4.823051E4,1.3325866E4,6.513755E3,-6.0247666E3,-8.329052E3,-2.5188313E3,-9.479207E2,5.3832993E3],"categories":[],"categories_nodes":[],"categories_segments":[],"categories_sizes":[],"default_left":[0,0,0,0,0,0,0,0,0,0,0,0,0],"id":9,"left_children":[1,3,5,7,9,-1,11,-1,-1,-1,-1,-1,-1],"loss_changes":[5.3691964E11,1.5554298E11,1.7796192E12,8.582698E10,1.6347621E11,0E0,3.7057125E11,0E0,0E0,0E0,0E0,0E0,0E0],"parents":[2147483647,0,0,1,1,2,2,3,3,4,4,6,6],"right_children":[2,4,6,8,10,-1,12,-1,-1,-1,-1,-1,-1],"split_conditions":[5.5291E4,2.01923E5,5.5599E4,8.50274E5,3.08E0,4.823051E4,6.6119E2,6.513755E3,-6.0247666E3,-8.329052E3,-2.5188313E3,-9.479207E2,5.3832993E3],"split_indices":[1,2,1,0,7,0,6,0,0,0,0,0,0],"split_type":[0,0,0,0,0,0,0,0,0,0,0,0,0],"sum_hessian":[1.76E2,5.5E1,1.21E2,5E0,5E1,1E0,1.2E2,4E0,1E0,2.3E1,2.7E1,9E1,3E1],"tree_param":{"num_deleted":"0","num_feature":"8","num_nodes":"13","size_leaf_vector":"1"}},{"base_weights":[-2.499624E3,-2.6692223E4,3.2834084E5,-1.962066E5,-1.0798889E4,1.8719092E5,4.702475E4,-1.0123528E4,-2.8693726E3,-6.5157573E3,8.733768E2,2.9345615E3,1.2611742E4],"categories":[],"categories_nodes":[],"categories_segments":[],"categories_sizes":[],"default_left":[0,0,0,0,0,0,0,0,0,0,0,0,0],"id":10,"left_children":[1,3,5,7,9,11,-1,-1,-1,-1,-1,-1,-1],"loss_changes":[1.409445E12,4.397215E11,8.6081405E11,5.545001E8,5.123991E11,7.713535E10,0E0,0E0,0E0,0E0,0E0,0E0,0E0],"parents":[2147483647,0,0,1,1,2,2,3,3,4,4,5,5],"right_children":[2,4,6,8,10,12,-1,-1,-1,-1,-1,-1,-1],"split_conditions":[1.03025665E2,1.31E0,4.16901E5,3.69617E5,6.735317E1,2.83639E5,4.702475E4,-1.0123528E4,-2.8693726E3,-6.5157573E3,8.733768E2,2.9345615E3,1.2611742E4],"split_indices":[4,7,2,2,4,2,0,0,0,0,0,0,0],"split_type":[0,0,0,0,0,0,0,0,0,0,0,0,0],"sum_hessian":[1.74E2,1.63E2,1.1E1,1.3E1,1.5E2,1E1,1E0,1.2E1,1E0,2.8E1,1.22E2,4E0,6E0],"tree_param":{"num_deleted":"0","num_feature":"8","num_nodes":"13","size_leaf_vector":"1"}},{"base_weights":[1.3341231E4,-1.7712567E5,3.2186756E4,-1.910266E5,7.847022E2,2.081331E4,2.7184594E4,-9.833905E3,-2.7976382E3,-3.076906E3,2.2829333E3],"categories":[],"categories_nodes":[],"categories_segments":[],"categories_sizes":[],"default_left":[0,0,0,0,0,0,0,0,0,0,0],"id":11,"left_children":[1,3,5,7,-1,-1,9,-1,-1,-1,-1],"loss_changes":[6.37444E11,4.5883916E10,2.9800156E11,4.458414E8,0E0,0E0,2.6506091E11,0E0,0E0,0E0,0E0],"parents":[2147483647,0,0,1,1,2,2,3,3,6,6],"right_children":[2,4,6,8,-1,-1,10,-1,-1,-1,-1],"split_conditions":[1.31E0,7.9638E2,1.41E0,3.69617E5,7.847022E2,2.081331E4,4.9428E4,-9.833905E3,-2.7976382E3,-3.076906E3,2.2829333E3],"split_indices":[7,6,7,2,0,0,1,0,0,0,0],"split_type":[0,0,0,0,0,0,0,0,0,0,0],"sum_hessian":[1.75E2,1.5E1,1.6E2,1.4E1,1E0,1E0,1.59E2,1.3E1,1E0,2.7E1,1.32E2],"tree_param":{"num_deleted":"0","num_feature":"8","num_nodes":"11","size_leaf_vector":"1"}},{"base_weights":[-5.790142E1,-3.2066824E4,1.3961916E5,-9.279121E4,1.2205222E3,2.1471408E5,-1.699783E5,-1.0119276E4,-3.0562332E3,-6.481512E3,8.3001855E2,5.874171E3,2.378663E4,-1.017043E4,7.65085E2],"categories":[],"categories_nodes":[],"categories_segments":[],"categories_sizes":[],"default_left":[0,0,0,0,0,0,0,0,0,0,0,0,0,0,0],"id":12,"left_children":[1,3,5,7,9,11,13,-1,-1,-1,-1,-1,-1,-1,-1],"loss_changes":[7.913576E11,2.911882E11,8.037202E11,1.6462335E11,1.913236E11,6.293426E11,4.64703E10,0E0,0E0,0E0,0E0,0E0,0E0,0E0,0E0],"parents":[2147483647,0,0,1,1,2,2,3,3,4,4,5,5,6,6],"right_children":[2,4,6,8,10,12,14,-1,-1,-1,-1,-1,-1,-1,-1],"split_conditions":[9.7557816E1,5.7612E4,7.8472906E2,3.77E1,1.14583E5,6.8531E2,3.4E1,-1.0119276E4,-3.0562332E3,-6.481512E3,8.3001855E2,5.874171E3,2.378663E4,-1.017043E4,7.65085E2],"split_indices":[4,1,6,5,3,6,5,0,0,0,0,0,0,0,0],"split_type":[0,0,0,0,0,0,0,0,0,0,0,0,0,0,0],"sum_hessian":[1.75E2,1.43E2,3.2E1,5E1,9.3E1,2.6E1,6E0,1E1,4E1,9E0,8.4E1,2E1,6E0,5E0,1E0],"tree_param":{"num_deleted":"0","num_feature":"8","num_nodes":"15","size_leaf_vector":"1"}},{"base_weights":[9.056444E3,-1.0802595E4,2.5806605E5,-1.9089292E5,4.7315596E3,4.5197395E4,1.3884838E5,-9.856012E3,-2.7484475E3,-6.286394E3,1.298931E3,9.44279E3,-4.5397476E3],"categories":[],"categories_nodes":[],"categories_segments":[],"categories_sizes":[],"default_left":[0,0,0,0,0,0,0,0,0,0,0,0,0],"id":13,"left_children":[1,3,5,7,9,-1,11,-1,-1,-1,-1,-1,-1],"loss_changes":[9.374101E11,4.9327224E11,9.5249564E11,1.0145956E9,4.5508264E11,0E0,1.664375E11,0E0,0E0,0E0,0E0,0E0,0E0],"parents":[2147483647,0,0,1,1,2,2,3,3,4,4,6,6],"right_children":[2,4,6,8,10,-1,12,-1,-1,-1,-1,-1,-1],"split_conditions":[1.03025665E2,1.31E0,1.03409676E2,4.221155E1,6.437545E1,4.5197395E4,7.8472906E2,-9.856012E3,-2.7484475E3,-6.286394E3,1.298931E3,9.44279E3,-4.5397476E3],"split_indices":[4,7,4,5,4,0,6,0,0,0,0,0,0],"split_type":[0,0,0,0,0,0,0,0,0,0,0,0,0],"sum_hessian":[1.88E2,1.75E2,1.3E1,1.3E1,1.62E2,1E0,1.2E1,1.2E1,1E0,2.2E1,1.4E2,1E1,2E0],"tree_param":{"num_deleted":"0","num_feature":"8","num_nodes":"13","size_leaf_vector":"1"}},{"base_weights":[6.462494E2,-3.378688E4,1.5835136E5,-4.568228E4,9.888683E4,7.7576445E4,3.471815E5,-4.285089E3,-1.8643059E2,1.6386389E4,1.0172926E3,7.0015337E3,-2.8514534E3,4.406746E4,8.512095E3],"categories":[],"categories_nodes":[],"categories_segments":[],"categories_sizes":[],"default_left":[0,0,0,0,0,0,0,0,0,0,0,0,0,0,0],"id":14,"left_children":[1,3,5,7,9,11,13,-1,-1,-1,-1,-1,-1,-1,-1],"loss_changes":[9.393584E11,2.2862278E11,4.459017E11,2.1962482E11,2.0901275E11,2.0133955E11,7.005961E11,0E0,0E0,0E0,0E0,0E0,0E0,0E0,0E0],"parents":[2147483647,0,0,1,1,2,2,3,3,4,4,5,5,6,6],"right_children":[2,4,6,8,10,12,14,-1,-1,-1,-1,-1,-1,-1,-1],"split_conditions":[9.7557816E1,9.9728E4,3.80439E5,8.13642E5,1.05405E5,3.42189E5,5.5599E4,-4.285089E3,-1.8643059E2,1.6386389E4,1.0172926E3,7.0015337E3,-2.8514534E3,4.406746E4,8.512095E3],"split_indices":[4,1,2,0,1,2,1,0,0,0,0,0,0,0,0],"split_type":[0,0,0,0,0,0,0,0,0,0,0,0,0,0,0],"sum_hessian":[1.71E2,1.41E2,3E1,1.3E2,1.1E1,2.2E1,8E0,6.6E1,6.4E1,2E0,9E0,1.5E1,7E0,1E0,7E0],"tree_param":{"num_deleted":"0","num_feature":"8","num_nodes":"15","size_leaf_vector":"1"}},{"base_weights":[6.4198516E3,-2.5565648E4,1.3951444E5,-1.917336E5,-8.398372E3,2.054135E5,-1.6284072E5,-9.928331E3,-2.57261E3,-4.4161284E3,6.471457E2,6.5243877E3,2.164785E4,-9.727181E3,6.8441315E2],"categories":[],"categories_nodes":[],"categories_segments":[],"categories_sizes":[],"default_left":[0,0,0,0,0,0,0,0,0,0,0,0,0,0,0],"id":15,"left_children":[1,3,5,7,9,11,13,-1,-1,-1,-1,-1,-1,-1,-1],"loss_changes":[7.911298E11,4.2628743E11,7.507468E11,3.2028754E9,2.3482204E11,4.5497044E11,4.183833E10,0E0,0E0,0E0,0E0,0E0,0E0,0E0,0E0],"parents":[2147483647,0,0,1,1,2,2,3,3,4,4,5,5,6,6],"right_children":[2,4,6,8,10,12,14,-1,-1,-1,-1,-1,-1,-1,-1],"split_conditions":[9.7557816E1,1.31E0,7.8472906E2,3.69617E5,6.735317E1,6.8531E2,3.4E1,-9.928331E3,-2.57261E3,-4.4161284E3,6.471457E2,6.5243877E3,2.164785E4,-9.727181E3,6.8441315E2],"split_indices":[4,7,6,2,4,6,5,0,0,0,0,0,0,0,0],"split_type":[0,0,0,0,0,0,0,0,0,0,0,0,0,0,0],"sum_hessian":[1.84E2,1.49E2,3.5E1,1.3E1,1.36E2,2.9E1,6E0,1.2E1,1E0,2.8E1,1.08E2,2.3E1,6E0,5E0,1E0],"tree_param":{"num_deleted":"0","num_feature":"8","num_nodes":"15","size_leaf_vector":"1"}},{"base_weights":[6.033725E3,-1.1225859E4,2.2463356E5,-1.7900461E5,7.534433E2,7.121033E5,7.1266016E4,-9.759772E3,-3.538194E3,1.9813918E4,-2.1940678E2,1.0983171E4,4.2424574E4,7.591376E3,-5.3836733E3],"categories":[],"categories_nodes":[],"categories_segments":[],"categories_sizes":[],"default_left":[0,0,0,0,0,0,0,0,0,0,0,0,0,0,0],"id":16,"left_children":[1,3,5,7,9,11,13,-1,-1,-1,-1,-1,-1,-1,-1],"loss_changes":[6.703325E11,3.317638E11,9.211577E11,5.464785E9,3.1695045E11,1.510631E10,1.7491975E11,0E0,0E0,0E0,0E0,0E0,0E0,0E0,0E0],"parents":[2147483647,0,0,1,1,2,2,3,3,4,4,5,5,6,6],"right_children":[2,4,6,8,10,12,14,-1,-1,-1,-1,-1,-1,-1,-1],"split_conditions":[1.03025665E2,5E-1,1.03834496E2,3.47154E5,1.41E0,9.12113E5,7.7653E2,-9.759772E3,-3.538194E3,1.9813918E4,-2.1940678E2,1.0983171E4,4.2424574E4,7.591376E3,-5.3836733E3],"split_indices":[4,7,4,2,7,0,6,0,0,0,0,0,0,0,0],"split_type":[0,0,0,0,0,0,0,0,0,0,0,0,0,0,0],"sum_hessian":[1.76E2,1.64E2,1.2E1,1E1,1.54E2,2E0,1E1,8E0,2E0,1E0,1.53E2,1E0,1E0,7E0,3E0],"tree_param":{"num_deleted":"0","num_feature":"8","num_nodes":"15","size_leaf_vector":"1"}},{"base_weights":[-6.818544E3,-2.6600484E4,2.3717598E5,-1.9321294E5,-6.7462314E3,4.136396E4,1.1906078E5,-1.0434711E4,-4.53626E3,-5.0669976E3,8.9945264E2,9.4912295E3,-8.986728E2],"categories":[],"categories_nodes":[],"categories_segments":[],"categories_sizes":[],"default_left":[0,0,0,0,0,0,0,0,0,0,0,0,0],"id":17,"left_children":[1,3,5,7,9,-1,11,-1,-1,-1,-1,-1,-1],"loss_changes":[8.364988E11,5.2797106E11,8.076056E11,8.039039E9,3.3875457E11,0E0,1.19776625E11,0E0,0E0,0E0,0E0,0E0,0E0],"parents":[2147483647,0,0,1,1,2,2,3,3,4,4,6,6],"right_children":[2,4,6,8,10,-1,12,-1,-1,-1,-1,-1,-1],"split_conditions":[1.03025665E2,1.71E0,1.03409676E2,1.109462E6,6.735317E1,4.136396E4,1.105225E6,-1.0434711E4,-4.53626E3,-5.0669976E3,8.9945264E2,9.4912295E3,-8.986728E2],"split_indices":[4,7,4,0,4,0,0,0,0,0,0,0,0],"split_type":[0,0,0,0,0,0,0,0,0,0,0,0,0],"sum_hessian":[1.71E2,1.59E2,1.2E1,1.6E1,1.43E2,1E0,1.1E1,1.3E1,3E0,2.9E1,1.14E2,7E0,4E0],"tree_param":{"num_deleted":"0","num_feature":"8","num_nodes":"13","size_leaf_vector":"1"}},{"base_weights":[-6.4773584E3,-1.4357703E5,1.2219722E4,-9.678132E3,-4.4403293E4,1.9579436E4,6.939189E3,-5.4020786E3,7.693984E2,-1.9388424E3,2.997421E3],"categories":[],"categories_nodes":[],"categories_segments":[],"categories_sizes":[],"default_left":[0,0,0,0,0,0,0,0,0,0,0],"id":18,"left_children":[1,3,5,-1,7,-1,9,-1,-1,-1,-1],"loss_changes":[4.2727283E11,9.055034E10,2.9176345E11,0E0,3.2102652E10,0E0,3.561369E11,0E0,0E0,0E0,0E0],"parents":[2147483647,0,0,1,1,2,2,4,4,6,6],"right_children":[2,4,6,-1,8,-1,10,-1,-1,-1,-1],"split_conditions":[1.31E0,5.490709E2,1.41E0,-9.678132E3,8.8786E4,1.9579436E4,8.53781E5,-5.4020786E3,7.693984E2,-1.9388424E3,2.997421E3],"split_indices":[7,6,7,0,3,0,0,0,0,0,0],"split_type":[0,0,0,0,0,0,0,0,0,0,0],"sum_hessian":[1.65E2,1.9E1,1.46E2,1.2E1,7E0,1E0,1.45E2,3E0,4E0,7.8E1,6.7E1],"tree_param":{"num_deleted":"0","num_feature":"8","num_nodes":"11","size_leaf_vector":"1"}},{"base_weights":[-4.7300864E3,-1.5272306E5,1.4047225E4,-5.1087043E4,-1.764202E5,-2.9834764E4,5.832701E4,2.7042742E3,-4.5450786E3,-9.899437E3,-1.2074921E3,-6.576236E3,-2.3755742E2,1.108328E4,1.7757725E3],"categories":[],"categories_nodes":[],"categories_segments":[],"categories_sizes":[],"default_left":[0,0,0,0,0,0,0,0,0,0,0,0,0,0,0],"id":19,"left_children":[1,3,5,7,9,11,13,-1,-1,-1,-1,-1,-1,-1,-1],"loss_changes":[4.690023E11,3.674833E10,2.9320292E11,2.5853428E10,4.4482298E10,1.9323224E11,2.7157804E11,0E0,0E0,0E0,0E0,0E0,0E0,0E0,0E0],"parents":[2147483647,0,0,1,1,2,2,3,3,4,4,5,5,6,6],"right_children":[2,4,6,8,10,12,14,-1,-1,-1,-1,-1,-1,-1,-1],"split_conditions":[1.71E0,4.0826E4,8.60931E5,2.1590906E1,9.66671E5,3.35E1,3.2E1,2.7042742E3,-4.5450786E3,-9.899437E3,-1.2074921E3,-6.576236E3,-2.3755742E2,1.108328E4,1.7757725E3],"split_indices":[7,1,0,5,0,5,5,0,0,0,0,0,0,0,0],"split_type":[0,0,0,0,0,0,0,0,0,0,0,0,0,0,0],"sum_hessian":[1.67E2,1.8E1,1.49E2,4E0,1.4E1,7.5E1,7.4E1,1E0,3E0,1.2E1,2E0,1.4E1,6.1E1,8E0,6.6E1],"tree_param":{"num_deleted":"0","num_feature":"8","num_nodes":"15","size_leaf_vector":"1"}},{"base_weights":[-8.725616E3,-3.5145535E4,9.721069E4,-1.647342E5,-1.8924422E4,2.8525277E4,3.168726E5,-8.586542E3,-1.6695334E3,1.6253091E4,-1.3683187E3,3.7007595E3,-7.1512627E3,3.9977844E4,6.684763E3],"categories":[],"categories_nodes":[],"categories_segments":[],"categories_sizes":[],"default_left":[0,0,0,0,0,0,0,0,0,0,0,0,0,0,0],"id":20,"left_children":[1,3,5,7,9,11,13,-1,-1,-1,-1,-1,-1,-1,-1],"loss_changes":[4.764185E11,2.827643E11,5.0393848E11,8.050213E9,3.6317338E11,2.2128912E11,6.004374E11,0E0,0E0,0E0,0E0,0E0,0E0,0E0,0E0],"parents":[2147483647,0,0,1,1,2,2,3,3,4,4,5,5,6,6],"right_children":[2,4,6,8,10,12,14,-1,-1,-1,-1,-1,-1,-1,-1],"split_conditions":[9.739052E1,1.31E0,3.80439E5,3.69617E5,1.72E0,7.8472906E2,3.2E1,-8.586542E3,-1.6695334E3,1.6253091E4,-1.3683187E3,3.7007595E3,-7.1512627E3,3.9977844E4,6.684763E3],"split_indices":[4,7,2,2,7,6,5,0,0,0,0,0,0,0,0],"split_type":[0,0,0,0,0,0,0,0,0,0,0,0,0,0,0],"sum_hessian":[1.68E2,1.35E2,3.3E1,1.4E1,1.21E2,2.6E1,7E0,1.3E1,1E0,2E0,1.19E2,2.1E1,5E0,1E0,6E0],"tree_param":{"num_deleted":"0","num_feature":"8","num_nodes":"15","size_leaf_vector":"1"}},{"base_weights":[-7.133669E3,1.2405496E3,-1.1253507E4,-1.6735325E5,9.047941E3,-9.219674E3,-1.6277943E3,-2.8627168E3,1.592548E3],"categories":[],"categories_nodes":[],"categories_segments":[],"categories_sizes":[],"default_left":[0,0,0,0,0,0,0,0,0],"id":21,"left_children":[1,3,-1,5,7,-1,-1,-1,-1],"loss_changes":[2.9593692E11,2.081698E11,0E0,1.0075734E10,2.301193E11,0E0,0E0,0E0,0E0],"parents":[2147483647,0,0,1,1,3,3,4,4],"right_children":[2,4,-1,6,8,-1,-1,-1,-1],"split_conditions":[3.46342E5,4.60649E5,-1.1253507E4,5.7612E4,2.87377E5,-9.219674E3,-1.6277943E3,-2.8627168E3,1.592548E3],"split_indices":[3,0,0,1,2,0,0,0,0],"split_type":[0,0,0,0,0,0,0,0,0],"sum_hessian":[1.61E2,1.56E2,5E0,6E0,1.5E2,5E0,1E0,3.8E1,1.12E2],"tree_param":{"num_deleted":"0","num_feature":"8","num_nodes":"9","size_leaf_vector":"1"}},{"base_weights":[4.2831523E3,-7.448049E4,3.8956258E4,-8.368726E4,9.87661E3,3.8938586E4,2.597688E4,-3.9520212E2,-5.9052593E3,-6.8376836E3,1.8787838E3],"categories":[],"categories_nodes":[],"categories_segments":[],"categories_sizes":[],"default_left":[0,0,0,0,0,0,0,0,0,0,0],"id":22,"left_children":[1,3,5,7,-1,-1,9,-1,-1,-1,-1],"loss_changes":[4.6443712E11,1.4675748E11,1.1128464E12,1.3208981E11,0E0,0E0,2.2597358E11,0E0,0E0,0E0,0E0],"parents":[2147483647,0,0,1,1,2,2,3,3,6,6],"right_children":[2,4,6,8,-1,-1,10,-1,-1,-1,-1],"split_conditions":[5.5291E4,5.29E0,5.5599E4,1.48201E5,9.87661E3,3.8938586E4,1.23E0,-3.9520212E2,-5.9052593E3,-6.8376836E3,1.8787838E3],"split_indices":[1,7,1,3,0,0,7,0,0,0,0],"split_type":[0,0,0,0,0,0,0,0,0,0,0],"sum_hessian":[1.68E2,5.1E1,1.17E2,5E1,1E0,1E0,1.16E2,1.6E1,3.4E1,7E0,1.09E2],"tree_param":{"num_deleted":"0","num_feature":"8","num_nodes":"11","size_leaf_vector":"1"}},{"base_weights":[2.4376292E3,-1.3384962E4,2.0064108E5,-8.883059E4,7.188542E3,6.418373E5,6.207472E4,-7.9994453E3,2.8346042E2,-1.8815865E3,2.8115159E3,1.0172678E4,3.796512E4,-3.0302422E3,7.041759E3],"categories":[],"categories_nodes":[],"categories_segments":[],"categories_sizes":[],"default_left":[0,0,0,0,0,0,0,0,0,0,0,0,0,0,0],"id":23,"left_children":[1,3,5,7,9,11,13,-1,-1,-1,-1,-1,-1,-1,-1],"loss_changes":[5.515017E11,2.5364406E11,7.5491246E11,2.3626265E11,2.856665E11,1.441792E6,1.14820596E11,0E0,0E0,0E0,0E0,0E0,0E0,0E0,0E0],"parents":[2147483647,0,0,1,1,2,2,3,3,4,4,5,5,6,6],"right_children":[2,4,6,8,10,12,14,-1,-1,-1,-1,-1,-1,-1,-1],"split_conditions":[1.03025665E2,3.4979805E1,1.03834496E2,1.66149E5,8.688779E1,9.12113E5,2.98E1,-7.9994453E3,2.8346042E2,-1.8815865E3,2.8115159E3,1.0172678E4,3.796512E4,-3.0302422E3,7.041759E3],"split_indices":[4,5,4,3,4,0,5,0,0,0,0,0,0,0,0],"split_type":[0,0,0,0,0,0,0,0,0,0,0,0,0,0,0],"sum_hessian":[1.74E2,1.62E2,1.2E1,3.4E1,1.28E2,2E0,1E1,1.9E1,1.5E1,6.7E1,6.1E1,1E0,1E0,4E0,6E0],"tree_param":{"num_deleted":"0","num_feature":"8","num_nodes":"15","size_leaf_vector":"1"}},{"base_weights":[-7.030375E3,-9.240077E4,9.059567E3,1.2688157E5,-1.2378992E5,-1.1051468E5,2.4275377E4,7.6723267E3,1.1796647E3,2.535591E3,-7.494535E3,-7.7826533E3,-9.093875E1,1.0956837E4,6.671921E2],"categories":[],"categories_nodes":[],"categories_segments":[],"categories_sizes":[],"default_left":[0,0,0,0,0,0,0,0,0,0,0,0,0,0,0],"id":24,"left_children":[1,3,5,7,9,11,13,-1,-1,-1,-1,-1,-1,-1,-1],"loss_changes":[2.4259156E11,2.0843305E11,2.737762E11,7.3550643E9,1.2146701E11,8.312496E10,2.8038365E11,0E0,0E0,0E0,0E0,0E0,0E0,0E0,0E0],"parents":[2147483647,0,0,1,1,2,2,3,3,4,4,5,5,6,6],"right_children":[2,4,6,8,10,12,14,-1,-1,-1,-1,-1,-1,-1,-1],"split_conditions":[6.6995995E1,1.75E0,1.31E0,4.4256E4,2.01923E5,1.0017965E2,2.42561E5,7.6723267E3,1.1796647E3,2.535591E3,-7.494535E3,-7.7826533E3,-9.093875E1,1.0956837E4,6.671921E2],"split_indices":[4,7,7,1,2,4,2,0,0,0,0,0,0,0,0],"split_type":[0,0,0,0,0,0,0,0,0,0,0,0,0,0,0],"sum_hessian":[1.75E2,2.7E1,1.48E2,3E0,2.4E1,1.6E1,1.32E2,2E0,1E0,3E0,2.1E1,1.1E1,5E0,6E0,1.26E2],"tree_param":{"num_deleted":"0","num_feature":"8","num_nodes":"15","size_leaf_vector":"1"}},{"base_weights":[7.9443022E3,-8.896402E3,2.4024536E5,-1.4190908E5,4.288378E3,6.2534656E5,1.00690445E5,-9.134124E3,-4.721438E3,1.8674701E4,-3.15081E1,9.901681E3,3.699931E4,8.401456E3,-2.116242E3],"categories":[],"categories_nodes":[],"categories_segments":[],"categories_sizes":[],"default_left":[0,0,0,0,0,0,0,0,0,0,0,0,0,0,0],"id":25,"left_children":[1,3,5,7,9,11,13,-1,-1,-1,-1,-1,-1,-1,-1],"loss_changes":[6.945814E11,2.917299E11,5.8194664E11,1.1788485E10,2.7626023E11,4.1877504E8,1.0341642E11,0E0,0E0,0E0,0E0,0E0,0E0,0E0,0E0],"parents":[2147483647,0,0,1,1,2,2,3,3,4,4,5,5,6,6],"right_children":[2,4,6,8,10,12,14,-1,-1,-1,-1,-1,-1,-1,-1],"split_conditions":[1.03025665E2,1.23E0,1.03834496E2,6.4237E5,1.41E0,9.12113E5,1.105225E6,-9.134124E3,-4.721438E3,1.8674701E4,-3.15081E1,9.901681E3,3.699931E4,8.401456E3,-2.116242E3],"split_indices":[4,7,4,0,7,0,0,0,0,0,0,0,0,0,0],"split_type":[0,0,0,0,0,0,0,0,0,0,0,0,0,0,0],"sum_hessian":[1.76E2,1.65E2,1.1E1,1.4E1,1.51E2,2E0,9E0,6E0,8E0,1E0,1.5E2,1E0,1E0,6E0,3E0],"tree_param":{"num_deleted":"0","num_feature":"8","num_nodes":"15","size_leaf_vector":"1"}},{"base_weights":[3.3250947E3,-1.553714E4,8.839019E4,-1.0380343E5,-2.6165542E3,1.2493065E4,3.2400703E5,-1.5618466E3,-9.983887E3,1.3850143E4,-6.802295E2,3.1773904E3,-6.7581167E3,3.607433E4,8.207736E3],"categories":[],"categories_nodes":[],"categories_segments":[],"categories_sizes":[],"default_left":[0,0,0,0,0,0,0,0,0,0,0,0,0,0,0],"id":26,"left_children":[1,3,5,7,9,11,13,-1,-1,-1,-1,-1,-1,-1,-1],"loss_changes":[2.9179104E11,1.6965575E11,5.860793E11,1.2595066E11,4.0626183E11,2.0459045E11,3.8986868E11,0E0,0E0,0E0,0E0,0E0,0E0,0E0,0E0],"parents":[2147483647,0,0,1,1,2,2,3,3,4,4,5,5,6,6],"right_children":[2,4,6,8,10,12,14,-1,-1,-1,-1,-1,-1,-1,-1],"split_conditions":[9.7557816E1,6.437545E1,3.80439E5,1.58521E5,2.29477E5,7.8472906E2,5.5599E4,-1.5618466E3,-9.983887E3,1.3850143E4,-6.802295E2,3.1773904E3,-6.7581167E3,3.607433E4,8.207736E3],"split_indices":[4,4,2,3,2,6,1,0,0,0,0,0,0,0,0],"split_type":[0,0,0,0,0,0,0,0,0,0,0,0,0,0,0],"sum_hessian":[1.8E2,1.48E2,3.2E1,1.8E1,1.3E2,2.5E1,7E0,1.1E1,7E0,4E0,1.26E2,1.9E1,6E0,1E0,6E0],"tree_param":{"num_deleted":"0","num_feature":"8","num_nodes":"15","size_leaf_vector":"1"}},{"base_weights":[1.0705315E4,-3.5246904E3,1.7358573E5,-5.1936918E4,3.2431959E4,2.9831451E4,5.3359426E4,-3.641948E3,3.93345E3,-3.729766E3,2.2393604E3,5.019725E3,-6.060531E3],"categories":[],"categories_nodes":[],"categories_segments":[],"categories_sizes":[],"default_left":[0,0,0,0,0,0,0,0,0,0,0,0,0],"id":27,"left_children":[1,3,5,7,9,-1,11,-1,-1,-1,-1,-1,-1],"loss_changes":[4.0390718E11,2.819438E11,6.802172E11,1.9409533E11,1.2631935E11,0E0,1.10699856E11,0E0,0E0,0E0,0E0,0E0,0E0],"parents":[2147483647,0,0,1,1,2,2,3,3,4,4,6,6],"right_children":[2,4,6,8,10,-1,12,-1,-1,-1,-1,-1,-1],"split_conditions":[1.0272709E2,7.92049E5,1.03834496E2,8.8982E4,1.14583E5,2.9831451E4,1.65244E5,-3.641948E3,3.93345E3,-3.729766E3,2.2393604E3,5.019725E3,-6.060531E3],"split_indices":[4,0,4,1,3,0,3,0,0,0,0,0,0],"split_type":[0,0,0,0,0,0,0,0,0,0,0,0,0],"sum_hessian":[1.73E2,1.6E2,1.3E1,6.8E1,9.2E1,2E0,1.1E1,5.9E1,9E0,9E0,8.3E1,9E0,2E0],"tree_param":{"num_deleted":"0","num_feature":"8","num_nodes":"13","size_leaf_vector":"1"}},{"base_weights":[-3.7628408E3,-8.1626734E4,1.5440675E4,-5.2793664E4,-1.6513084E5,-6.6080086E4,3.2043684E4,-3.4358796E3,1.3915171E3,-1.0170865E4,-3.7995027E3,-6.7203477E3,7.4956924E3,3.9395825E2,6.2603647E3],"categories":[],"categories_nodes":[],"categories_segments":[],"categories_sizes":[],"default_left":[0,0,0,0,0,0,0,0,0,0,0,0,0,0,0],"id":28,"left_children":[1,3,5,7,9,11,13,-1,-1,-1,-1,-1,-1,-1,-1],"loss_changes":[2.4947363E11,7.0735544E10,1.8348509E11,3.5292553E10,1.1845353E10,3.5958774E11,2.5115387E11,0E0,0E0,0E0,0E0,0E0,0E0,0E0,0E0],"parents":[2147483647,0,0,1,1,2,2,3,3,4,4,5,5,6,6],"right_children":[2,4,6,8,10,12,14,-1,-1,-1,-1,-1,-1,-1,-1],"split_conditions":[4.7185E4,4.4827E4,3.3E1,4.55E1,4.29E1,2.46836E5,6.5889E2,-3.4358796E3,1.3915171E3,-1.0170865E4,-3.7995027E3,-6.7203477E3,7.4956924E3,3.9395825E2,6.2603647E3],"split_indices":[1,1,5,5,5,3,6,0,0,0,0,0,0,0,0],"split_type":[0,0,0,0,0,0,0,0,0,0,0,0,0,0,0],"sum_hessian":[1.65E2,3.2E1,1.33E2,2.5E1,7E0,2.2E1,1.11E2,2.1E1,4E0,4E0,3E0,1.7E1,5E0,8.9E1,2.2E1],"tree_param":{"num_deleted":"0","num_feature":"8","num_nodes":"15","size_leaf_vector":"1"}},{"base_weights":[1.1272524E4,-1.2427821E3,1.5886312E5,-1.4018331E5,9.521921E3,4.0585117E4,5.7902075E5,-7.64964E3,-2.5378599E3,9.0314905E2,-8.682044E3,4.671039E3,-7.4531055E3,8.831865E3,3.459469E4],"categories":[],"categories_nodes":[],"categories_segments":[],"categories_sizes":[],"default_left":[0,0,0,0,0,0,0,0,0,0,0,0,0,0,0],"id":29,"left_children":[1,3,5,7,9,11,13,-1,-1,-1,-1,-1,-1,-1,-1],"loss_changes":[3.3083582E11,2.4961332E11,6.7223604E11,5.9805204E9,2.4561913E11,1.3416715E11,1.4040433E10,0E0,0E0,0E0,0E0,0E0,0E0,0E0,0E0],"parents":[2147483647,0,0,1,1,2,2,3,3,4,4,5,5,6,6],"right_children":[2,4,6,8,10,12,14,-1,-1,-1,-1,-1,-1,-1,-1],"split_conditions":[1.03025665E2,1.31E0,3.24E0,1.109462E6,3.5152E5,7.7653E2,8.06569E5,-7.64964E3,-2.5378599E3,9.0314905E2,-8.682044E3,4.671039E3,-7.4531055E3,8.831865E3,3.459469E4],"split_indices":[4,7,7,0,3,6,0,0,0,0,0,0,0,0,0],"split_type":[0,0,0,0,0,0,0,0,0,0,0,0,0,0,0],"sum_hessian":[1.78E2,1.65E2,1.3E1,1.1E1,1.54E2,1.1E1,2E0,9E0,2E0,1.48E2,6E0,9E0,2E0,1E0,1E0],"tree_param":{"num_deleted":"0","num_feature":"8","num_nodes":"15","size_leaf_vector":"1"}},{"base_weights":[1.1538781E4,-5.9597055E4,3.207425E4,-3.065068E4,-1.4337111E5,5.2814814E3,1.4728612E5,-7.0582355E2,-9.013223E3,-9.714628E3,-3.8520684E3,1.1836835E4,-3.813022E2,3.3729824E4,4.960492E3],"categories":[],"categories_nodes":[],"categories_segments":[],"categories_sizes":[],"default_left":[0,0,0,0,0,0,0,0,0,0,0,0,0,0,0],"id":30,"left_children":[1,3,5,7,9,11,13,-1,-1,-1,-1,-1,-1,-1,-1],"loss_changes":[2.6047449E11,9.260376E10,4.2520668E11,7.4141385E10,1.8807472E10,3.3939446E11,5.9220237E11,0E0,0E0,0E0,0E0,0E0,0E0,0E0,0E0],"parents":[2147483647,0,0,1,1,2,2,3,3,4,4,5,5,6,6],"right_children":[2,4,6,8,10,12,14,-1,-1,-1,-1,-1,-1,-1,-1],"split_conditions":[4.8737E4,4.4827E4,6.7154E2,2.68352E5,3.01E0,2.29477E5,5.5599E4,-7.0582355E2,-9.013223E3,-9.714628E3,-3.8520684E3,1.1836835E4,-3.813022E2,3.3729824E4,4.960492E3],"split_indices":[1,1,6,3,7,2,1,0,0,0,0,0,0,0,0],"split_type":[0,0,0,0,0,0,0,0,0,0,0,0,0,0,0],"sum_hessian":[1.76E2,3.9E1,1.37E2,3E1,9E0,1.12E2,2.5E1,2.8E1,2E0,4E0,5E0,5E0,1.07E2,1E0,2.4E1],"tree_param":{"num_deleted":"0","num_feature":"8","num_nodes":"15","size_leaf_vector":"1"}},{"base_weights":[3.4570834E2,-4.2399715E4,2.7684262E4,-8.81057E4,6.340479E4,4.0807632E3,1.7847461E5,-6.657478E3,-2.2401775E3,1.1981832E4,1.6899885E3,1.6918895E4,-3.259471E2,2.92293E4,3.5513884E3],"categories":[],"categories_nodes":[],"categories_segments":[],"categories_sizes":[],"default_left":[0,0,0,0,0,0,0,0,0,0,0,0,0,0,0],"id":31,"left_children":[1,3,5,7,9,11,13,-1,-1,-1,-1,-1,-1,-1,-1],"loss_changes":[2.1269008E11,3.4893523E11,3.943406E11,9.155917E10,1.0668196E11,3.459206E11,6.130088E11,0E0,0E0,0E0,0E0,0E0,0E0,0E0,0E0],"parents":[2147483647,0,0,1,1,2,2,3,3,4,4,5,5,6,6],"right_children":[2,4,6,8,10,12,14,-1,-1,-1,-1,-1,-1,-1,-1],"split_conditions":[5.5306335E2,5.23E0,4.48721E5,4.3E1,2.89009E5,5.544085E2,4.54343E5,-6.657478E3,-2.2401775E3,1.1981832E4,1.6899885E3,1.6918895E4,-3.259471E2,2.92293E4,3.5513884E3],"split_indices":[6,7,2,5,2,6,2,0,0,0,0,0,0,0,0],"split_type":[0,0,0,0,0,0,0,0,0,0,0,0,0,0,0],"sum_hessian":[1.8E2,7E1,1.1E2,4.9E1,2.1E1,9.6E1,1.4E1,2.3E1,2.6E1,2E0,1.9E1,2E0,9.4E1,2E0,1.2E1],"tree_param":{"num_deleted":"0","num_feature":"8","num_nodes":"15","size_leaf_vector":"1"}},{"base_weights":[8.463256E3,-3.1142977E4,3.707121E4,-5.276236E4,7.954917E4,4.4388895E4,-1.0472587E4,5.2902373E3,-3.2988977E3,1.683438E4,1.2782484E3,7.602161E2,8.0931494E3],"categories":[],"categories_nodes":[],"categories_segments":[],"categories_sizes":[],"default_left":[0,0,0,0,0,0,0,0,0,0,0,0,0],"id":32,"left_children":[1,3,5,7,9,11,-1,-1,-1,-1,-1,-1,-1],"loss_changes":[1.9150746E11,1.7410698E11,1.8608708E11,1.3271428E11,1.5796953E11,3.2666832E11,0E0,0E0,0E0,0E0,0E0,0E0,0E0],"parents":[2147483647,0,0,1,1,2,2,3,3,4,4,5,5],"right_children":[2,4,6,8,10,12,-1,-1,-1,-1,-1,-1,-1],"split_conditions":[7.86022E5,8.8982E4,8.393754E2,2.01923E5,2.85E1,6.8207E2,-1.0472587E4,5.2902373E3,-3.2988977E3,1.683438E4,1.2782484E3,7.602161E2,8.0931494E3],"split_indices":[0,1,6,2,5,6,0,0,0,0,0,0,0],"split_type":[0,0,0,0,0,0,0,0,0,0,0,0,0],"sum_hessian":[1.67E2,7E1,9.7E1,5.9E1,1.1E1,9.5E1,2E0,4E0,5.5E1,1E0,1E1,7.7E1,1.8E1],"tree_param":{"num_deleted":"0","num_feature":"8","num_nodes":"13","size_leaf_vector":"1"}},{"base_weights":[-2.3492969E3,-1.5375671E4,1.6416819E5,-1.1670077E5,-6.003598E3,2.710299E4,4.618244E4,-6.222609E3,-3.9831003E2,7.476401E3,-7.8079407E2,7.22488E3,-2.9914883E3],"categories":[],"categories_nodes":[],"categories_segments":[],"categories_sizes":[],"default_left":[0,0,0,0,0,0,0,0,0,0,0,0,0],"id":33,"left_children":[1,3,5,7,9,-1,11,-1,-1,-1,-1,-1,-1],"loss_changes":[3.886274E11,1.5693732E11,5.545821E11,1.080841E10,2.3107212E11,0E0,1.2329392E11,0E0,0E0,0E0,0E0,0E0,0E0],"parents":[2147483647,0,0,1,1,2,2,3,3,4,4,6,6],"right_children":[2,4,6,8,10,-1,12,-1,-1,-1,-1,-1,-1],"split_conditions":[1.03025665E2,1.31E0,1.03834496E2,3.69617E5,1.75E0,2.710299E4,1.08818665E2,-6.222609E3,-3.9831003E2,7.476401E3,-7.8079407E2,7.22488E3,-2.9914883E3],"split_indices":[4,7,4,2,7,0,4,0,0,0,0,0,0],"split_type":[0,0,0,0,0,0,0,0,0,0,0,0,0],"sum_hessian":[1.77E2,1.65E2,1.2E1,1.3E1,1.52E2,2E0,1E1,1.2E1,1E0,8E0,1.44E2,5E0,5E0],"tree_param":{"num_deleted":"0","num_feature":"8","num_nodes":"13","size_leaf_vector":"1"}},{"base_weights":[-7.5047476E3,-7.4091E4,9.794604E3,7.3061016E3,-1.2622126E5,-1.0152694E5,2.11126E4,5.597473E3,-3.7447478E3,-7.137875E3,5.5259946E3,1.4068253E3,-7.1619814E3,2.7280164E3,-1.046038E3],"categories":[],"categories_nodes":[],"categories_segments":[],"categories_sizes":[],"default_left":[0,0,0,0,0,0,0,0,0,0,0,0,0,0,0],"id":34,"left_children":[1,3,5,7,9,11,13,-1,-1,-1,-1,-1,-1,-1,-1],"loss_changes":[2.0115612E11,1.5367927E11,1.772747E11,1.3741138E11,1.0190337E11,7.434223E10,1.7969332E11,0E0,0E0,0E0,0E0,0E0,0E0,0E0,0E0],"parents":[2147483647,0,0,1,1,2,2,3,3,4,4,5,5,6,6],"right_children":[2,4,6,8,10,12,14,-1,-1,-1,-1,-1,-1,-1,-1],"split_conditions":[2.48E0,5.0627E4,6.437545E1,6.56305E1,1.08994385E2,2.75E0,4.9E0,5.597473E3,-3.7447478E3,-7.137875E3,5.5259946E3,1.4068253E3,-7.1619814E3,2.7280164E3,-1.046038E3],"split_indices":[7,1,4,4,4,7,7,0,0,0,0,0,0,0,0],"split_type":[0,0,0,0,0,0,0,0,0,0,0,0,0,0,0],"sum_hessian":[1.73E2,3.5E1,1.38E2,1.4E1,2.1E1,1.2E1,1.26E2,6E0,8E0,2E1,1E0,3E0,9E0,7E1,5.6E1],"tree_param":{"num_deleted":"0","num_feature":"8","num_nodes":"15","size_leaf_vector":"1"}},{"base_weights":[-8.5740845E2,-2.1993898E4,9.055205E4,-1.28995875E5,-1.3241959E4,4.1960055E4,2.4323098E5,-4.9246295E2,-7.718927E3,9.72632E3,-1.129283E3,4.984384E3,-3.3072825E3,3.120774E4,4.9824155E3],"categories":[],"categories_nodes":[],"categories_segments":[],"categories_sizes":[],"default_left":[0,0,0,0,0,0,0,0,0,0,0,0,0,0,0],"id":35,"left_children":[1,3,5,7,9,11,13,-1,-1,-1,-1,-1,-1,-1,-1],"loss_changes":[3.497651E11,1.3595361E11,2.420391E11,3.1746294E10,2.70355E11,1.7509237E11,3.7535652E11,0E0,0E0,0E0,0E0,0E0,0E0,0E0,0E0],"parents":[2147483647,0,0,1,1,2,2,3,3,4,4,5,5,6,6],"right_children":[2,4,6,8,10,12,14,-1,-1,-1,-1,-1,-1,-1,-1],"split_conditions":[9.7557816E1,6.1204357E1,3.80439E5,5.14681E5,2.29477E5,3.42189E5,5.5599E4,-4.9246295E2,-7.718927E3,9.72632E3,-1.129283E3,4.984384E3,-3.3072825E3,3.120774E4,4.9824155E3],"split_indices":[4,4,2,0,2,2,1,0,0,0,0,0,0,0,0],"split_type":[0,0,0,0,0,0,0,0,0,0,0,0,0,0,0],"sum_hessian":[1.79E2,1.46E2,3.3E1,1E1,1.36E2,2.6E1,7E0,2E0,8E0,5E0,1.31E2,1.7E1,9E0,1E0,6E0],"tree_param":{"num_deleted":"0","num_feature":"8","num_nodes":"15","size_leaf_vector":"1"}},{"base_weights":[8.959552E3,-6.581542E4,3.0259834E4,-8.544839E4,1.3224334E5,1.1297284E4,1.26230305E5,-1.2945157E3,-6.028773E3,1.014253E4,-1.9894584E3,1.3714349E4,1.0257896E2,-4.0002668E3,1.2077817E4],"categories":[],"categories_nodes":[],"categories_segments":[],"categories_sizes":[],"default_left":[0,0,0,0,0,0,0,0,0,0,0,0,0,0,0],"id":36,"left_children":[1,3,5,7,9,11,13,-1,-1,-1,-1,-1,-1,-1,-1],"loss_changes":[2.870899E11,1.6683922E11,2.5335218E11,7.428597E10,5.6658256E10,2.8635723E11,5.663656E11,0E0,0E0,0E0,0E0,0E0,0E0,0E0,0E0],"parents":[2147483647,0,0,1,1,2,2,3,3,4,4,5,5,6,6],"right_children":[2,4,6,8,10,12,14,-1,-1,-1,-1,-1,-1,-1,-1],"split_conditions":[4.9987E4,1.109462E6,6.8207E2,3.8356E4,1.205419E6,2.15465E5,3.08957E5,-1.2945157E3,-6.028773E3,1.014253E4,-1.9894584E3,1.3714349E4,1.0257896E2,-4.0002668E3,1.2077817E4],"split_indices":[1,0,6,1,0,2,2,0,0,0,0,0,0,0,0],"split_type":[0,0,0,0,0,0,0,0,0,0,0,0,0,0,0],"sum_hessian":[1.78E2,3.9E1,1.39E2,3.6E1,3E0,1.17E2,2.2E1,1.4E1,2.2E1,2E0,1E0,3E0,1.14E2,8E0,1.4E1],"tree_param":{"num_deleted":"0","num_feature":"8","num_nodes":"15","size_leaf_vector":"1"}},{"base_weights":[-1.1311525E4,-6.2138193E3,-9.220515E3,-5.346396E4,1.7670719E4,-3.1844536E3,7.761304E3,1.1644779E3,-9.993124E3],"categories":[],"categories_nodes":[],"categories_segments":[],"categories_sizes":[],"default_left":[0,0,0,0,0,0,0,0,0],"id":37,"left_children":[1,3,-1,5,7,-1,-1,-1,-1],"loss_changes":[1.5415765E11,1.9505496E11,0E0,1.3365117E11,1.452174E11,0E0,0E0,0E0,0E0],"parents":[2147483647,0,0,1,1,3,3,4,4],"right_children":[2,4,-1,6,8,-1,-1,-1,-1],"split_conditions":[7.49E0,5.7612E4,-9.220515E3,5.29E0,8.393754E2,-3.1844536E3,7.761304E3,1.1644779E3,-9.993124E3],"split_indices":[7,1,0,7,6,0,0,0,0],"split_type":[0,0,0,0,0,0,0,0,0],"sum_hessian":[1.75E2,1.71E2,4E0,5.7E1,1.14E2,5.5E1,2E0,1.12E2,2E0],"tree_param":{"num_deleted":"0","num_feature":"8","num_nodes":"9","size_leaf_vector":"1"}},{"base_weights":[-3.1133809E3,-3.3307574E4,1.9710799E4,3.546145E3,-9.116328E4,5.8472996E4,-1.4476405E4,-5.053126E2,1.6130222E4,-5.2586743E3,3.4993171E3,5.710517E3,-9.313942E2,-3.141853E3,2.5303826E3],"categories":[],"categories_nodes":[],"categories_segments":[],"categories_sizes":[],"default_left":[0,0,0,0,0,0,0,0,0,0,0,0,0,0,0],"id":38,"left_children":[1,3,5,7,9,11,13,-1,-1,-1,-1,-1,-1,-1,-1],"loss_changes":[1.2332659E11,1.645025E11,1.3601394E11,2.1234408E11,7.509287E10,2.0840263E11,1.7629295E11,0E0,0E0,0E0,0E0,0E0,0E0,0E0,0E0],"parents":[2147483647,0,0,1,1,2,2,3,3,4,4,5,5,6,6],"right_children":[2,4,6,8,10,12,14,-1,-1,-1,-1,-1,-1,-1,-1],"split_conditions":[7.86022E5,6.63359E5,9.1293E5,6.57811E5,9.623247E1,4.9E0,8.0221E4,-5.053126E2,1.6130222E4,-5.2586743E3,3.4993171E3,5.710517E3,-9.313942E2,-3.141853E3,2.5303826E3],"split_indices":[0,0,0,0,4,7,1,0,0,0,0,0,0,0,0],"split_type":[0,0,0,0,0,0,0,0,0,0,0,0,0,0,0],"sum_hessian":[1.77E2,7.6E1,1.01E2,4.7E1,2.9E1,4.7E1,5.4E1,4.6E1,1E0,2.7E1,2E0,2.7E1,2E1,3.1E1,2.3E1],"tree_param":{"num_deleted":"0","num_feature":"8","num_nodes":"15","size_leaf_vector":"1"}},{"base_weights":[5.909903E3,1.423624E4,-1.0768199E5,-5.9509145E4,2.7397379E4,-1.466857E5,8.0339697E3,-6.868601E3,-3.5627625E2,5.411839E2,6.9104087E3,-1.10847705E4,-2.3614185E3],"categories":[],"categories_nodes":[],"categories_segments":[],"categories_sizes":[],"default_left":[0,0,0,0,0,0,0,0,0,0,0,0,0],"id":39,"left_children":[1,3,5,7,9,11,-1,-1,-1,-1,-1,-1,-1],"loss_changes":[1.6610296E11,1.5983385E11,1.4917447E11,1.009896E11,2.537838E11,7.159256E10,0E0,0E0,0E0,0E0,0E0,0E0,0E0],"parents":[2147483647,0,0,1,1,2,2,3,3,4,4,5,5],"right_children":[2,4,6,8,10,12,-1,-1,-1,-1,-1,-1,-1],"split_conditions":[3.3211E5,1.20629E5,8.0221E4,3.4E1,6.8207E2,4.221155E1,8.0339697E3,-6.868601E3,-3.5627625E2,5.411839E2,6.9104087E3,-1.10847705E4,-2.3614185E3],"split_indices":[3,3,1,5,6,5,0,0,0,0,0,0,0],"split_type":[0,0,0,0,0,0,0,0,0,0,0,0,0],"sum_hessian":[1.73E2,1.62E2,1.1E1,2.4E1,1.38E2,1E1,1E0,9E0,1.5E1,1.21E2,1.7E1,5E0,5E0],"tree_param":{"num_deleted":"0","num_feature":"8","num_nodes":"13","size_leaf_vector":"1"}},{"base_weights":[-1.3258371E2,-3.8181434E4,3.834527E4,-4.542875E4,6.4496504E3,-5.5634254E4,6.295465E4,-2.767126E3,3.7888767E3,3.7799587E3,-3.7760251E3,1.1051942E3,9.100473E3],"categories":[],"categories_nodes":[],"categories_segments":[],"categories_sizes":[],"default_left":[0,0,0,0,0,0,0,0,0,0,0,0,0],"id":40,"left_children":[1,3,5,7,-1,9,11,-1,-1,-1,-1,-1,-1],"loss_changes":[2.6206285E11,1.1490091E11,2.0933965E11,1.0873389E11,0E0,5.529435E10,3.4128396E11,0E0,0E0,0E0,0E0,0E0,0E0],"parents":[2147483647,0,0,1,1,2,2,3,3,5,5,6,6],"right_children":[2,4,6,8,-1,10,12,-1,-1,-1,-1,-1,-1],"split_conditions":[8.6063194E1,1.21362E5,5.0695142E2,1.085167E6,6.4496504E3,8.6650826E1,4.36104E5,-2.767126E3,3.7888767E3,3.7799587E3,-3.7760251E3,1.1051942E3,9.100473E3],"split_indices":[4,1,6,0,0,4,2,0,0,0,0,0,0],"split_type":[0,0,0,0,0,0,0,0,0,0,0,0,0],"sum_hessian":[1.77E2,8.9E1,8.8E1,8.6E1,3E0,1.8E1,7E1,8E1,6E0,2E0,1.6E1,5.3E1,1.7E1],"tree_param":{"num_deleted":"0","num_feature":"8","num_nodes":"13","size_leaf_vector":"1"}},{"base_weights":[7.2570317E3,-4.7852547E4,4.2581926E4,-1.2338183E5,-2.3188646E4,1.415615E5,9.870714E3,-1.8284452E3,-6.6259478E3,-3.1688213E3,2.4149697E3,1.8140162E4,4.3655312E3,1.943764E3,-6.210417E3],"categories":[],"categories_nodes":[],"categories_segments":[],"categories_sizes":[],"default_left":[0,0,0,0,0,0,0,0,0,0,0,0,0,0,0],"id":41,"left_children":[1,3,5,7,9,11,13,-1,-1,-1,-1,-1,-1,-1,-1],"loss_changes":[3.485574E11,1.2753817E11,3.5151656E11,8.638644E9,1.5820012E11,2.9239244E11,3.276077E11,0E0,0E0,0E0,0E0,0E0,0E0,0E0,0E0],"parents":[2147483647,0,0,1,1,2,2,3,3,4,4,5,5,6,6],"right_children":[2,4,6,8,10,12,14,-1,-1,-1,-1,-1,-1,-1,-1],"split_conditions":[2.82E0,5.736414E2,3.27E0,4.11236E5,4.0587376E1,3.2E1,6.072785E2,-1.8284452E3,-6.6259478E3,-3.1688213E3,2.4149697E3,1.8140162E4,4.3655312E3,1.943764E3,-6.210417E3],"split_indices":[7,6,7,0,5,5,6,0,0,0,0,0,0,0,0],"split_type":[0,0,0,0,0,0,0,0,0,0,0,0,0,0,0],"sum_hessian":[1.77E2,6.9E1,1.08E2,1.6E1,5.3E1,2.6E1,8.2E1,2E0,1.4E1,3.4E1,1.9E1,4E0,2.2E1,6.8E1,1.4E1],"tree_param":{"num_deleted":"0","num_feature":"8","num_nodes":"15","size_leaf_vector":"1"}},{"base_weights":[1.0657604E4,-4.405529E4,3.0777307E4,-8.612876E4,5.424825E4,1.5356451E4,1.3969111E5,-6.7334697E3,-2.2708423E3,6.2280186E3,-2.1951392E3,-6.723359E2,4.691876E3,2.6134186E4,2.3821665E3],"categories":[],"categories_nodes":[],"categories_segments":[],"categories_sizes":[],"default_left":[0,0,0,0,0,0,0,0,0,0,0,0,0,0,0],"id":42,"left_children":[1,3,5,7,9,11,13,-1,-1,-1,-1,-1,-1,-1,-1],"loss_changes":[1.9619874E11,2.0319896E11,2.1619556E11,6.10739E10,1.08986655E11,2.612197E11,5.3915546E11,0E0,0E0,0E0,0E0,0E0,0E0,0E0,0E0],"parents":[2147483647,0,0,1,1,2,2,3,3,4,4,5,5,6,6],"right_children":[2,4,6,8,10,12,14,-1,-1,-1,-1,-1,-1,-1,-1],"split_conditions":[5.2079407E2,5.25E0,4.48721E5,4.3E1,6.25E0,4.221155E1,4.54343E5,-6.7334697E3,-2.2708423E3,6.2280186E3,-2.1951392E3,-6.723359E2,4.691876E3,2.6134186E4,2.3821665E3],"split_indices":[6,7,2,5,7,5,2,0,0,0,0,0,0,0,0],"split_type":[0,0,0,0,0,0,0,0,0,0,0,0,0,0,0],"sum_hessian":[1.76E2,4.7E1,1.29E2,3.3E1,1.4E1,1.14E2,1.5E1,1.4E1,1.9E1,8E0,6E0,8.4E1,3E1,2E0,1.3E1],"tree_param":{"num_deleted":"0","num_feature":"8","num_nodes":"15","size_leaf_vector":"1"}},{"base_weights":[-8.016921E2,-2.9443896E4,3.1471152E4,5.2680945E4,-4.262394E4,-9.780981E4,4.953115E4,1.7097006E4,-1.2011962E3,-2.8443088E3,2.9246729E3,-6.4327666E3,5.2661323E3,5.178314E3,-9.1350195E2],"categories":[],"categories_nodes":[],"categories_segments":[],"categories_sizes":[],"default_left":[0,0,0,0,0,0,0,0,0,0,0,0,0,0,0],"id":43,"left_children":[1,3,5,7,9,11,13,-1,-1,-1,-1,-1,-1,-1,-1],"loss_changes":[1.7100987E11,1.0832159E11,2.0797338E11,3.18841E11,1.2591107E11,8.24733E10,2.839929E11,0E0,0E0,0E0,0E0,0E0,0E0,0E0,0E0],"parents":[2147483647,0,0,1,1,2,2,3,3,4,4,5,5,6,6],"right_children":[2,4,6,8,10,12,14,-1,-1,-1,-1,-1,-1,-1,-1],"split_conditions":[8.6063194E1,2.40341E5,1.11253E5,2.99E1,4.6E1,8.9968E4,1.91732E5,1.7097006E4,-1.2011962E3,-2.8443088E3,2.9246729E3,-6.4327666E3,5.2661323E3,5.178314E3,-9.1350195E2],"split_indices":[4,2,3,5,5,1,3,0,0,0,0,0,0,0,0],"split_type":[0,0,0,0,0,0,0,0,0,0,0,0,0,0,0],"sum_hessian":[1.83E2,9.7E1,8.6E1,1.3E1,8.4E1,1E1,7.6E1,2E0,1.1E1,7.4E1,1E1,9E0,1E0,4.2E1,3.4E1],"tree_param":{"num_deleted":"0","num_feature":"8","num_nodes":"15","size_leaf_vector":"1"}},{"base_weights":[7.714487E3,-1.3440398E3,1.2139787E5,-9.378116E4,9.282818E3,9.977468E3,2.4473668E4,-1.6606371E3,-5.219388E3,1.553765E4,2.5590169E2,4.5674277E3,-5.2968765E3],"categories":[],"categories_nodes":[],"categories_segments":[],"categories_sizes":[],"default_left":[0,0,0,0,0,0,0,0,0,0,0,0,0],"id":44,"left_children":[1,3,5,7,9,11,-1,-1,-1,-1,-1,-1,-1],"loss_changes":[1.8140866E11,1.6197042E11,5.2826073E11,7.4541957E9,1.8423215E11,1.1343067E11,0E0,0E0,0E0,0E0,0E0,0E0,0E0],"parents":[2147483647,0,0,1,1,2,2,3,3,4,4,5,5],"right_children":[2,4,6,8,10,12,-1,-1,-1,-1,-1,-1,-1],"split_conditions":[1.03025665E2,1.31E0,2.76E0,4.60649E5,1.41E0,1.08818665E2,2.4473668E4,-1.6606371E3,-5.219388E3,1.553765E4,2.5590169E2,4.5674277E3,-5.2968765E3],"split_indices":[4,7,7,0,7,4,0,0,0,0,0,0,0],"split_type":[0,0,0,0,0,0,0,0,0,0,0,0,0],"sum_hessian":[1.75E2,1.63E2,1.2E1,1.6E1,1.47E2,1E1,2E0,3E0,1.3E1,1E0,1.46E2,6E0,4E0],"tree_param":{"num_deleted":"0","num_feature":"8","num_nodes":"13","size_leaf_vector":"1"}},{"base_weights":[-6.7601494E3,2.7926974E2,-9.080948E3,-1.8290629E4,6.6672266E4,-1.7738102E3,3.1389846E3,1.6855803E3,2.8035332E4],"categories":[],"categories_nodes":[],"categories_segments":[],"categories_sizes":[],"default_left":[0,0,0,0,0,0,0,0,0],"id":45,"left_children":[1,3,-1,5,7,-1,-1,-1,-1],"loss_changes":[1.9084093E11,1.8615617E11,0E0,1.6662949E11,5.1845962E11,0E0,0E0,0E0,0E0],"parents":[2147483647,0,0,1,1,3,3,4,4],"right_children":[2,4,-1,6,8,-1,-1,-1,-1],"split_conditions":[3.5152E5,4.39731E5,-9.080948E3,2.50102E5,1.00455635E2,-1.7738102E3,3.1389846E3,1.6855803E3,2.8035332E4],"split_indices":[3,2,0,3,4,0,0,0,0],"split_type":[0,0,0,0,0,0,0,0,0],"sum_hessian":[1.54E2,1.49E2,5E0,1.17E2,3.2E1,9.7E1,2E1,3.1E1,1E0],"tree_param":{"num_deleted":"0","num_feature":"8","num_nodes":"9","size_leaf_vector":"1"}},{"base_weights":[-3.8850618E3,-1.6932682E4,1.5844662E5,-8.084319E4,-2.7658809E3,2.3256785E4,5.059524E4,-8.045693E3,-1.9330033E3,-5.302788E3,3.656681E2,5.256198E3,-5.583987E3],"categories":[],"categories_nodes":[],"categories_segments":[],"categories_sizes":[],"default_left":[0,0,0,0,0,0,0,0,0,0,0,0,0],"id":46,"left_children":[1,3,5,7,9,-1,11,-1,-1,-1,-1,-1,-1],"loss_changes":[3.4156963E11,1.346821E11,3.7338835E11,8.497506E10,1.2882893E11,0E0,1.00226695E11,0E0,0E0,0E0,0E0,0E0,0E0],"parents":[2147483647,0,0,1,1,2,2,3,3,4,4,6,6],"right_children":[2,4,6,8,10,-1,12,-1,-1,-1,-1,-1,-1],"split_conditions":[1.03025665E2,1.28233E5,1.03834496E2,6.5817E2,6.2943607E1,2.3256785E4,1.65244E5,-8.045693E3,-1.9330033E3,-5.302788E3,3.656681E2,5.256198E3,-5.583987E3],"split_indices":[4,3,4,6,4,0,3,0,0,0,0,0,0],"split_type":[0,0,0,0,0,0,0,0,0,0,0,0,0],"sum_hessian":[1.59E2,1.48E2,1.1E1,2.6E1,1.22E2,2E0,9E0,8E0,1.8E1,1E1,1.12E2,7E0,2E0],"tree_param":{"num_deleted":"0","num_feature":"8","num_nodes":"13","size_leaf_vector":"1"}},{"base_weights":[5.826682E3,-1.0084009E4,9.369563E4,-1.2839018E5,-2.7721748E3,1.3013726E5,-9.996329E4,-7.8196626E3,-1.0126463E3,-1.3093782E3,1.6804921E3,1.9593788E3,1.0891065E4,-1.3506244E3,-6.9796484E3],"categories":[],"categories_nodes":[],"categories_segments":[],"categories_sizes":[],"default_left":[0,0,0,0,0,0,0,0,0,0,0,0,0,0,0],"id":47,"left_children":[1,3,5,7,9,11,13,-1,-1,-1,-1,-1,-1,-1,-1],"loss_changes":[2.5539096E11,1.337245E11,2.1061185E11,2.4086118E10,1.2610931E11,1.8286015E11,1.0684314E10,0E0,0E0,0E0,0E0,0E0,0E0,0E0,0E0],"parents":[2147483647,0,0,1,1,2,2,3,3,4,4,5,5,6,6],"right_children":[2,4,6,8,10,12,14,-1,-1,-1,-1,-1,-1,-1,-1],"split_conditions":[9.7557816E1,1.09239E5,1.93331E5,7.432833E2,8.655467E1,1.43263E5,8.42201E5,-7.8196626E3,-1.0126463E3,-1.3093782E3,1.6804921E3,1.9593788E3,1.0891065E4,-1.3506244E3,-6.9796484E3],"split_indices":[4,3,3,6,4,3,0,0,0,0,0,0,0,0,0],"split_type":[0,0,0,0,0,0,0,0,0,0,0,0,0,0,0],"sum_hessian":[1.81E2,1.54E2,2.7E1,8E0,1.46E2,2.3E1,4E0,6E0,2E0,8.9E1,5.7E1,1.2E1,1.1E1,2E0,2E0],"tree_param":{"num_deleted":"0","num_feature":"8","num_nodes":"15","size_leaf_vector":"1"}},{"base_weights":[-7.1399434E3,-7.571083E4,2.3184119E3,-1.1216493E5,3.4118566E4,2.1178314E5,-3.2827698E3,-1.6138362E3,-8.535694E3,4.636049E3,-2.76954E3,-4.727944E2,1.4434075E4,-2.709082E3,4.9467307E2],"categories":[],"categories_nodes":[],"categories_segments":[],"categories_sizes":[],"default_left":[0,0,0,0,0,0,0,0,0,0,0,0,0,0,0],"id":48,"left_children":[1,3,5,7,9,11,13,-1,-1,-1,-1,-1,-1,-1,-1],"loss_changes":[1.1237776E11,8.790528E10,1.8020252E11,6.932785E10,3.660868E10,7.078144E10,1.0113433E11,0E0,0E0,0E0,0E0,0E0,0E0,0E0,0E0],"parents":[2147483647,0,0,1,1,2,2,3,3,4,4,5,5,6,6],"right_children":[2,4,6,8,10,12,14,-1,-1,-1,-1,-1,-1,-1,-1],"split_conditions":[1.20629E5,1.00455635E2,1.22831E5,6.5709E4,3.28319E5,7.4265E4,4.9927686E2,-1.6138362E3,-8.535694E3,4.636049E3,-2.76954E3,-4.727944E2,1.4434075E4,-2.709082E3,4.9467307E2],"split_indices":[3,4,3,1,2,1,6,0,0,0,0,0,0,0,0],"split_type":[0,0,0,0,0,0,0,0,0,0,0,0,0,0,0],"sum_hessian":[1.72E2,2E1,1.52E2,1.5E1,5E0,3E0,1.49E2,7E0,8E0,3E0,2E0,1E0,2E0,3E1,1.19E2],"tree_param":{"num_deleted":"0","num_feature":"8","num_nodes":"15","size_leaf_vector":"1"}},{"base_weights":[3.8012415E3,-8.5516195E4,1.2937638E4,-1.07411766E5,6.0729336E3,1.047997E4,7.7115933E3,-7.814834E2,-6.9683096E3,-1.6406686E3,1.3851243E3],"categories":[],"categories_nodes":[],"categories_segments":[],"categories_sizes":[],"default_left":[0,0,0,0,0,0,0,0,0,0,0],"id":49,"left_children":[1,3,5,7,-1,-1,9,-1,-1,-1,-1],"loss_changes":[1.4064912E11,8.555544E10,1.5871466E11,4.1814393E10,0E0,0E0,1.2485892E11,0E0,0E0,0E0,0E0],"parents":[2147483647,0,0,1,1,2,2,3,3,6,6],"right_children":[2,4,6,8,-1,-1,10,-1,-1,-1,-1],"split_conditions":[1.11253E5,1.444273E6,1.95201E5,6.36845E5,6.0729336E3,1.047997E4,2.82E0,-7.814834E2,-6.9683096E3,-1.6406686E3,1.3851243E3],"split_indices":[3,0,2,0,0,0,7,0,0,0,0],"split_type":[0,0,0,0,0,0,0,0,0,0,0],"sum_hessian":[1.7E2,1.5E1,1.55E2,1.4E1,1E0,3E0,1.52E2,4E0,1E1,5E1,1.02E2],"tree_param":{"num_deleted":"0","num_feature":"8","num_nodes":"11","size_leaf_vector":"1"}},{"base_weights":[-4.559599E3,-5.037645E4,1.3388038E4,-8.6398945E4,4.4238965E4,-3.8716963E3,1.313881E5,-6.4799614E3,-2.4544841E3,4.7308164E3,-3.7719504E3,-2.3412014E3,1.5605267E3,2.3657225E4,2.7138804E3],"categories":[],"categories_nodes":[],"categories_segments":[],"categories_sizes":[],"default_left":[0,0,0,0,0,0,0,0,0,0,0,0,0,0,0],"id":50,"left_children":[1,3,5,7,9,11,13,-1,-1,-1,-1,-1,-1,-1,-1],"loss_changes":[1.5197843E11,1.8105295E11,2.7138312E11,5.4885286E10,9.757367E10,1.7776443E11,4.2231985E11,0E0,0E0,0E0,0E0,0E0,0E0,0E0,0E0],"parents":[2147483647,0,0,1,1,2,2,3,3,4,4,5,5,6,6],"right_children":[2,4,6,8,10,12,14,-1,-1,-1,-1,-1,-1,-1,-1],"split_conditions":[5.244768E2,5.23E0,4.48721E5,4.3E1,6.25E0,3.8E1,4.54343E5,-6.4799614E3,-2.4544841E3,4.7308164E3,-3.7719504E3,-2.3412014E3,1.5605267E3,2.3657225E4,2.7138804E3],"split_indices":[6,7,2,5,7,5,2,0,0,0,0,0,0,0,0],"split_type":[0,0,0,0,0,0,0,0,0,0,0,0,0,0,0],"sum_hessian":[1.83E2,5.1E1,1.32E2,3.7E1,1.4E1,1.16E2,1.6E1,1.6E1,2.1E1,1E1,4E0,5.2E1,6.4E1,2E0,1.4E1],"tree_param":{"num_deleted":"0","num_feature":"8","num_nodes":"15","size_leaf_vector":"1"}},{"base_weights":[1.493313E4,1.8901602E4,-7.873008E3,2.2360998E4,-9.056256E3,-1.0639863E3,1.974411E3],"categories":[],"categories_nodes":[],"categories_segments":[],"categories_sizes":[],"default_left":[0,0,0,0,0,0,0],"id":51,"left_children":[1,3,-1,5,-1,-1,-1],"loss_changes":[1.2133207E11,1.216853E11,0E0,1.2641096E11,0E0,0E0,0E0],"parents":[2147483647,0,0,1,1,3,3],"right_children":[2,4,-1,6,-1,-1,-1],"split_conditions":[8.17E0,8.393754E2,-7.873008E3,5.2079407E2,-9.056256E3,-1.0639863E3,1.974411E3],"split_indices":[7,6,0,6,0,0,0],"split_type":[0,0,0,0,0,0,0],"sum_hessian":[1.72E2,1.69E2,3E0,1.67E2,2E0,4.7E1,1.2E2],"tree_param":{"num_deleted":"0","num_feature":"8","num_nodes":"7","size_leaf_vector":"1"}},{"base_weights":[-5.8650786E3,-7.348846E4,6.630446E3,-2.6099436E4,-1.3449888E5,-2.589223E4,3.6224508E4,-3.8473306E3,2.8765874E3,-8.391173E3,-1.2946918E3,4.979513E3,-1.9307946E3,4.2419756E3,-1.2775238E3],"categories":[],"categories_nodes":[],"categories_segments":[],"categories_sizes":[],"default_left":[0,0,0,0,0,0,0,0,0,0,0,0,0,0,0],"id":52,"left_children":[1,3,5,7,9,11,13,-1,-1,-1,-1,-1,-1,-1,-1],"loss_changes":[1.5174042E11,7.744389E10,1.4723462E11,7.671783E10,3.9085E10,1.2039732E11,2.4242297E11,0E0,0E0,0E0,0E0,0E0,0E0,0E0,0E0],"parents":[2147483647,0,0,1,1,2,2,3,3,4,4,5,5,6,6],"right_children":[2,4,6,8,10,12,14,-1,-1,-1,-1,-1,-1,-1,-1],"split_conditions":[6.6995995E1,2.96039E5,5.5306335E2,6.2240974E1,3.98705E5,4.701E2,9.66432E5,-3.8473306E3,2.8765874E3,-8.391173E3,-1.2946918E3,4.979513E3,-1.9307946E3,4.2419756E3,-1.2775238E3],"split_indices":[4,2,6,4,2,6,0,0,0,0,0,0,0,0,0],"split_type":[0,0,0,0,0,0,0,0,0,0,0,0,0,0,0],"sum_hessian":[1.78E2,2.7E1,1.51E2,1.6E1,1.1E1,7.2E1,7.9E1,1E1,6E0,8E0,3E0,6E0,6.6E1,4.4E1,3.5E1],"tree_param":{"num_deleted":"0","num_feature":"8","num_nodes":"15","size_leaf_vector":"1"}},{"base_weights":[4.2222603E3,-7.8235576E3,1.8562077E5,1.3869508E5,-1.3235287E4,1.0143517E5,2.5686916E4,-1.771399E3,9.030266E3,-6.4893564E3,-2.740164E2,5.972754E3,-1.5185975E3],"categories":[],"categories_nodes":[],"categories_segments":[],"categories_sizes":[],"default_left":[0,0,0,0,0,0,0,0,0,0,0,0,0],"id":53,"left_children":[1,3,5,7,9,11,-1,-1,-1,-1,-1,-1,-1],"loss_changes":[3.8602867E11,1.3346023E11,2.517393E11,5.0183725E10,1.4480931E11,2.7379614E10,0E0,0E0,0E0,0E0,0E0,0E0,0E0],"parents":[2147483647,0,0,1,1,2,2,3,3,4,4,5,5],"right_children":[2,4,6,8,10,12,-1,-1,-1,-1,-1,-1,-1],"split_conditions":[1.03025665E2,2.01923E5,4.16901E5,2.9854E4,6.1204357E1,1.105225E6,2.5686916E4,-1.771399E3,9.030266E3,-6.4893564E3,-2.740164E2,5.972754E3,-1.5185975E3],"split_indices":[4,2,2,1,4,0,0,0,0,0,0,0,0],"split_type":[0,0,0,0,0,0,0,0,0,0,0,0,0],"sum_hessian":[1.75E2,1.65E2,1E1,5E0,1.6E2,9E0,1E0,1E0,4E0,9E0,1.51E2,8E0,1E0],"tree_param":{"num_deleted":"0","num_feature":"8","num_nodes":"13","size_leaf_vector":"1"}},{"base_weights":[1.2342294E4,-9.914411E4,2.2588922E4,6.9172427E3,-6.917036E3,2.9263108E3,1.2079359E5,2.3135212E3,-1.7370826E3,-4.2653066E3,6.076444E2,1.0770155E4,2.1143425E3],"categories":[],"categories_nodes":[],"categories_segments":[],"categories_sizes":[],"default_left":[0,0,0,0,0,0,0,0,0,0,0,0,0],"id":54,"left_children":[1,3,5,7,-1,9,11,-1,-1,-1,-1,-1,-1],"loss_changes":[2.0329488E11,6.3315624E10,3.1246205E11,9.804562E9,0E0,1.1175206E11,1.9143338E11,0E0,0E0,0E0,0E0,0E0,0E0],"parents":[2147483647,0,0,1,1,2,2,3,3,5,5,6,6],"right_children":[2,4,6,8,-1,10,12,-1,-1,-1,-1,-1,-1],"split_conditions":[6.2943607E1,5.14681E5,6.7154E2,6.0085064E1,-6.917036E3,1.31E0,9.30414E5,2.3135212E3,-1.7370826E3,-4.2653066E3,6.076444E2,1.0770155E4,2.1143425E3],"split_indices":[4,0,6,4,0,7,0,0,0,0,0,0,0],"split_type":[0,0,0,0,0,0,0,0,0,0,0,0,0],"sum_hessian":[1.75E2,1.4E1,1.61E2,4E0,1E1,1.35E2,2.6E1,2E0,2E0,1.2E1,1.23E2,1.1E1,1.5E1],"tree_param":{"num_deleted":"0","num_feature":"8","num_nodes":"13","size_leaf_vector":"1"}},{"base_weights":[2.4693027E3,-9.2073266E4,1.1208002E4,-1.0852403E5,-1.9702615E4,1.501776E4,7.546496E3,-6.6023906E3,-3.1496138E3,-1.7325348E3,6.2853815E2,5.495664E2,-8.877254E3],"categories":[],"categories_nodes":[],"categories_segments":[],"categories_sizes":[],"default_left":[0,0,0,0,0,0,0,0,0,0,0,0,0],"id":55,"left_children":[1,3,5,7,9,-1,11,-1,-1,-1,-1,-1,-1],"loss_changes":[1.4643945E11,1.5720071E10,1.6924505E11,4.534944E9,2.365288E9,0E0,1.0460654E11,0E0,0E0,0E0,0E0,0E0,0E0],"parents":[2147483647,0,0,1,1,2,2,3,3,4,4,6,6],"right_children":[2,4,6,8,10,-1,12,-1,-1,-1,-1,-1,-1],"split_conditions":[1.31E0,3.55083E5,1.41E0,5.4051E2,3.69617E5,1.501776E4,8.2180524E2,-6.6023906E3,-3.1496138E3,-1.7325348E3,6.2853815E2,5.495664E2,-8.877254E3],"split_indices":[7,2,7,6,2,0,6,0,0,0,0,0,0],"split_type":[0,0,0,0,0,0,0,0,0,0,0,0,0],"sum_hessian":[1.75E2,1.4E1,1.61E2,1.1E1,3E0,1E0,1.6E2,6E0,5E0,2E0,1E0,1.58E2,2E0],"tree_param":{"num_deleted":"0","num_feature":"8","num_nodes":"13","size_leaf_vector":"1"}},{"base_weights":[-1.4160697E3,-1.108674E5,7.8792915E3,-5.7230168E4,-1.5632888E5,-5.6166875E3,5.471989E4,-5.0201167E3,5.521276E2,-2.2213474E3,-8.378734E3,2.6915735E2,-6.8526523E3,4.417684E3,-3.9123396E3],"categories":[],"categories_nodes":[],"categories_segments":[],"categories_sizes":[],"default_left":[0,0,0,0,0,0,0,0,0,0,0,0,0,0,0],"id":56,"left_children":[1,3,5,7,9,11,13,-1,-1,-1,-1,-1,-1,-1,-1],"loss_changes":[1.8196891E11,2.5191252E10,1.046137E11,2.4688554E10,1.3641482E9,1.8724318E11,1.723838E11,0E0,0E0,0E0,0E0,0E0,0E0,0E0,0E0],"parents":[2147483647,0,0,1,1,2,2,3,3,4,4,5,5,6,6],"right_children":[2,4,6,8,10,12,14,-1,-1,-1,-1,-1,-1,-1,-1],"split_conditions":[6.2943607E1,4.4706E4,6.6515E2,3.71E1,2.22776E5,6.515055E2,7.846619E2,-5.0201167E3,5.521276E2,-2.2213474E3,-8.378734E3,2.6915735E2,-6.8526523E3,4.417684E3,-3.9123396E3],"split_indices":[4,1,6,5,2,6,6,0,0,0,0,0,0,0,0],"split_type":[0,0,0,0,0,0,0,0,0,0,0,0,0,0,0],"sum_hessian":[1.77E2,1.3E1,1.64E2,7E0,6E0,1.28E2,3.6E1,4E0,3E0,1E0,5E0,1.19E2,9E0,2.9E1,7E0],"tree_param":{"num_deleted":"0","num_feature":"8","num_nodes":"15","size_leaf_vector":"1"}},{"base_weights":[-2.0439275E3,3.2560727E4,-2.4990254E4,6.781035E3,1.2397706E5,-4.055143E4,1.9872045E4,-4.61321E3,2.6829E3,1.7162836E3,1.921749E4,-1.4722792E3,-5.1440874E3,-1.6169275E2,1.1060058E4],"categories":[],"categories_nodes":[],"categories_segments":[],"categories_sizes":[],"default_left":[0,0,0,0,0,0,0,0,0,0,0,0,0,0,0],"id":57,"left_children":[1,3,5,7,9,11,13,-1,-1,-1,-1,-1,-1,-1,-1],"loss_changes":[1.4533075E11,1.711973E11,7.759795E10,2.742412E11,3.6029134E11,5.3733507E10,1.3562016E11,0E0,0E0,0E0,0E0,0E0,0E0,0E0,0E0],"parents":[2147483647,0,0,1,1,2,2,3,3,4,4,5,5,6,6],"right_children":[2,4,6,8,10,12,14,-1,-1,-1,-1,-1,-1,-1,-1],"split_conditions":[1.65825E5,1.55001E5,8.3218E4,3.4979805E1,7.040024E2,3.3211E5,3.45557E5,-4.61321E3,2.6829E3,1.7162836E3,1.921749E4,-1.4722792E3,-5.1440874E3,-1.6169275E2,1.1060058E4],"split_indices":[3,3,1,5,6,3,3,0,0,0,0,0,0,0,0],"split_type":[0,0,0,0,0,0,0,0,0,0,0,0,0,0,0],"sum_hessian":[1.81E2,7.2E1,1.09E2,5.7E1,1.5E1,8.1E1,2.8E1,1.8E1,3.9E1,1.2E1,3E0,7E1,1.1E1,2.6E1,2E0],"tree_param":{"num_deleted":"0","num_feature":"8","num_nodes":"15","size_leaf_vector":"1"}},{"base_weights":[3.6073015E3,-5.2471187E3,1.0517548E5,-8.149816E4,5.5294146E3,2.0079543E4,2.0525035E4,-4.881736E3,5.6274136E3,8.455981E3,-2.1028886E2,5.803134E3,-5.36167E2],"categories":[],"categories_nodes":[],"categories_segments":[],"categories_sizes":[],"default_left":[0,0,0,0,0,0,0,0,0,0,0,0,0],"id":58,"left_children":[1,3,5,7,9,11,-1,-1,-1,-1,-1,-1,-1],"loss_changes":[1.570348E11,1.3274786E11,3.5550436E11,7.3613476E10,2.2685796E11,3.6723274E10,0E0,0E0,0E0,0E0,0E0,0E0,0E0],"parents":[2147483647,0,0,1,1,2,2,3,3,4,4,5,5],"right_children":[2,4,6,8,10,12,-1,-1,-1,-1,-1,-1,-1],"split_conditions":[1.03025665E2,1.20629E5,3.24E0,1.444273E6,2.29477E5,6.285E2,2.0525035E4,-4.881736E3,5.6274136E3,8.455981E3,-2.1028886E2,5.803134E3,-5.36167E2],"split_indices":[4,3,7,0,2,6,0,0,0,0,0,0,0],"split_type":[0,0,0,0,0,0,0,0,0,0,0,0,0],"sum_hessian":[1.73E2,1.6E2,1.3E1,1.9E1,1.41E2,1.1E1,2E0,1.8E1,1E0,7E0,1.34E2,2E0,9E0],"tree_param":{"num_deleted":"0","num_feature":"8","num_nodes":"13","size_leaf_vector":"1"}},{"base_weights":[7.474434E3,-3.574384E4,3.5923754E4,-9.557165E4,-1.7798438E4,1.3853417E5,1.6976426E3,-1.1024097E3,-5.605758E3,9.132867E3,-1.4734908E3,4.1185347E3,1.3559366E4,-8.488754E2,3.3755044E3],"categories":[],"categories_nodes":[],"categories_segments":[],"categories_sizes":[],"default_left":[0,0,0,0,0,0,0,0,0,0,0,0,0,0,0],"id":59,"left_children":[1,3,5,7,9,11,13,-1,-1,-1,-1,-1,-1,-1,-1],"loss_changes":[2.0415658E11,6.915884E10,3.5096035E11,1.5773082E10,1.2704183E11,1.6391864E11,9.455451E10,0E0,0E0,0E0,0E0,0E0,0E0,0E0,0E0],"parents":[2147483647,0,0,1,1,2,2,3,3,4,4,5,5,6,6],"right_children":[2,4,6,8,10,12,14,-1,-1,-1,-1,-1,-1,-1,-1],"split_conditions":[2.82E0,5.490709E2,1.65825E5,4.1179E4,5.544085E2,1.54039E5,5.25E0,-1.1024097E3,-5.605758E3,9.132867E3,-1.4734908E3,4.1185347E3,1.3559366E4,-8.488754E2,3.3755044E3],"split_indices":[7,6,3,1,6,3,7,0,0,0,0,0,0,0,0],"split_type":[0,0,0,0,0,0,0,0,0,0,0,0,0,0,0],"sum_hessian":[1.64E2,6.5E1,9.9E1,1.4E1,5.1E1,2.4E1,7.5E1,3E0,1.1E1,2E0,4.9E1,1.8E1,6E0,5.9E1,1.6E1],"tree_param":{"num_deleted":"0","num_feature":"8","num_nodes":"15","size_leaf_vector":"1"}},{"base_weights":[2.6697253E3,-5.907069E3,1.0662582E5,1.29673414E5,-1.1658022E4,1.9828455E4,2.5254512E4,7.3627655E1,1.1272795E4,-3.4438998E2,-8.098677E3,-2.2070684E3,4.056446E3],"categories":[],"categories_nodes":[],"categories_segments":[],"categories_sizes":[],"default_left":[0,0,0,0,0,0,0,0,0,0,0,0,0],"id":60,"left_children":[1,3,5,7,9,-1,11,-1,-1,-1,-1,-1,-1],"loss_changes":[1.637945E11,1.3406364E11,3.202877E11,8.562374E10,1.1647866E11,0E0,5.0110595E10,0E0,0E0,0E0,0E0,0E0,0E0],"parents":[2147483647,0,0,1,1,2,2,3,3,4,4,6,6],"right_children":[2,4,6,8,10,-1,12,-1,-1,-1,-1,-1,-1],"split_conditions":[1.03025665E2,2.15465E5,1.03834496E2,1.20629E5,8.17E0,1.9828455E4,2.83224E5,7.3627655E1,1.1272795E4,-3.4438998E2,-8.098677E3,-2.2070684E3,4.056446E3],"split_indices":[4,2,4,3,7,0,2,0,0,0,0,0,0],"split_type":[0,0,0,0,0,0,0,0,0,0,0,0,0],"sum_hessian":[1.82E2,1.69E2,1.3E1,6E0,1.63E2,2E0,1.1E1,3E0,3E0,1.59E2,4E0,5E0,6E0],"tree_param":{"num_deleted":"0","num_feature":"8","num_nodes":"13","size_leaf_vector":"1"}},{"base_weights":[-9.255922E3,-3.7743066E4,9.009741E3,-1.0698021E5,-1.7435514E4,4.3203543E4,-3.410609E4,-6.0814307E3,-3.9218585E2,-4.415754E3,5.1364594E2,-3.2390237E3,3.607612E3,-4.0770122E3,9.467824E2],"categories":[],"categories_nodes":[],"categories_segments":[],"categories_sizes":[],"default_left":[0,0,0,0,0,0,0,0,0,0,0,0,0,0,0],"id":61,"left_children":[1,3,5,7,9,11,13,-1,-1,-1,-1,-1,-1,-1,-1],"loss_changes":[8.931762E10,9.2339225E10,1.562744E11,2.0828815E10,1.0499723E11,1.8910786E11,1.1979555E11,0E0,0E0,0E0,0E0,0E0,0E0,0E0,0E0],"parents":[2147483647,0,0,1,1,2,2,3,3,4,4,5,5,6,6],"right_children":[2,4,6,8,10,12,14,-1,-1,-1,-1,-1,-1,-1,-1],"split_conditions":[2.82E0,3.4979805E1,4.9E0,3.63986E5,5.9684E2,1.26445E5,5.17E0,-6.0814307E3,-3.9218585E2,-4.415754E3,5.1364594E2,-3.2390237E3,3.607612E3,-4.0770122E3,9.467824E2],"split_indices":[7,5,7,2,6,3,7,0,0,0,0,0,0,0,0],"split_type":[0,0,0,0,0,0,0,0,0,0,0,0,0,0,0],"sum_hessian":[1.7E2,6.6E1,1.04E2,1.4E1,5.2E1,5.8E1,4.6E1,1.2E1,2E0,1.4E1,3.8E1,1.2E1,4.6E1,2.4E1,2.2E1],"tree_param":{"num_deleted":"0","num_feature":"8","num_nodes":"15","size_leaf_vector":"1"}},{"base_weights":[-1.722031E3,-3.7967332E4,2.2112709E4,2.0312258E4,-6.9501164E4,2.2613213E3,1.9154627E5,3.7752551E3,-1.822153E3,5.1064634E3,-3.7861492E3,5.4729987E2,-7.8126016E3,-5.760655E3,1.3625823E4],"categories":[],"categories_nodes":[],"categories_segments":[],"categories_sizes":[],"default_left":[0,0,0,0,0,0,0,0,0,0,0,0,0,0,0],"id":62,"left_children":[1,3,5,7,9,11,13,-1,-1,-1,-1,-1,-1,-1,-1],"loss_changes":[1.502938E11,1.2821847E11,3.5273343E11,8.106383E10,5.5786914E10,1.32490854E11,3.0461952E11,0E0,0E0,0E0,0E0,0E0,0E0,0E0,0E0],"parents":[2147483647,0,0,1,1,2,2,3,3,4,4,5,5,6,6],"right_children":[2,4,6,8,10,12,14,-1,-1,-1,-1,-1,-1,-1,-1],"split_conditions":[2.82E0,2.62805E5,6.8199E2,6.63359E5,3.4129E4,7.49E0,4.5837E4,3.7752551E3,-1.822153E3,5.1064634E3,-3.7861492E3,5.4729987E2,-7.8126016E3,-5.760655E3,1.3625823E4],"split_indices":[7,2,6,0,1,7,1,0,0,0,0,0,0,0,0],"split_type":[0,0,0,0,0,0,0,0,0,0,0,0,0,0,0],"sum_hessian":[1.72E2,6.8E1,1.04E2,2.4E1,4.4E1,9.4E1,1E1,1.2E1,1.2E1,1E0,4.3E1,9E1,4E0,2E0,8E0],"tree_param":{"num_deleted":"0","num_feature":"8","num_nodes":"15","size_leaf_vector":"1"}},{"base_weights":[1.6691082E3,-9.632653E3,4.8120098E4,1.14142766E5,-1.7752846E4,-3.105817E4,1.4408544E5,1.3987979E4,1.3429006E3,-3.1767175E3,1.689308E2,5.2942554E3,-2.60783E3,1.1101708E4,1.9191217E3],"categories":[],"categories_nodes":[],"categories_segments":[],"categories_sizes":[],"default_left":[0,0,0,0,0,0,0,0,0,0,0,0,0,0,0],"id":63,"left_children":[1,3,5,7,9,11,13,-1,-1,-1,-1,-1,-1,-1,-1],"loss_changes":[9.3909615E10,1.4675791E11,2.7041795E11,1.2258856E11,1.3178516E11,6.330837E10,1.2330838E11,0E0,0E0,0E0,0E0,0E0,0E0,0E0,0E0],"parents":[2147483647,0,0,1,1,2,2,3,3,4,4,5,5,6,6],"right_children":[2,4,6,8,10,12,14,-1,-1,-1,-1,-1,-1,-1,-1],"split_conditions":[6.8207E2,2.29477E5,3.08957E5,6.63359E5,2.81E0,7.01949E2,7.091845E2,1.3987979E4,1.3429006E3,-3.1767175E3,1.689308E2,5.2942554E3,-2.60783E3,1.1101708E4,1.9191217E3],"split_indices":[6,2,2,0,7,6,6,0,0,0,0,0,0,0,0],"split_type":[0,0,0,0,0,0,0,0,0,0,0,0,0,0,0],"sum_hessian":[1.77E2,1.43E2,3.4E1,8E0,1.35E2,1.9E1,1.5E1,2E0,6E0,4.2E1,9.3E1,2E0,1.7E1,8E0,7E0],"tree_param":{"num_deleted":"0","num_feature":"8","num_nodes":"15","size_leaf_vector":"1"}},{"base_weights":[4.4037983E3,-2.0943068E4,3.0603484E4,-3.0626914E4,1.1489333E5,3.704586E4,-7.7844585E3,3.9846438E3,-2.2659834E3,9.364284E3,-9.9637854E2,4.245646E2,5.284946E3],"categories":[],"categories_nodes":[],"categories_segments":[],"categories_sizes":[],"default_left":[0,0,0,0,0,0,0,0,0,0,0,0,0],"id":64,"left_children":[1,3,5,7,9,11,-1,-1,-1,-1,-1,-1,-1],"loss_changes":[1.1353452E11,1.17960245E11,1.0658164E11,1.3652555E11,6.2292197E10,1.5985186E11,0E0,0E0,0E0,0E0,0E0,0E0,0E0],"parents":[2147483647,0,0,1,1,2,2,3,3,4,4,5,5],"right_children":[2,4,6,8,10,12,-1,-1,-1,-1,-1,-1,-1],"split_conditions":[8.655467E1,1.125222E6,8.393754E2,2.29477E5,1.298788E6,6.6993E2,-7.7844585E3,3.9846438E3,-2.2659834E3,9.364284E3,-9.9637854E2,4.245646E2,5.284946E3],"split_indices":[4,0,6,2,0,6,0,0,0,0,0,0,0],"split_type":[0,0,0,0,0,0,0,0,0,0,0,0,0],"sum_hessian":[1.69E2,8.6E1,8.3E1,8.1E1,5E0,8.1E1,2E0,9E0,7.2E1,3E0,2E0,5.8E1,2.3E1],"tree_param":{"num_deleted":"0","num_feature":"8","num_nodes":"13","size_leaf_vector":"1"}},{"base_weights":[1.0402274E3,-9.139378E3,1.3074352E5,-5.6548098E4,1.932559E3,1.870758E4,4.464674E4,-7.034046E2,-5.777788E3,6.2802603E3,-2.679271E2,3.8406152E3,-2.800516E3],"categories":[],"categories_nodes":[],"categories_segments":[],"categories_sizes":[],"default_left":[0,0,0,0,0,0,0,0,0,0,0,0,0],"id":65,"left_children":[1,3,5,7,9,-1,11,-1,-1,-1,-1,-1,-1],"loss_changes":[2.177288E11,8.0419955E10,2.3477509E11,7.1067075E10,1.1338678E11,0E0,3.6679205E10,0E0,0E0,0E0,0E0,0E0,0E0],"parents":[2147483647,0,0,1,1,2,2,3,3,4,4,6,6],"right_children":[2,4,6,8,10,-1,12,-1,-1,-1,-1,-1,-1],"split_conditions":[1.03025665E2,6.6995995E1,1.03834496E2,2.96039E5,2.29477E5,1.870758E4,7.8845E4,-7.034046E2,-5.777788E3,6.2802603E3,-2.679271E2,3.8406152E3,-2.800516E3],"split_indices":[4,4,4,2,2,0,1,0,0,0,0,0,0],"split_type":[0,0,0,0,0,0,0,0,0,0,0,0,0],"sum_hessian":[1.63E2,1.52E2,1.1E1,2.8E1,1.24E2,2E0,9E0,1.7E1,1.1E1,6E0,1.18E2,7E0,2E0],"tree_param":{"num_deleted":"0","num_feature":"8","num_nodes":"13","size_leaf_vector":"1"}},{"base_weights":[-7.829867E2,-1.0364508E4,1.18677734E5,-2.0168361E4,8.705781E4,3.6167988E5,4.1615523E4,-7.295029E2,-6.522351E3,-5.3318823E2,6.8492495E3,5.611129E3,2.151486E4,4.696531E3,-1.9974346E3],"categories":[],"categories_nodes":[],"categories_segments":[],"categories_sizes":[],"default_left":[0,0,0,0,0,0,0,0,0,0,0,0,0,0,0],"id":66,"left_children":[1,3,5,7,9,11,13,-1,-1,-1,-1,-1,-1,-1,-1],"loss_changes":[2.0039311E11,1.564843E11,2.2839011E11,8.914159E10,7.4645225E10,3.0621696E9,5.0689843E10,0E0,0E0,0E0,0E0,0E0,0E0,0E0,0E0],"parents":[2147483647,0,0,1,1,2,2,3,3,4,4,5,5,6,6],"right_children":[2,4,6,8,10,12,14,-1,-1,-1,-1,-1,-1,-1,-1],"split_conditions":[1.03025665E2,1.167477E6,1.03834496E2,1.11665E6,3.59E1,9.12113E5,1.105225E6,-7.295029E2,-6.522351E3,-5.3318823E2,6.8492495E3,5.611129E3,2.151486E4,4.696531E3,-1.9974346E3],"split_indices":[4,0,4,0,5,0,0,0,0,0,0,0,0,0,0],"split_type":[0,0,0,0,0,0,0,0,0,0,0,0,0,0,0],"sum_hessian":[1.73E2,1.61E2,1.2E1,1.47E2,1.4E1,2E0,1E1,1.41E2,6E0,5E0,9E0,1E0,1E0,6E0,4E0],"tree_param":{"num_deleted":"0","num_feature":"8","num_nodes":"15","size_leaf_vector":"1"}},{"base_weights":[-2.4916409E3,-2.4275488E4,3.6034684E4,-5.0921207E4,1.753992E4,1.767409E4,2.3446638E5,-3.6008523E3,1.5535996E3,1.6089946E3,-6.479239E3,2.188031E3,-2.827323E3,2.097699E4,4.1656514E3],"categories":[],"categories_nodes":[],"categories_segments":[],"categories_sizes":[],"default_left":[0,0,0,0,0,0,0,0,0,0,0,0,0,0,0],"id":67,"left_children":[1,3,5,7,9,11,13,-1,-1,-1,-1,-1,-1,-1,-1],"loss_changes":[1.3935126E11,1.1899854E11,2.1445537E11,1.1466924E11,9.463388E10,1.10899266E11,1.049192E11,0E0,0E0,0E0,0E0,0E0,0E0,0E0,0E0],"parents":[2147483647,0,0,1,1,2,2,3,3,4,4,5,5,6,6],"right_children":[2,4,6,8,10,12,14,-1,-1,-1,-1,-1,-1,-1,-1],"split_conditions":[3.86973E5,7.7398E4,6.92E2,4.4E0,6.59E0,6.0818713E2,5.5599E4,-3.6008523E3,1.5535996E3,1.6089946E3,-6.479239E3,2.188031E3,-2.827323E3,2.097699E4,4.1656514E3],"split_indices":[2,1,6,7,7,6,1,0,0,0,0,0,0,0,0],"split_type":[0,0,0,0,0,0,0,0,0,0,0,0,0,0,0],"sum_hessian":[1.64E2,1.05E2,5.9E1,6.4E1,4.1E1,5.5E1,4E0,5.1E1,1.3E1,3.8E1,3E0,4.1E1,1.4E1,1E0,3E0],"tree_param":{"num_deleted":"0","num_feature":"8","num_nodes":"15","size_leaf_vector":"1"}},{"base_weights":[9.597245E3,1.4131701E4,-7.2339946E3,6.3342954E3,8.30184E4,9.990799E2,-2.0808782E3,7.8586016E3,-1.0025459E3],"categories":[],"categories_nodes":[],"categories_segments":[],"categories_sizes":[],"default_left":[0,0,0,0,0,0,0,0,0],"id":68,"left_children":[1,3,-1,5,7,-1,-1,-1,-1],"loss_changes":[1.2236938E11,8.971323E10,0E0,1.0030244E11,1.33081825E11,0E0,0E0,0E0,0E0],"parents":[2147483647,0,0,1,1,3,3,4,4],"right_children":[2,4,-1,6,8,-1,-1,-1,-1],"split_conditions":[8.17E0,5.29E0,-7.2339946E3,4.9E0,6.25E0,9.990799E2,-2.0808782E3,7.8586016E3,-1.0025459E3],"split_indices":[7,7,0,7,7,0,0,0,0],"split_type":[0,0,0,0,0,0,0,0,0],"sum_hessian":[1.71E2,1.67E2,4E0,1.51E2,1.6E1,1.18E2,3.3E1,9E0,7E0],"tree_param":{"num_deleted":"0","num_feature":"8","num_nodes":"9","size_leaf_vector":"1"}},{"base_weights":[-4.754603E2,3.6716147E3,-6.9446343E3,-4.753524E3,7.367713E4,5.3458905E2,-2.888187E3,7.1515854E3,-1.5447522E3],"categories":[],"categories_nodes":[],"categories_segments":[],"categories_sizes":[],"default_left":[0,0,0,0,0,0,0,0,0],"id":69,"left_children":[1,3,-1,5,7,-1,-1,-1,-1],"loss_changes":[9.866853E10,9.884787E10,0E0,1.2343144E11,1.34965035E11,0E0,0E0,0E0,0E0],"parents":[2147483647,0,0,1,1,3,3,4,4],"right_children":[2,4,-1,6,8,-1,-1,-1,-1],"split_conditions":[7.49E0,5.25E0,-6.9446343E3,4.9E0,6.25E0,5.3458905E2,-2.888187E3,7.1515854E3,-1.5447522E3],"split_indices":[7,7,0,7,7,0,0,0,0],"split_type":[0,0,0,0,0,0,0,0,0],"sum_hessian":[1.7E2,1.66E2,4E0,1.49E2,1.7E1,1.16E2,3.3E1,1E1,7E0],"tree_param":{"num_deleted":"0","num_feature":"8","num_nodes":"9","size_leaf_vector":"1"}},{"base_weights":[-7.879694E2,-8.619096E3,9.5053336E4,9.35108E4,-1.3937649E4,1.7291174E4,1.8020258E4,-3.0408481E3,9.913544E3,-3.196003E2,-4.7063145E3,-2.8129714E3,3.4251433E3],"categories":[],"categories_nodes":[],"categories_segments":[],"categories_sizes":[],"default_left":[0,0,0,0,0,0,0,0,0,0,0,0,0],"id":70,"left_children":[1,3,5,7,9,-1,11,-1,-1,-1,-1,-1,-1],"loss_changes":[1.2916252E11,8.7669465E10,2.4489689E11,1.4139734E11,9.136971E10,0E0,4.5102092E10,0E0,0E0,0E0,0E0,0E0,0E0],"parents":[2147483647,0,0,1,1,2,2,3,3,4,4,6,6],"right_children":[2,4,6,8,10,-1,12,-1,-1,-1,-1,-1,-1],"split_conditions":[1.03025665E2,2.15465E5,1.03834496E2,3.7052E4,3.17827E5,1.7291174E4,1.37836E5,-3.0408481E3,9.913544E3,-3.196003E2,-4.7063145E3,-2.8129714E3,3.4251433E3],"split_indices":[4,2,4,1,3,0,3,0,0,0,0,0,0],"split_type":[0,0,0,0,0,0,0,0,0,0,0,0,0],"sum_hessian":[1.7E2,1.58E2,1.2E1,7E0,1.51E2,2E0,1E1,3E0,4E0,1.39E2,1.2E1,4E0,6E0],"tree_param":{"num_deleted":"0","num_feature":"8","num_nodes":"13","size_leaf_vector":"1"}},{"base_weights":[5.67055E3,-4.965655E4,1.6329319E4,2.8175676E3,-1.1445682E5,-3.0040973E4,4.1240508E4,-5.307349E3,1.6874524E3,2.2911013E3,-7.388204E3,1.1664816E3,-3.5868047E3,2.3462441E3,-7.7203203E3],"categories":[],"categories_nodes":[],"categories_segments":[],"categories_sizes":[],"default_left":[0,0,0,0,0,0,0,0,0,0,0,0,0,0,0],"id":71,"left_children":[1,3,5,7,9,11,13,-1,-1,-1,-1,-1,-1,-1,-1],"loss_changes":[1.0578081E11,9.893227E10,1.7450977E11,6.0879737E10,7.617069E10,1.1961416E11,1.1623434E11,0E0,0E0,0E0,0E0,0E0,0E0,0E0,0E0],"parents":[2147483647,0,0,1,1,2,2,3,3,4,4,5,5,6,6],"right_children":[2,4,6,8,10,12,14,-1,-1,-1,-1,-1,-1,-1,-1],"split_conditions":[6.735317E1,5.0875E4,5.2079407E2,3.35E1,5.468843E2,3.96E1,8.393754E2,-5.307349E3,1.6874524E3,2.2911013E3,-7.388204E3,1.1664816E3,-3.5868047E3,2.3462441E3,-7.7203203E3],"split_indices":[4,1,6,5,6,5,6,0,0,0,0,0,0,0,0],"split_type":[0,0,0,0,0,0,0,0,0,0,0,0,0,0,0],"sum_hessian":[1.77E2,2.8E1,1.49E2,1.6E1,1.2E1,5.2E1,9.7E1,3E0,1.3E1,2E0,1E1,2.3E1,2.9E1,9.5E1,2E0],"tree_param":{"num_deleted":"0","num_feature":"8","num_nodes":"15","size_leaf_vector":"1"}},{"base_weights":[-3.7175688E3,-1.0145857E1,-6.747915E3,-3.449392E4,1.3355737E4,3.1229363E3,-2.456713E3,-2.405268E3,1.4668617E3],"categories":[],"categories_nodes":[],"categories_segments":[],"categories_sizes":[],"default_left":[0,0,0,0,0,0,0,0,0],"id":72,"left_children":[1,3,-1,5,7,-1,-1,-1,-1],"loss_changes":[8.855342E10,8.250199E10,0E0,7.403982E10,1.2812027E11,0E0,0E0,0E0,0E0],"parents":[2147483647,0,0,1,1,3,3,4,4],"right_children":[2,4,-1,6,8,-1,-1,-1,-1],"split_conditions":[8.17E0,5.2079407E2,-6.747915E3,4.701E2,6.735317E1,3.1229363E3,-2.456713E3,-2.405268E3,1.4668617E3],"split_indices":[7,6,0,6,4,0,0,0,0],"split_type":[0,0,0,0,0,0,0,0,0],"sum_hessian":[1.81E2,1.77E2,4E0,4.9E1,1.28E2,6E0,4.3E1,2.6E1,1.02E2],"tree_param":{"num_deleted":"0","num_feature":"8","num_nodes":"9","size_leaf_vector":"1"}},{"base_weights":[2.2673594E3,-7.5226586E4,8.669614E3,-2.335095E4,-1.16355555E5,1.1774485E3,1.0800404E5,-2.707745E3,-9.918375E0,-7.2107344E3,-1.5569222E3,5.254354E3,-2.3843272E2,1.6638744E4,1.0539984E3],"categories":[],"categories_nodes":[],"categories_segments":[],"categories_sizes":[],"default_left":[0,0,0,0,0,0,0,0,0,0,0,0,0,0,0],"id":73,"left_children":[1,3,5,7,9,11,13,-1,-1,-1,-1,-1,-1,-1,-1],"loss_changes":[8.449917E10,2.5019654E10,1.1671693E11,4.98159E9,1.2127887E10,9.132616E10,2.0790306E11,0E0,0E0,0E0,0E0,0E0,0E0,0E0,0E0],"parents":[2147483647,0,0,1,1,2,2,3,3,4,4,5,5,6,6],"right_children":[2,4,6,8,10,12,14,-1,-1,-1,-1,-1,-1,-1,-1],"split_conditions":[2.98E1,2.00648E5,1.03025665E2,8.2204E4,2.84984E5,2.15465E5,3.355E1,-2.707745E3,-9.918375E0,-7.2107344E3,-1.5569222E3,5.254354E3,-2.3843272E2,1.6638744E4,1.0539984E3],"split_indices":[5,3,4,3,2,2,5,0,0,0,0,0,0,0,0],"split_type":[0,0,0,0,0,0,0,0,0,0,0,0,0,0,0],"sum_hessian":[1.68E2,1.2E1,1.56E2,6E0,6E0,1.46E2,1E1,2E0,4E0,4E0,2E0,7E0,1.39E2,2E0,8E0],"tree_param":{"num_deleted":"0","num_feature":"8","num_nodes":"15","size_leaf_vector":"1"}},{"base_weights":[8.1142197E3,-3.20772E4,3.5337504E4,6.0762775E2,-5.6804938E4,2.8256658E4,1.9470654E4,-2.2903894E3,2.4943018E3,-4.5251245E3,-1.5809199E3,1.7008993E3,-6.286068E3],"categories":[],"categories_nodes":[],"categories_segments":[],"categories_sizes":[],"default_left":[0,0,0,0,0,0,0,0,0,0,0,0,0],"id":74,"left_children":[1,3,5,7,9,11,-1,-1,-1,-1,-1,-1,-1],"loss_changes":[1.9479673E11,5.8226508E10,2.547548E11,7.547806E10,3.1936168E10,9.742416E10,0E0,0E0,0E0,0E0,0E0,0E0,0E0],"parents":[2147483647,0,0,1,1,2,2,3,3,4,4,5,5],"right_children":[2,4,6,8,10,12,-1,-1,-1,-1,-1,-1,-1],"split_conditions":[2.81E0,1.43263E5,1.0219163E2,1.14583E5,5.741195E2,8.17E0,1.9470654E4,-2.2903894E3,2.4943018E3,-4.5251245E3,-1.5809199E3,1.7008993E3,-6.286068E3],"split_indices":[7,3,4,3,6,7,0,0,0,0,0,0,0],"split_type":[0,0,0,0,0,0,0,0,0,0,0,0,0],"sum_hessian":[1.76E2,7.1E1,1.05E2,3.1E1,4E1,1.04E2,1E0,1.6E1,1.5E1,1.6E1,2.4E1,1.01E2,3E0],"tree_param":{"num_deleted":"0","num_feature":"8","num_nodes":"13","size_leaf_vector":"1"}},{"base_weights":[7.160209E3,1.0523169E3,8.952905E4,2.2873094E4,-3.6787902E4,3.201296E5,1.1395972E4,1.3039435E2,3.759659E3,-3.8146707E3,8.903755E2,5.025832E3,1.8983885E4,2.4523987E3,-4.6403994E3],"categories":[],"categories_nodes":[],"categories_segments":[],"categories_sizes":[],"default_left":[0,0,0,0,0,0,0,0,0,0,0,0,0,0,0],"id":75,"left_children":[1,3,5,7,9,11,13,-1,-1,-1,-1,-1,-1,-1,-1],"loss_changes":[8.744518E10,1.3543103E11,2.1256215E11,1.1007274E11,1.3076778E11,1.06859725E9,4.3786916E10,0E0,0E0,0E0,0E0,0E0,0E0,0E0,0E0],"parents":[2147483647,0,0,1,1,2,2,3,3,4,4,5,5,6,6],"right_children":[2,4,6,8,10,12,14,-1,-1,-1,-1,-1,-1,-1,-1],"split_conditions":[1.03025665E2,6.1839453E2,1.03834496E2,5.5306335E2,6.8199E2,9.12113E5,1.08818665E2,1.3039435E2,3.759659E3,-3.8146707E3,8.903755E2,5.025832E3,1.8983885E4,2.4523987E3,-4.6403994E3],"split_indices":[4,6,4,6,6,0,4,0,0,0,0,0,0,0,0],"split_type":[0,0,0,0,0,0,0,0,0,0,0,0,0,0,0],"sum_hessian":[1.73E2,1.62E2,1.1E1,1.03E2,5.9E1,2E0,9E0,7.5E1,2.8E1,3.4E1,2.5E1,1E0,1E0,7E0,2E0],"tree_param":{"num_deleted":"0","num_feature":"8","num_nodes":"15","size_leaf_vector":"1"}},{"base_weights":[-7.789278E3,-1.498956E4,7.644394E4,-3.8610473E4,7.6121973E3,3.121263E5,5.2174683E3,-3.4901711E3,-7.249597E2,2.6289268E3,-7.295192E2,4.900185E3,1.8509285E4,1.6959491E3,-2.6744949E3],"categories":[],"categories_nodes":[],"categories_segments":[],"categories_sizes":[],"default_left":[0,0,0,0,0,0,0,0,0,0,0,0,0,0,0],"id":76,"left_children":[1,3,5,7,9,11,13,-1,-1,-1,-1,-1,-1,-1,-1],"loss_changes":[1.0000582E11,8.090891E10,2.1660013E11,5.464344E10,7.863991E10,1.01587354E9,2.034921E10,0E0,0E0,0E0,0E0,0E0,0E0,0E0,0E0],"parents":[2147483647,0,0,1,1,2,2,3,3,4,4,5,5,6,6],"right_children":[2,4,6,8,10,12,14,-1,-1,-1,-1,-1,-1,-1,-1],"split_conditions":[1.03025665E2,1.84883E5,1.03834496E2,2.73E0,3.13E0,9.12113E5,7.8322E4,-3.4901711E3,-7.249597E2,2.6289268E3,-7.295192E2,4.900185E3,1.8509285E4,1.6959491E3,-2.6744949E3],"split_indices":[4,3,4,7,7,0,1,0,0,0,0,0,0,0,0],"split_type":[0,0,0,0,0,0,0,0,0,0,0,0,0,0,0],"sum_hessian":[1.62E2,1.5E2,1.2E1,7.3E1,7.7E1,2E0,1E1,3.1E1,4.2E1,2.5E1,5.2E1,1E0,1E0,7E0,3E0],"tree_param":{"num_deleted":"0","num_feature":"8","num_nodes":"15","size_leaf_vector":"1"}},{"base_weights":[4.809115E3,-6.806288E4,1.2068026E4,5.7478896E3,-9.9296375E4,2.4575747E3,6.5200617E4,-1.5661984E3,4.777682E3,6.996777E2,-6.9307266E3,7.5964813E2,-1.9001006E3,1.2445243E3,1.4034187E4],"categories":[],"categories_nodes":[],"categories_segments":[],"categories_sizes":[],"default_left":[0,0,0,0,0,0,0,0,0,0,0,0,0,0,0],"id":77,"left_children":[1,3,5,7,9,11,13,-1,-1,-1,-1,-1,-1,-1,-1],"loss_changes":[9.921006E10,3.9762E10,8.664655E10,2.2968721E10,5.5391953E10,7.52913E10,2.1885359E11,0E0,0E0,0E0,0E0,0E0,0E0,0E0,0E0],"parents":[2147483647,0,0,1,1,2,2,3,3,4,4,5,5,6,6],"right_children":[2,4,6,8,10,12,14,-1,-1,-1,-1,-1,-1,-1,-1],"split_conditions":[1.11253E5,9.1805E4,6.8207E2,5.8149E4,6.36845E5,6.1839453E2,3.01E0,-1.5661984E3,4.777682E3,6.996777E2,-6.9307266E3,7.5964813E2,-1.9001006E3,1.2445243E3,1.4034187E4],"split_indices":[3,3,6,1,0,6,7,0,0,0,0,0,0,0,0],"split_type":[0,0,0,0,0,0,0,0,0,0,0,0,0,0,0],"sum_hessian":[1.85E2,1.6E1,1.69E2,5E0,1.1E1,1.44E2,2.5E1,4E0,1E0,3E0,8E0,1.1E2,3.4E1,2.2E1,3E0],"tree_param":{"num_deleted":"0","num_feature":"8","num_nodes":"15","size_leaf_vector":"1"}},{"base_weights":[1.559838E3,-2.621763E4,1.6763498E4,-3.1679201E4,7.8099897E3,9.8432414E4,3.5288347E3,1.0920879E3,-2.7917974E3,1.0618783E3,8.648628E3,4.83398E2,-5.752406E3],"categories":[],"categories_nodes":[],"categories_segments":[],"categories_sizes":[],"default_left":[0,0,0,0,0,0,0,0,0,0,0,0,0],"id":78,"left_children":[1,3,5,7,-1,9,11,-1,-1,-1,-1,-1,-1],"loss_changes":[7.5189985E10,6.7714253E10,1.2395161E11,8.137887E10,0E0,8.83923E10,7.390815E10,0E0,0E0,0E0,0E0,0E0,0E0],"parents":[2147483647,0,0,1,1,2,2,3,3,5,5,6,6],"right_children":[2,4,6,8,-1,10,12,-1,-1,-1,-1,-1,-1],"split_conditions":[5.8476E4,5.29E0,6.3947E4,1.42855E5,7.8099897E3,6.0577E4,8.17E0,1.0920879E3,-2.7917974E3,1.0618783E3,8.648628E3,4.83398E2,-5.752406E3],"split_indices":[1,7,1,3,0,1,7,0,0,0,0,0,0],"split_type":[0,0,0,0,0,0,0,0,0,0,0,0,0],"sum_hessian":[1.76E2,6.2E1,1.14E2,6.1E1,1E0,1.5E1,9.9E1,1.9E1,4.2E1,8E0,7E0,9.5E1,4E0],"tree_param":{"num_deleted":"0","num_feature":"8","num_nodes":"13","size_leaf_vector":"1"}},{"base_weights":[3.7365977E3,-7.721901E4,1.1163576E4,-6.7330044E3,-1.11788695E5,-2.9320367E4,2.8821768E4,-3.7138328E3,2.2803982E3,-2.1930208E3,-6.7317515E3,-3.026067E3,2.0382135E3,-9.7221594E2,2.2012197E3],"categories":[],"categories_nodes":[],"categories_segments":[],"categories_sizes":[],"default_left":[0,0,0,0,0,0,0,0,0,0,0,0,0,0,0],"id":79,"left_children":[1,3,5,7,9,11,13,-1,-1,-1,-1,-1,-1,-1,-1],"loss_changes":[1.0728426E11,3.579751E10,1.1736939E11,2.4599407E10,9.613959E9,1.1180255E11,8.450597E10,0E0,0E0,0E0,0E0,0E0,0E0,0E0,0E0],"parents":[2147483647,0,0,1,1,2,2,3,3,4,4,5,5,6,6],"right_children":[2,4,6,8,10,12,14,-1,-1,-1,-1,-1,-1,-1,-1],"split_conditions":[6.2943607E1,4.135E4,5.2079407E2,3.35E1,1.41384E5,5.16E0,7.101297E1,-3.7138328E3,2.2803982E3,-2.1930208E3,-6.7317515E3,-3.026067E3,2.0382135E3,-9.7221594E2,2.2012197E3],"split_indices":[4,1,6,5,3,7,4,0,0,0,0,0,0,0,0],"split_type":[0,0,0,0,0,0,0,0,0,0,0,0,0,0,0],"sum_hessian":[1.76E2,1.4E1,1.62E2,5E0,9E0,4.9E1,1.13E2,2E0,3E0,3E0,6E0,3.4E1,1.5E1,2.7E1,8.6E1],"tree_param":{"num_deleted":"0","num_feature":"8","num_nodes":"15","size_leaf_vector":"1"}},{"base_weights":[-2.9794983E3,-1.1027032E4,4.5429848E4,-2.5560662E4,2.370453E4,8.8085086E4,-2.309599E4,-1.7580797E3,3.3142024E3,9.507002E3,3.2341818E2,5.0515366E3,-2.3288428E3,1.178007E3,-3.7232083E3],"categories":[],"categories_nodes":[],"categories_segments":[],"categories_sizes":[],"default_left":[0,0,0,0,0,0,0,0,0,0,0,0,0,0,0],"id":80,"left_children":[1,3,5,7,9,11,13,-1,-1,-1,-1,-1,-1,-1,-1],"loss_changes":[6.556012E10,7.32936E10,7.2186085E10,9.227369E10,1.2212462E11,3.0854971E10,2.5720797E10,0E0,0E0,0E0,0E0,0E0,0E0,0E0,0E0],"parents":[2147483647,0,0,1,1,2,2,3,3,4,4,5,5,6,6],"right_children":[2,4,6,8,10,12,14,-1,-1,-1,-1,-1,-1,-1,-1],"split_conditions":[4.6E1,8.185E4,4.79E0,1.03025665E2,2.29477E5,1.277928E6,4.15031E5,-1.7580797E3,3.3142024E3,9.507002E3,3.2341818E2,5.0515366E3,-2.3288428E3,1.178007E3,-3.7232083E3],"split_indices":[5,1,7,4,2,0,2,0,0,0,0,0,0,0,0],"split_type":[0,0,0,0,0,0,0,0,0,0,0,0,0,0,0],"sum_hessian":[1.66E2,1.43E2,2.3E1,1.01E2,4.2E1,1.4E1,9E0,9.2E1,9E0,3E0,3.9E1,1.3E1,1E0,5E0,4E0],"tree_param":{"num_deleted":"0","num_feature":"8","num_nodes":"15","size_leaf_vector":"1"}},{"base_weights":[-6.6157715E3,-1.3763434E4,8.241417E4,-8.996911E4,-7.022243E3,2.95145E5,1.6904463E4,-1.6949662E3,-6.659308E3,-4.0970903E3,3.708491E1,4.5082695E3,1.7627604E4,2.8103123E3,-2.0749453E3],"categories":[],"categories_nodes":[],"categories_segments":[],"categories_sizes":[],"default_left":[0,0,0,0,0,0,0,0,0,0,0,0,0,0,0],"id":81,"left_children":[1,3,5,7,9,11,13,-1,-1,-1,-1,-1,-1,-1,-1],"loss_changes":[1.11223865E11,8.207664E10,1.7617787E11,2.6986275E10,8.672978E10,3.5137946E9,2.758142E10,0E0,0E0,0E0,0E0,0E0,0E0,0E0,0E0],"parents":[2147483647,0,0,1,1,2,2,3,3,4,4,5,5,6,6],"right_children":[2,4,6,8,10,12,14,-1,-1,-1,-1,-1,-1,-1,-1],"split_conditions":[1.03025665E2,6.2943607E1,1.03834496E2,2.27641E5,1.71E0,9.12113E5,1.105225E6,-1.6949662E3,-6.659308E3,-4.0970903E3,3.708491E1,4.5082695E3,1.7627604E4,2.8103123E3,-2.0749453E3],"split_indices":[4,4,4,2,7,0,0,0,0,0,0,0,0,0,0],"split_type":[0,0,0,0,0,0,0,0,0,0,0,0,0,0,0],"sum_hessian":[1.72E2,1.6E2,1.2E1,1.2E1,1.48E2,2E0,1E1,6E0,6E0,1.3E1,1.35E2,1E0,1E0,6E0,4E0],"tree_param":{"num_deleted":"0","num_feature":"8","num_nodes":"15","size_leaf_vector":"1"}},{"base_weights":[8.598517E3,-5.8670016E4,1.4467454E4,-1.8230256E4,-7.302289E4,1.3285667E5,6.47839E3,-1.5550121E3,8.312397E2,-4.6894746E3,-1.6749183E3,2.9818234E2,9.319371E3,-4.1886743E3,6.076479E2],"categories":[],"categories_nodes":[],"categories_segments":[],"categories_sizes":[],"default_left":[0,0,0,0,0,0,0,0,0,0,0,0,0,0,0],"id":82,"left_children":[1,3,5,7,9,11,13,-1,-1,-1,-1,-1,-1,-1,-1],"loss_changes":[6.875351E10,6.7947356E9,1.4952451E11,2.7599565E9,5.0660966E9,6.6815246E10,7.783914E10,0E0,0E0,0E0,0E0,0E0,0E0,0E0,0E0],"parents":[2147483647,0,0,1,1,2,2,3,3,4,4,5,5,6,6],"right_children":[2,4,6,8,10,12,14,-1,-1,-1,-1,-1,-1,-1,-1],"split_conditions":[6.8E-1,4.0577E4,1.75E0,3.9734E4,7.67801E5,4.2119E4,2.98E1,-1.5550121E3,8.312397E2,-4.6894746E3,-1.6749183E3,2.9818234E2,9.319371E3,-4.1886743E3,6.076479E2],"split_indices":[7,1,7,1,0,1,5,0,0,0,0,0,0,0,0],"split_type":[0,0,0,0,0,0,0,0,0,0,0,0,0,0,0],"sum_hessian":[1.71E2,1.3E1,1.58E2,4E0,9E0,9E0,1.49E2,3E0,1E0,5E0,4E0,3E0,6E0,8E0,1.41E2],"tree_param":{"num_deleted":"0","num_feature":"8","num_nodes":"15","size_leaf_vector":"1"}},{"base_weights":[-6.6994966E3,-8.5538E4,-3.8981702E2,-4.2098082E4,-6.8967124E3,-1.1899807E4,6.4183152E4,-3.831621E3,4.9910557E3,4.155345E3,-8.6049725E2,-6.445595E2,9.275447E3],"categories":[],"categories_nodes":[],"categories_segments":[],"categories_sizes":[],"default_left":[0,0,0,0,0,0,0,0,0,0,0,0,0],"id":83,"left_children":[1,3,5,7,-1,9,11,-1,-1,-1,-1,-1,-1],"loss_changes":[8.0552845E10,2.1506277E10,1.12992125E11,4.6858215E10,0E0,6.651062E10,2.1746686E11,0E0,0E0,0E0,0E0,0E0,0E0],"parents":[2147483647,0,0,1,1,2,2,3,3,5,5,6,6],"right_children":[2,4,6,8,-1,10,12,-1,-1,-1,-1,-1,-1],"split_conditions":[1.11253E5,1.00501E5,6.8199E2,8.1241E4,-6.8967124E3,4.701E2,3E0,-3.831621E3,4.9910557E3,4.155345E3,-8.6049725E2,-6.445595E2,9.275447E3],"split_indices":[3,3,6,1,0,6,7,0,0,0,0,0,0],"split_type":[0,0,0,0,0,0,0,0,0,0,0,0,0],"sum_hessian":[1.61E2,1.1E1,1.5E2,7E0,4E0,1.28E2,2.2E1,6E0,1E0,6E0,1.22E2,1.4E1,8E0],"tree_param":{"num_deleted":"0","num_feature":"8","num_nodes":"13","size_leaf_vector":"1"}},{"base_weights":[1.6286766E3,-9.236999E4,5.4226772E3,-2.9225154E4,-8.341068E3,-1.2305347E4,2.930619E4,-1.720284E3,-2.1257408E2,3.4334662E2,-2.9740583E3,4.1600055E2,5.243054E3],"categories":[],"categories_nodes":[],"categories_segments":[],"categories_sizes":[],"default_left":[0,0,0,0,0,0,0,0,0,0,0,0,0],"id":84,"left_children":[1,3,5,7,-1,9,11,-1,-1,-1,-1,-1,-1],"loss_changes":[6.433784E10,2.8033139E10,7.361011E10,5.006044E8,0E0,9.085526E10,1.1646257E11,0E0,0E0,0E0,0E0,0E0,0E0],"parents":[2147483647,0,0,1,1,2,2,3,3,5,5,6,6],"right_children":[2,4,6,8,-1,10,12,-1,-1,-1,-1,-1,-1],"split_conditions":[1.03361E5,7.4544E4,8.916038E1,7.8826715E2,-8.341068E3,7.867032E1,6.8207E2,-1.720284E3,-2.1257408E2,3.4334662E2,-2.9740583E3,4.1600055E2,5.243054E3],"split_indices":[3,1,4,6,0,4,6,0,0,0,0,0,0],"split_type":[0,0,0,0,0,0,0,0,0,0,0,0,0],"sum_hessian":[1.78E2,6E0,1.72E2,4E0,2E0,9.9E1,7.3E1,3E0,1E0,7.1E1,2.8E1,5.8E1,1.5E1],"tree_param":{"num_deleted":"0","num_feature":"8","num_nodes":"13","size_leaf_vector":"1"}},{"base_weights":[1.9538159E3,1.3653141E4,-2.8170035E4,7.6063994E3,1.9617712E5,-6.3625367E4,1.8235385E4,8.481754E2,-3.3228523E3,1.680876E4,1.8726338E3,-1.8429254E3,-6.933021E3,6.377935E3,-6.572638E2],"categories":[],"categories_nodes":[],"categories_segments":[],"categories_sizes":[],"default_left":[0,0,0,0,0,0,0,0,0,0,0,0,0,0,0],"id":85,"left_children":[1,3,5,7,9,11,13,-1,-1,-1,-1,-1,-1,-1,-1],"loss_changes":[6.1707203E10,1.3757088E11,8.17809E10,8.636876E10,7.629378E10,5.1125846E10,7.715084E10,0E0,0E0,0E0,0E0,0E0,0E0,0E0,0E0],"parents":[2147483647,0,0,1,1,2,2,3,3,4,4,5,5,6,6],"right_children":[2,4,6,8,10,12,14,-1,-1,-1,-1,-1,-1,-1,-1],"split_conditions":[9.3911E5,9.27784E5,1.160055E6,3.14775E5,9.30414E5,1.11665E6,7.5050156E1,8.481754E2,-3.3228523E3,1.680876E4,1.8726338E3,-1.8429254E3,-6.933021E3,6.377935E3,-6.572638E2],"split_indices":[0,0,0,3,0,0,4,0,0,0,0,0,0,0,0],"split_type":[0,0,0,0,0,0,0,0,0,0,0,0,0,0,0],"sum_hessian":[1.73E2,1.25E2,4.8E1,1.22E2,3E0,2.7E1,2.1E1,1.09E2,1.3E1,1E0,2E0,2.1E1,6E0,4E0,1.7E1],"tree_param":{"num_deleted":"0","num_feature":"8","num_nodes":"15","size_leaf_vector":"1"}},{"base_weights":[4.6513214E2,4.254353E3,-1.063421E5,-6.5204688E4,1.0460586E4,2.430924E3,-1.4705794E5,-8.698901E2,-6.302378E3,-3.475383E2,2.041165E3,-8.179475E3,-2.0232881E3],"categories":[],"categories_nodes":[],"categories_segments":[],"categories_sizes":[],"default_left":[0,0,0,0,0,0,0,0,0,0,0,0,0],"id":86,"left_children":[1,3,5,7,9,-1,11,-1,-1,-1,-1,-1,-1],"loss_changes":[7.087302E10,7.353442E10,4.5005836E10,3.8528954E10,8.2754085E10,0E0,2.190893E9,0E0,0E0,0E0,0E0,0E0,0E0],"parents":[2147483647,0,0,1,1,2,2,3,3,4,4,6,6],"right_children":[2,4,6,8,10,-1,12,-1,-1,-1,-1,-1,-1],"split_conditions":[3.5152E5,1.11253E5,2.46296E5,3.98775E5,3.88868E5,2.430924E3,4.21E1,-8.698901E2,-6.302378E3,-3.475383E2,2.041165E3,-8.179475E3,-2.0232881E3],"split_indices":[3,3,2,2,2,0,5,0,0,0,0,0,0],"split_type":[0,0,0,0,0,0,0,0,0,0,0,0,0],"sum_hessian":[1.73E2,1.68E2,5E0,1.3E1,1.55E2,1E0,4E0,8E0,5E0,9.9E1,5.6E1,3E0,1E0],"tree_param":{"num_deleted":"0","num_feature":"8","num_nodes":"13","size_leaf_vector":"1"}},{"base_weights":[-1.6943424E3,-1.1141622E4,4.3971637E4,8.106048E3,-6.1196004E4,4.0036343E3,1.6901339E5,-1.5393254E2,4.2457524E3,-1.3830066E3,-7.2022734E3,1.5650809E3,-6.674359E3,1.1876269E4,-7.554833E1],"categories":[],"categories_nodes":[],"categories_segments":[],"categories_sizes":[],"default_left":[0,0,0,0,0,0,0,0,0,0,0,0,0,0,0],"id":87,"left_children":[1,3,5,7,9,11,13,-1,-1,-1,-1,-1,-1,-1,-1],"loss_changes":[7.296835E10,1.3537629E11,1.4425575E11,8.788814E10,1.043744E11,9.050246E10,8.213963E10,0E0,0E0,0E0,0E0,0E0,0E0,0E0,0E0],"parents":[2147483647,0,0,1,1,2,2,3,3,4,4,5,5,6,6],"right_children":[2,4,6,8,10,12,14,-1,-1,-1,-1,-1,-1,-1,-1],"split_conditions":[9.742191E1,6.230076E2,3.74048E5,5.29E0,3.5E0,7.8826715E2,4.54343E5,-1.5393254E2,4.2457524E3,-1.3830066E3,-7.2022734E3,1.5650809E3,-6.674359E3,1.1876269E4,-7.554833E1],"split_indices":[4,6,2,7,7,6,2,0,0,0,0,0,0,0,0],"split_type":[0,0,0,0,0,0,0,0,0,0,0,0,0,0,0],"sum_hessian":[1.67E2,1.39E2,2.8E1,1.01E2,3.8E1,2.2E1,6E0,8.9E1,1.2E1,2.8E1,1E1,1.9E1,3E0,4E0,2E0],"tree_param":{"num_deleted":"0","num_feature":"8","num_nodes":"15","size_leaf_vector":"1"}},{"base_weights":[-2.2778346E2,-7.771564E4,6.8180454E3,4.1792695E4,-1.0111643E5,-1.4754079E2,5.945512E4,-1.2404397E3,4.3748945E3,-5.841926E3,1.7956615E3,6.024677E3,-3.7852365E2,7.7672573E3,-7.1765465E1],"categories":[],"categories_nodes":[],"categories_segments":[],"categories_sizes":[],"default_left":[0,0,0,0,0,0,0,0,0,0,0,0,0,0,0],"id":88,"left_children":[1,3,5,7,9,11,13,-1,-1,-1,-1,-1,-1,-1,-1],"loss_changes":[9.170623E10,4.337819E10,5.6472584E10,1.1302824E10,3.0048756E10,1.2359712E11,1.0532112E11,0E0,0E0,0E0,0E0,0E0,0E0,0E0,0E0],"parents":[2147483647,0,0,1,1,2,2,3,3,4,4,5,5,6,6],"right_children":[2,4,6,8,10,12,14,-1,-1,-1,-1,-1,-1,-1,-1],"split_conditions":[6.2943607E1,1.93853E5,6.8207E2,3.7052E4,3.98705E5,2.42561E5,7.0408E2,-1.2404397E3,4.3748945E3,-5.841926E3,1.7956615E3,6.024677E3,-3.7852365E2,7.7672573E3,-7.1765465E1],"split_indices":[4,2,6,1,2,2,6,0,0,0,0,0,0,0,0],"split_type":[0,0,0,0,0,0,0,0,0,0,0,0,0,0,0],"sum_hessian":[1.66E2,1.3E1,1.53E2,2E0,1.1E1,1.36E2,1.7E1,1E0,1E0,1E1,1E0,7E0,1.29E2,6E0,1.1E1],"tree_param":{"num_deleted":"0","num_feature":"8","num_nodes":"15","size_leaf_vector":"1"}},{"base_weights":[2.5035664E3,-7.1832375E4,6.966554E3,-2.0774146E4,-9.074672E4,-4.229266E4,1.3243301E4,1.9173375E2,-2.3650178E3,-5.1300537E3,-4.9051315E2,-2.7914575E3,5.034101E3,5.8363584E3,3.2480856E2],"categories":[],"categories_nodes":[],"categories_segments":[],"categories_sizes":[],"default_left":[0,0,0,0,0,0,0,0,0,0,0,0,0,0,0],"id":89,"left_children":[1,3,5,7,9,11,13,-1,-1,-1,-1,-1,-1,-1,-1],"loss_changes":[5.8558484E10,7.7721313E9,5.1885236E10,2.7925012E9,5.7095905E9,4.2393117E10,1.0257813E11,0E0,0E0,0E0,0E0,0E0,0E0,0E0,0E0],"parents":[2147483647,0,0,1,1,2,2,3,3,4,4,5,5,6,6],"right_children":[2,4,6,8,10,12,14,-1,-1,-1,-1,-1,-1,-1,-1],"split_conditions":[4.5E-1,1.38387E5,1.14583E5,3.4621E5,7.67801E5,1.444273E6,1.75E0,1.9173375E2,-2.3650178E3,-5.1300537E3,-4.9051315E2,-2.7914575E3,5.034101E3,5.8363584E3,3.2480856E2],"split_indices":[7,3,3,2,0,0,7,0,0,0,0,0,0,0,0],"split_type":[0,0,0,0,0,0,0,0,0,0,0,0,0,0,0],"sum_hessian":[1.74E2,9E0,1.65E2,3E0,6E0,1.8E1,1.47E2,2E0,1E0,5E0,1E0,1.7E1,1E0,8E0,1.39E2],"tree_param":{"num_deleted":"0","num_feature":"8","num_nodes":"15","size_leaf_vector":"1"}},{"base_weights":[-1.1975061E4,-5.879032E4,-6.0483086E3,1.6017719E3,-6.954198E4,9.299917E4,-9.843384E3,-8.234754E2,1.3953928E3,-4.361448E3,-4.8236963E2,5.587484E3,1.8499369E3,-9.360961E2,1.6470432E3],"categories":[],"categories_nodes":[],"categories_segments":[],"categories_sizes":[],"default_left":[0,0,0,0,0,0,0,0,0,0,0,0,0,0,0],"id":90,"left_children":[1,3,5,7,9,11,13,-1,-1,-1,-1,-1,-1,-1,-1],"loss_changes":[4.9310188E10,1.3097697E10,6.105824E10,2.3611681E9,1.7167491E10,2.1656044E9,5.9495264E10,0E0,0E0,0E0,0E0,0E0,0E0,0E0,0E0],"parents":[2147483647,0,0,1,1,2,2,3,3,4,4,5,5,6,6],"right_children":[2,4,6,8,10,12,14,-1,-1,-1,-1,-1,-1,-1,-1],"split_conditions":[1.71E0,4.60649E5,1.75E0,3.69617E5,9.66671E5,6.1839453E2,9.7557816E1,-8.234754E2,1.3953928E3,-4.361448E3,-4.8236963E2,5.587484E3,1.8499369E3,-9.360961E2,1.6470432E3],"split_indices":[7,0,7,2,0,6,4,0,0,0,0,0,0,0,0],"split_type":[0,0,0,0,0,0,0,0,0,0,0,0,0,0,0],"sum_hessian":[1.78E2,1.9E1,1.59E2,3E0,1.6E1,5E0,1.54E2,2E0,1E0,1.2E1,4E0,3E0,2E0,1.28E2,2.6E1],"tree_param":{"num_deleted":"0","num_feature":"8","num_nodes":"15","size_leaf_vector":"1"}},{"base_weights":[4.0004795E3,-3.8504912E3,5.095244E4,-1.4318962E4,3.7162297E4,-3.666655E4,8.5162945E4,3.2725713E3,-1.1295121E3,-3.0413107E2,8.38287E3,7.5316516E2,-3.5358572E3,5.620443E3,3.6976636E2],"categories":[],"categories_nodes":[],"categories_segments":[],"categories_sizes":[],"default_left":[0,0,0,0,0,0,0,0,0,0,0,0,0,0,0],"id":91,"left_children":[1,3,5,7,9,11,13,-1,-1,-1,-1,-1,-1,-1,-1],"loss_changes":[6.6916143E10,6.750935E10,8.105738E10,8.395394E10,1.816038E11,1.5156696E10,3.942682E10,0E0,0E0,0E0,0E0,0E0,0E0,0E0,0E0],"parents":[2147483647,0,0,1,1,2,2,3,3,4,4,5,5,6,6],"right_children":[2,4,6,8,10,12,14,-1,-1,-1,-1,-1,-1,-1,-1],"split_conditions":[4.6E1,9.831662E1,5.0496228E2,2.29477E5,3.80439E5,2.29307E5,4.89E1,3.2725713E3,-1.1295121E3,-3.0413107E2,8.38287E3,7.5316516E2,-3.5358572E3,5.620443E3,3.6976636E2],"split_indices":[5,4,6,2,2,3,5,0,0,0,0,0,0,0,0],"split_type":[0,0,0,0,0,0,0,0,0,0,0,0,0,0,0],"sum_hessian":[1.8E2,1.55E2,2.5E1,1.24E2,3.1E1,7E0,1.8E1,1.1E1,1.13E2,2.4E1,7E0,3E0,4E0,1.3E1,5E0],"tree_param":{"num_deleted":"0","num_feature":"8","num_nodes":"15","size_leaf_vector":"1"}},{"base_weights":[-3.843972E3,7.148265E3,-3.1572496E4,1.3729102E3,1.8728484E5,-5.4599293E4,3.318398E4,-5.188991E2,2.0517742E3,1.5783534E4,1.9632982E3,7.837252E2,-3.4132732E3,-9.6877795E2,5.3246323E3],"categories":[],"categories_nodes":[],"categories_segments":[],"categories_sizes":[],"default_left":[0,0,0,0,0,0,0,0,0,0,0,0,0,0,0],"id":92,"left_children":[1,3,5,7,9,11,13,-1,-1,-1,-1,-1,-1,-1,-1],"loss_changes":[5.4784623E10,1.3394837E11,7.785966E10,5.915076E10,6.3618957E10,3.756422E10,5.6006332E10,0E0,0E0,0E0,0E0,0E0,0E0,0E0,0E0],"parents":[2147483647,0,0,1,1,2,2,3,3,4,4,5,5,6,6],"right_children":[2,4,6,8,10,12,14,-1,-1,-1,-1,-1,-1,-1,-1],"split_conditions":[9.3911E5,9.27784E5,2.23792E5,8.54175E5,9.30414E5,1.73E0,3.796248E1,-5.188991E2,2.0517742E3,1.5783534E4,1.9632982E3,7.837252E2,-3.4132732E3,-9.6877795E2,5.3246323E3],"split_indices":[0,0,3,0,0,7,5,0,0,0,0,0,0,0,0],"split_type":[0,0,0,0,0,0,0,0,0,0,0,0,0,0,0],"sum_hessian":[1.78E2,1.28E2,5E1,1.25E2,3E0,3.7E1,1.3E1,9.7E1,2.8E1,1E0,2E0,6E0,3.1E1,8E0,5E0],"tree_param":{"num_deleted":"0","num_feature":"8","num_nodes":"15","size_leaf_vector":"1"}},{"base_weights":[6.3591357E3,-6.705705E4,1.0494379E4,-7.5285605E3,-8.0998086E4,-2.591096E4,1.81524E4,-1.3351093E3,7.704647E2,-5.176545E3,-1.6291261E3,8.195336E2,-4.287164E3,5.868263E3,5.775229E2],"categories":[],"categories_nodes":[],"categories_segments":[],"categories_sizes":[],"default_left":[0,0,0,0,0,0,0,0,0,0,0,0,0,0,0],"id":93,"left_children":[1,3,5,7,9,11,13,-1,-1,-1,-1,-1,-1,-1,-1],"loss_changes":[5.686856E10,7.689081E9,4.9537892E10,1.7308684E9,5.354201E9,7.9866544E10,9.427404E10,0E0,0E0,0E0,0E0,0E0,0E0,0E0,0E0],"parents":[2147483647,0,0,1,1,2,2,3,3,4,4,5,5,6,6],"right_children":[2,4,6,8,10,12,14,-1,-1,-1,-1,-1,-1,-1,-1],"split_conditions":[4.5E-1,4.0577E4,4.9987E4,3.9734E4,3.43636E5,4.4827E4,2.29477E5,-1.3351093E3,7.704647E2,-5.176545E3,-1.6291261E3,8.195336E2,-4.287164E3,5.868263E3,5.775229E2],"split_indices":[7,1,1,1,2,1,2,0,0,0,0,0,0,0,0],"split_type":[0,0,0,0,0,0,0,0,0,0,0,0,0,0,0],"sum_hessian":[1.84E2,9E0,1.75E2,2E0,7E0,3E1,1.45E2,1E0,1E0,4E0,3E0,1.8E1,1.2E1,8E0,1.37E2],"tree_param":{"num_deleted":"0","num_feature":"8","num_nodes":"15","size_leaf_vector":"1"}},{"base_weights":[7.6263464E2,-2.5045295E4,1.7721898E4,-4.6883074E4,2.2567592E4,6.4791566E4,2.0072267E3,1.6218391E3,-2.9352654E3,3.6791504E3,-5.2275454E3,6.035269E3,-1.3755414E3,7.477448E2,-3.3932695E3],"categories":[],"categories_nodes":[],"categories_segments":[],"categories_sizes":[],"default_left":[0,0,0,0,0,0,0,0,0,